digraph Tree {
node [shape=box, style="rounded", color="black", fontname=helvetica] ;
edge [fontname=helvetica] ;
0 [label="alcohol <= 10.05\ngini = 0.68\nsamples = 2473\nvalue = [11, 127, 1114, 1766, 766, 126, 7]"] ;
1 [label="citric acid <= 0.24\ngini = 0.61\nsamples = 1043\nvalue = [5, 58, 772, 651, 136, 18, 0]"] ;
0 -> 1 [labeldistance=2.5, labelangle=45, headlabel="True"] ;
2 [label="alcohol <= 9.53\ngini = 0.54\nsamples = 233\nvalue = [3, 29, 218, 107, 5, 0, 0]"] ;
1 -> 2 ;
3 [label="citric acid <= 0.02\ngini = 0.47\nsamples = 154\nvalue = [3, 18, 163, 51, 0, 0, 0]"] ;
2 -> 3 ;
4 [label="fixed acidity <= 6.0\ngini = 0.35\nsamples = 4\nvalue = [0, 7, 2, 0, 0, 0, 0]"] ;
3 -> 4 ;
5 [label="gini = 0.0\nsamples = 1\nvalue = [0, 0, 2, 0, 0, 0, 0]"] ;
4 -> 5 ;
6 [label="gini = 0.0\nsamples = 3\nvalue = [0, 7, 0, 0, 0, 0, 0]"] ;
4 -> 6 ;
7 [label="fixed acidity <= 5.75\ngini = 0.44\nsamples = 150\nvalue = [3, 11, 161, 51, 0, 0, 0]"] ;
3 -> 7 ;
8 [label="citric acid <= 0.14\ngini = 0.66\nsamples = 10\nvalue = [1, 2, 4, 6, 0, 0, 0]"] ;
7 -> 8 ;
9 [label="gini = 0.0\nsamples = 3\nvalue = [0, 0, 4, 0, 0, 0, 0]"] ;
8 -> 9 ;
10 [label="free sulfur dioxide <= 44.5\ngini = 0.49\nsamples = 7\nvalue = [1, 2, 0, 6, 0, 0, 0]"] ;
8 -> 10 ;
11 [label="gini = 0.0\nsamples = 5\nvalue = [0, 0, 0, 6, 0, 0, 0]"] ;
10 -> 11 ;
12 [label="citric acid <= 0.22\ngini = 0.44\nsamples = 2\nvalue = [1, 2, 0, 0, 0, 0, 0]"] ;
10 -> 12 ;
13 [label="gini = 0.0\nsamples = 1\nvalue = [0, 2, 0, 0, 0, 0, 0]"] ;
12 -> 13 ;
14 [label="gini = 0.0\nsamples = 1\nvalue = [1, 0, 0, 0, 0, 0, 0]"] ;
12 -> 14 ;
15 [label="pH <= 3.12\ngini = 0.41\nsamples = 140\nvalue = [2, 9, 157, 45, 0, 0, 0]"] ;
7 -> 15 ;
16 [label="volatile acidity <= 0.24\ngini = 0.51\nsamples = 47\nvalue = [0, 4, 45, 24, 0, 0, 0]"] ;
15 -> 16 ;
17 [label="free sulfur dioxide <= 20.5\ngini = 0.44\nsamples = 12\nvalue = [0, 0, 6, 12, 0, 0, 0]"] ;
16 -> 17 ;
18 [label="gini = 0.0\nsamples = 1\nvalue = [0, 0, 2, 0, 0, 0, 0]"] ;
17 -> 18 ;
19 [label="fixed acidity <= 6.1\ngini = 0.38\nsamples = 11\nvalue = [0, 0, 4, 12, 0, 0, 0]"] ;
17 -> 19 ;
20 [label="gini = 0.0\nsamples = 2\nvalue = [0, 0, 2, 0, 0, 0, 0]"] ;
19 -> 20 ;
21 [label="sulphates <= 0.64\ngini = 0.24\nsamples = 9\nvalue = [0, 0, 2, 12, 0, 0, 0]"] ;
19 -> 21 ;
22 [label="volatile acidity <= 0.21\ngini = 0.14\nsamples = 8\nvalue = [0, 0, 1, 12, 0, 0, 0]"] ;
21 -> 22 ;
23 [label="density <= 1.0\ngini = 0.5\nsamples = 2\nvalue = [0, 0, 1, 1, 0, 0, 0]"] ;
22 -> 23 ;
24 [label="gini = 0.0\nsamples = 1\nvalue = [0, 0, 0, 1, 0, 0, 0]"] ;
23 -> 24 ;
25 [label="gini = 0.0\nsamples = 1\nvalue = [0, 0, 1, 0, 0, 0, 0]"] ;
23 -> 25 ;
26 [label="gini = 0.0\nsamples = 6\nvalue = [0, 0, 0, 11, 0, 0, 0]"] ;
22 -> 26 ;
27 [label="gini = 0.0\nsamples = 1\nvalue = [0, 0, 1, 0, 0, 0, 0]"] ;
21 -> 27 ;
28 [label="density <= 0.99\ngini = 0.44\nsamples = 35\nvalue = [0, 4, 39, 12, 0, 0, 0]"] ;
16 -> 28 ;
29 [label="gini = 0.0\nsamples = 2\nvalue = [0, 0, 0, 5, 0, 0, 0]"] ;
28 -> 29 ;
30 [label="fixed acidity <= 7.35\ngini = 0.37\nsamples = 33\nvalue = [0, 4, 39, 7, 0, 0, 0]"] ;
28 -> 30 ;
31 [label="pH <= 3.0\ngini = 0.3\nsamples = 31\nvalue = [0, 4, 39, 4, 0, 0, 0]"] ;
30 -> 31 ;
32 [label="free sulfur dioxide <= 18.0\ngini = 0.65\nsamples = 5\nvalue = [0, 3, 2, 2, 0, 0, 0]"] ;
31 -> 32 ;
33 [label="gini = 0.0\nsamples = 1\nvalue = [0, 3, 0, 0, 0, 0, 0]"] ;
32 -> 33 ;
34 [label="total sulfur dioxide <= 108.5\ngini = 0.5\nsamples = 4\nvalue = [0, 0, 2, 2, 0, 0, 0]"] ;
32 -> 34 ;
35 [label="gini = 0.0\nsamples = 2\nvalue = [0, 0, 2, 0, 0, 0, 0]"] ;
34 -> 35 ;
36 [label="gini = 0.0\nsamples = 2\nvalue = [0, 0, 0, 2, 0, 0, 0]"] ;
34 -> 36 ;
37 [label="citric acid <= 0.12\ngini = 0.14\nsamples = 26\nvalue = [0, 1, 37, 2, 0, 0, 0]"] ;
31 -> 37 ;
38 [label="gini = 0.0\nsamples = 1\nvalue = [0, 1, 0, 0, 0, 0, 0]"] ;
37 -> 38 ;
39 [label="pH <= 3.09\ngini = 0.1\nsamples = 25\nvalue = [0, 0, 37, 2, 0, 0, 0]"] ;
37 -> 39 ;
40 [label="gini = 0.0\nsamples = 17\nvalue = [0, 0, 27, 0, 0, 0, 0]"] ;
39 -> 40 ;
41 [label="residual sugar <= 16.75\ngini = 0.28\nsamples = 8\nvalue = [0, 0, 10, 2, 0, 0, 0]"] ;
39 -> 41 ;
42 [label="gini = 0.0\nsamples = 5\nvalue = [0, 0, 9, 0, 0, 0, 0]"] ;
41 -> 42 ;
43 [label="sulphates <= 0.53\ngini = 0.44\nsamples = 3\nvalue = [0, 0, 1, 2, 0, 0, 0]"] ;
41 -> 43 ;
44 [label="gini = 0.0\nsamples = 2\nvalue = [0, 0, 0, 2, 0, 0, 0]"] ;
43 -> 44 ;
45 [label="gini = 0.0\nsamples = 1\nvalue = [0, 0, 1, 0, 0, 0, 0]"] ;
43 -> 45 ;
46 [label="gini = 0.0\nsamples = 2\nvalue = [0, 0, 0, 3, 0, 0, 0]"] ;
30 -> 46 ;
47 [label="alcohol <= 8.85\ngini = 0.34\nsamples = 93\nvalue = [2, 5, 112, 21, 0, 0, 0]"] ;
15 -> 47 ;
48 [label="citric acid <= 0.22\ngini = 0.5\nsamples = 7\nvalue = [0, 0, 5, 5, 0, 0, 0]"] ;
47 -> 48 ;
49 [label="free sulfur dioxide <= 43.5\ngini = 0.41\nsamples = 5\nvalue = [0, 0, 2, 5, 0, 0, 0]"] ;
48 -> 49 ;
50 [label="gini = 0.0\nsamples = 3\nvalue = [0, 0, 0, 5, 0, 0, 0]"] ;
49 -> 50 ;
51 [label="gini = 0.0\nsamples = 2\nvalue = [0, 0, 2, 0, 0, 0, 0]"] ;
49 -> 51 ;
52 [label="gini = 0.0\nsamples = 2\nvalue = [0, 0, 3, 0, 0, 0, 0]"] ;
48 -> 52 ;
53 [label="volatile acidity <= 0.5\ngini = 0.31\nsamples = 86\nvalue = [2, 5, 107, 16, 0, 0, 0]"] ;
47 -> 53 ;
54 [label="chlorides <= 0.03\ngini = 0.24\nsamples = 77\nvalue = [2, 2, 102, 12, 0, 0, 0]"] ;
53 -> 54 ;
55 [label="total sulfur dioxide <= 120.0\ngini = 0.38\nsamples = 2\nvalue = [0, 0, 1, 3, 0, 0, 0]"] ;
54 -> 55 ;
56 [label="gini = 0.0\nsamples = 1\nvalue = [0, 0, 1, 0, 0, 0, 0]"] ;
55 -> 56 ;
57 [label="gini = 0.0\nsamples = 1\nvalue = [0, 0, 0, 3, 0, 0, 0]"] ;
55 -> 57 ;
58 [label="free sulfur dioxide <= 8.5\ngini = 0.21\nsamples = 75\nvalue = [2, 2, 101, 9, 0, 0, 0]"] ;
54 -> 58 ;
59 [label="chlorides <= 0.05\ngini = 0.44\nsamples = 2\nvalue = [2, 0, 1, 0, 0, 0, 0]"] ;
58 -> 59 ;
60 [label="gini = 0.0\nsamples = 1\nvalue = [2, 0, 0, 0, 0, 0, 0]"] ;
59 -> 60 ;
61 [label="gini = 0.0\nsamples = 1\nvalue = [0, 0, 1, 0, 0, 0, 0]"] ;
59 -> 61 ;
62 [label="chlorides <= 0.11\ngini = 0.18\nsamples = 73\nvalue = [0, 2, 100, 9, 0, 0, 0]"] ;
58 -> 62 ;
63 [label="free sulfur dioxide <= 18.0\ngini = 0.16\nsamples = 69\nvalue = [0, 2, 97, 7, 0, 0, 0]"] ;
62 -> 63 ;
64 [label="chlorides <= 0.05\ngini = 0.38\nsamples = 9\nvalue = [0, 1, 10, 2, 0, 0, 0]"] ;
63 -> 64 ;
65 [label="free sulfur dioxide <= 14.0\ngini = 0.17\nsamples = 7\nvalue = [0, 0, 10, 1, 0, 0, 0]"] ;
64 -> 65 ;
66 [label="gini = 0.0\nsamples = 5\nvalue = [0, 0, 7, 0, 0, 0, 0]"] ;
65 -> 66 ;
67 [label="volatile acidity <= 0.31\ngini = 0.38\nsamples = 2\nvalue = [0, 0, 3, 1, 0, 0, 0]"] ;
65 -> 67 ;
68 [label="gini = 0.0\nsamples = 1\nvalue = [0, 0, 3, 0, 0, 0, 0]"] ;
67 -> 68 ;
69 [label="gini = 0.0\nsamples = 1\nvalue = [0, 0, 0, 1, 0, 0, 0]"] ;
67 -> 69 ;
70 [label="sulphates <= 0.47\ngini = 0.5\nsamples = 2\nvalue = [0, 1, 0, 1, 0, 0, 0]"] ;
64 -> 70 ;
71 [label="gini = 0.0\nsamples = 1\nvalue = [0, 1, 0, 0, 0, 0, 0]"] ;
70 -> 71 ;
72 [label="gini = 0.0\nsamples = 1\nvalue = [0, 0, 0, 1, 0, 0, 0]"] ;
70 -> 72 ;
73 [label="total sulfur dioxide <= 225.5\ngini = 0.12\nsamples = 60\nvalue = [0, 1, 87, 5, 0, 0, 0]"] ;
63 -> 73 ;
74 [label="density <= 1.0\ngini = 0.09\nsamples = 57\nvalue = [0, 1, 85, 3, 0, 0, 0]"] ;
73 -> 74 ;
75 [label="alcohol <= 9.35\ngini = 0.05\nsamples = 54\nvalue = [0, 0, 83, 2, 0, 0, 0]"] ;
74 -> 75 ;
76 [label="gini = 0.0\nsamples = 30\nvalue = [0, 0, 43, 0, 0, 0, 0]"] ;
75 -> 76 ;
77 [label="residual sugar <= 12.3\ngini = 0.09\nsamples = 24\nvalue = [0, 0, 40, 2, 0, 0, 0]"] ;
75 -> 77 ;
78 [label="total sulfur dioxide <= 198.5\ngini = 0.05\nsamples = 22\nvalue = [0, 0, 37, 1, 0, 0, 0]"] ;
77 -> 78 ;
79 [label="gini = 0.0\nsamples = 20\nvalue = [0, 0, 34, 0, 0, 0, 0]"] ;
78 -> 79 ;
80 [label="total sulfur dioxide <= 210.0\ngini = 0.38\nsamples = 2\nvalue = [0, 0, 3, 1, 0, 0, 0]"] ;
78 -> 80 ;
81 [label="gini = 0.0\nsamples = 1\nvalue = [0, 0, 0, 1, 0, 0, 0]"] ;
80 -> 81 ;
82 [label="gini = 0.0\nsamples = 1\nvalue = [0, 0, 3, 0, 0, 0, 0]"] ;
80 -> 82 ;
83 [label="chlorides <= 0.04\ngini = 0.38\nsamples = 2\nvalue = [0, 0, 3, 1, 0, 0, 0]"] ;
77 -> 83 ;
84 [label="gini = 0.0\nsamples = 1\nvalue = [0, 0, 0, 1, 0, 0, 0]"] ;
83 -> 84 ;
85 [label="gini = 0.0\nsamples = 1\nvalue = [0, 0, 3, 0, 0, 0, 0]"] ;
83 -> 85 ;
86 [label="citric acid <= 0.22\ngini = 0.62\nsamples = 3\nvalue = [0, 1, 2, 1, 0, 0, 0]"] ;
74 -> 86 ;
87 [label="pH <= 3.17\ngini = 0.5\nsamples = 2\nvalue = [0, 1, 0, 1, 0, 0, 0]"] ;
86 -> 87 ;
88 [label="gini = 0.0\nsamples = 1\nvalue = [0, 1, 0, 0, 0, 0, 0]"] ;
87 -> 88 ;
89 [label="gini = 0.0\nsamples = 1\nvalue = [0, 0, 0, 1, 0, 0, 0]"] ;
87 -> 89 ;
90 [label="gini = 0.0\nsamples = 1\nvalue = [0, 0, 2, 0, 0, 0, 0]"] ;
86 -> 90 ;
91 [label="total sulfur dioxide <= 233.25\ngini = 0.5\nsamples = 3\nvalue = [0, 0, 2, 2, 0, 0, 0]"] ;
73 -> 91 ;
92 [label="density <= 1.0\ngini = 0.44\nsamples = 2\nvalue = [0, 0, 1, 2, 0, 0, 0]"] ;
91 -> 92 ;
93 [label="gini = 0.0\nsamples = 1\nvalue = [0, 0, 0, 2, 0, 0, 0]"] ;
92 -> 93 ;
94 [label="gini = 0.0\nsamples = 1\nvalue = [0, 0, 1, 0, 0, 0, 0]"] ;
92 -> 94 ;
95 [label="gini = 0.0\nsamples = 1\nvalue = [0, 0, 1, 0, 0, 0, 0]"] ;
91 -> 95 ;
96 [label="pH <= 3.21\ngini = 0.48\nsamples = 4\nvalue = [0, 0, 3, 2, 0, 0, 0]"] ;
62 -> 96 ;
97 [label="gini = 0.0\nsamples = 1\nvalue = [0, 0, 2, 0, 0, 0, 0]"] ;
96 -> 97 ;
98 [label="residual sugar <= 5.45\ngini = 0.44\nsamples = 3\nvalue = [0, 0, 1, 2, 0, 0, 0]"] ;
96 -> 98 ;
99 [label="gini = 0.0\nsamples = 1\nvalue = [0, 0, 0, 1, 0, 0, 0]"] ;
98 -> 99 ;
100 [label="volatile acidity <= 0.37\ngini = 0.5\nsamples = 2\nvalue = [0, 0, 1, 1, 0, 0, 0]"] ;
98 -> 100 ;
101 [label="gini = 0.0\nsamples = 1\nvalue = [0, 0, 0, 1, 0, 0, 0]"] ;
100 -> 101 ;
102 [label="gini = 0.0\nsamples = 1\nvalue = [0, 0, 1, 0, 0, 0, 0]"] ;
100 -> 102 ;
103 [label="residual sugar <= 3.65\ngini = 0.65\nsamples = 9\nvalue = [0, 3, 5, 4, 0, 0, 0]"] ;
53 -> 103 ;
104 [label="residual sugar <= 1.6\ngini = 0.32\nsamples = 3\nvalue = [0, 1, 0, 4, 0, 0, 0]"] ;
103 -> 104 ;
105 [label="gini = 0.0\nsamples = 1\nvalue = [0, 1, 0, 0, 0, 0, 0]"] ;
104 -> 105 ;
106 [label="gini = 0.0\nsamples = 2\nvalue = [0, 0, 0, 4, 0, 0, 0]"] ;
104 -> 106 ;
107 [label="citric acid <= 0.11\ngini = 0.41\nsamples = 6\nvalue = [0, 2, 5, 0, 0, 0, 0]"] ;
103 -> 107 ;
108 [label="gini = 0.0\nsamples = 2\nvalue = [0, 2, 0, 0, 0, 0, 0]"] ;
107 -> 108 ;
109 [label="gini = 0.0\nsamples = 4\nvalue = [0, 0, 5, 0, 0, 0, 0]"] ;
107 -> 109 ;
110 [label="free sulfur dioxide <= 20.5\ngini = 0.61\nsamples = 79\nvalue = [0, 11, 55, 56, 5, 0, 0]"] ;
2 -> 110 ;
111 [label="chlorides <= 0.05\ngini = 0.54\nsamples = 17\nvalue = [0, 7, 16, 3, 0, 0, 0]"] ;
110 -> 111 ;
112 [label="free sulfur dioxide <= 10.5\ngini = 0.35\nsamples = 13\nvalue = [0, 1, 15, 3, 0, 0, 0]"] ;
111 -> 112 ;
113 [label="volatile acidity <= 0.43\ngini = 0.38\nsamples = 3\nvalue = [0, 1, 0, 3, 0, 0, 0]"] ;
112 -> 113 ;
114 [label="gini = 0.0\nsamples = 2\nvalue = [0, 0, 0, 3, 0, 0, 0]"] ;
113 -> 114 ;
115 [label="gini = 0.0\nsamples = 1\nvalue = [0, 1, 0, 0, 0, 0, 0]"] ;
113 -> 115 ;
116 [label="gini = 0.0\nsamples = 10\nvalue = [0, 0, 15, 0, 0, 0, 0]"] ;
112 -> 116 ;
117 [label="volatile acidity <= 0.25\ngini = 0.24\nsamples = 4\nvalue = [0, 6, 1, 0, 0, 0, 0]"] ;
111 -> 117 ;
118 [label="gini = 0.0\nsamples = 1\nvalue = [0, 0, 1, 0, 0, 0, 0]"] ;
117 -> 118 ;
119 [label="gini = 0.0\nsamples = 3\nvalue = [0, 6, 0, 0, 0, 0, 0]"] ;
117 -> 119 ;
120 [label="fixed acidity <= 6.75\ngini = 0.57\nsamples = 62\nvalue = [0, 4, 39, 53, 5, 0, 0]"] ;
110 -> 120 ;
121 [label="sulphates <= 0.62\ngini = 0.47\nsamples = 40\nvalue = [0, 1, 14, 41, 4, 0, 0]"] ;
120 -> 121 ;
122 [label="alcohol <= 9.95\ngini = 0.43\nsamples = 35\nvalue = [0, 0, 11, 40, 4, 0, 0]"] ;
121 -> 122 ;
123 [label="citric acid <= 0.18\ngini = 0.28\nsamples = 25\nvalue = [0, 0, 4, 32, 2, 0, 0]"] ;
122 -> 123 ;
124 [label="gini = 0.0\nsamples = 8\nvalue = [0, 0, 0, 14, 0, 0, 0]"] ;
123 -> 124 ;
125 [label="chlorides <= 0.04\ngini = 0.4\nsamples = 17\nvalue = [0, 0, 4, 18, 2, 0, 0]"] ;
123 -> 125 ;
126 [label="gini = 0.0\nsamples = 1\nvalue = [0, 0, 0, 0, 2, 0, 0]"] ;
125 -> 126 ;
127 [label="density <= 0.99\ngini = 0.3\nsamples = 16\nvalue = [0, 0, 4, 18, 0, 0, 0]"] ;
125 -> 127 ;
128 [label="gini = 0.0\nsamples = 2\nvalue = [0, 0, 2, 0, 0, 0, 0]"] ;
127 -> 128 ;
129 [label="sulphates <= 0.5\ngini = 0.18\nsamples = 14\nvalue = [0, 0, 2, 18, 0, 0, 0]"] ;
127 -> 129 ;
130 [label="total sulfur dioxide <= 165.0\ngini = 0.44\nsamples = 5\nvalue = [0, 0, 2, 4, 0, 0, 0]"] ;
129 -> 130 ;
131 [label="residual sugar <= 11.05\ngini = 0.44\nsamples = 3\nvalue = [0, 0, 2, 1, 0, 0, 0]"] ;
130 -> 131 ;
132 [label="gini = 0.0\nsamples = 2\nvalue = [0, 0, 2, 0, 0, 0, 0]"] ;
131 -> 132 ;
133 [label="gini = 0.0\nsamples = 1\nvalue = [0, 0, 0, 1, 0, 0, 0]"] ;
131 -> 133 ;
134 [label="gini = 0.0\nsamples = 2\nvalue = [0, 0, 0, 3, 0, 0, 0]"] ;
130 -> 134 ;
135 [label="gini = 0.0\nsamples = 9\nvalue = [0, 0, 0, 14, 0, 0, 0]"] ;
129 -> 135 ;
136 [label="chlorides <= 0.04\ngini = 0.6\nsamples = 10\nvalue = [0, 0, 7, 8, 2, 0, 0]"] ;
122 -> 136 ;
137 [label="chlorides <= 0.04\ngini = 0.32\nsamples = 5\nvalue = [0, 0, 0, 8, 2, 0, 0]"] ;
136 -> 137 ;
138 [label="sulphates <= 0.47\ngini = 0.44\nsamples = 3\nvalue = [0, 0, 0, 1, 2, 0, 0]"] ;
137 -> 138 ;
139 [label="gini = 0.0\nsamples = 2\nvalue = [0, 0, 0, 0, 2, 0, 0]"] ;
138 -> 139 ;
140 [label="gini = 0.0\nsamples = 1\nvalue = [0, 0, 0, 1, 0, 0, 0]"] ;
138 -> 140 ;
141 [label="gini = 0.0\nsamples = 2\nvalue = [0, 0, 0, 7, 0, 0, 0]"] ;
137 -> 141 ;
142 [label="gini = 0.0\nsamples = 5\nvalue = [0, 0, 7, 0, 0, 0, 0]"] ;
136 -> 142 ;
143 [label="density <= 0.99\ngini = 0.56\nsamples = 5\nvalue = [0, 1, 3, 1, 0, 0, 0]"] ;
121 -> 143 ;
144 [label="gini = 0.0\nsamples = 3\nvalue = [0, 0, 3, 0, 0, 0, 0]"] ;
143 -> 144 ;
145 [label="free sulfur dioxide <= 21.5\ngini = 0.5\nsamples = 2\nvalue = [0, 1, 0, 1, 0, 0, 0]"] ;
143 -> 145 ;
146 [label="gini = 0.0\nsamples = 1\nvalue = [0, 1, 0, 0, 0, 0, 0]"] ;
145 -> 146 ;
147 [label="gini = 0.0\nsamples = 1\nvalue = [0, 0, 0, 1, 0, 0, 0]"] ;
145 -> 147 ;
148 [label="fixed acidity <= 7.15\ngini = 0.54\nsamples = 22\nvalue = [0, 3, 25, 12, 1, 0, 0]"] ;
120 -> 148 ;
149 [label="total sulfur dioxide <= 201.25\ngini = 0.25\nsamples = 11\nvalue = [0, 2, 18, 0, 1, 0, 0]"] ;
148 -> 149 ;
150 [label="total sulfur dioxide <= 124.0\ngini = 0.1\nsamples = 10\nvalue = [0, 0, 18, 0, 1, 0, 0]"] ;
149 -> 150 ;
151 [label="gini = 0.0\nsamples = 1\nvalue = [0, 0, 0, 0, 1, 0, 0]"] ;
150 -> 151 ;
152 [label="gini = 0.0\nsamples = 9\nvalue = [0, 0, 18, 0, 0, 0, 0]"] ;
150 -> 152 ;
153 [label="gini = 0.0\nsamples = 1\nvalue = [0, 2, 0, 0, 0, 0, 0]"] ;
149 -> 153 ;
154 [label="density <= 1.0\ngini = 0.52\nsamples = 11\nvalue = [0, 1, 7, 12, 0, 0, 0]"] ;
148 -> 154 ;
155 [label="residual sugar <= 1.5\ngini = 0.34\nsamples = 7\nvalue = [0, 1, 2, 12, 0, 0, 0]"] ;
154 -> 155 ;
156 [label="gini = 0.0\nsamples = 1\nvalue = [0, 1, 0, 0, 0, 0, 0]"] ;
155 -> 156 ;
157 [label="chlorides <= 0.06\ngini = 0.24\nsamples = 6\nvalue = [0, 0, 2, 12, 0, 0, 0]"] ;
155 -> 157 ;
158 [label="gini = 0.0\nsamples = 4\nvalue = [0, 0, 0, 9, 0, 0, 0]"] ;
157 -> 158 ;
159 [label="citric acid <= 0.22\ngini = 0.48\nsamples = 2\nvalue = [0, 0, 2, 3, 0, 0, 0]"] ;
157 -> 159 ;
160 [label="gini = 0.0\nsamples = 1\nvalue = [0, 0, 0, 3, 0, 0, 0]"] ;
159 -> 160 ;
161 [label="gini = 0.0\nsamples = 1\nvalue = [0, 0, 2, 0, 0, 0, 0]"] ;
159 -> 161 ;
162 [label="gini = 0.0\nsamples = 4\nvalue = [0, 0, 5, 0, 0, 0, 0]"] ;
154 -> 162 ;
163 [label="residual sugar <= 12.75\ngini = 0.62\nsamples = 810\nvalue = [2, 29, 554, 544, 131, 18, 0]"] ;
1 -> 163 ;
164 [label="citric acid <= 0.42\ngini = 0.58\nsamples = 540\nvalue = [2, 19, 397, 381, 51, 2, 0]"] ;
163 -> 164 ;
165 [label="volatile acidity <= 0.28\ngini = 0.58\nsamples = 380\nvalue = [1, 13, 250, 287, 40, 1, 0]"] ;
164 -> 165 ;
166 [label="sulphates <= 0.45\ngini = 0.56\nsamples = 221\nvalue = [0, 4, 99, 199, 38, 1, 0]"] ;
165 -> 166 ;
167 [label="chlorides <= 0.03\ngini = 0.58\nsamples = 94\nvalue = [0, 1, 60, 68, 10, 1, 0]"] ;
166 -> 167 ;
168 [label="volatile acidity <= 0.13\ngini = 0.24\nsamples = 9\nvalue = [0, 0, 12, 2, 0, 0, 0]"] ;
167 -> 168 ;
169 [label="gini = 0.0\nsamples = 1\nvalue = [0, 0, 0, 1, 0, 0, 0]"] ;
168 -> 169 ;
170 [label="citric acid <= 0.34\ngini = 0.14\nsamples = 8\nvalue = [0, 0, 12, 1, 0, 0, 0]"] ;
168 -> 170 ;
171 [label="gini = 0.0\nsamples = 7\nvalue = [0, 0, 12, 0, 0, 0, 0]"] ;
170 -> 171 ;
172 [label="gini = 0.0\nsamples = 1\nvalue = [0, 0, 0, 1, 0, 0, 0]"] ;
170 -> 172 ;
173 [label="free sulfur dioxide <= 54.5\ngini = 0.57\nsamples = 85\nvalue = [0, 1, 48, 66, 10, 1, 0]"] ;
167 -> 173 ;
174 [label="total sulfur dioxide <= 99.5\ngini = 0.59\nsamples = 71\nvalue = [0, 1, 47, 47, 9, 1, 0]"] ;
173 -> 174 ;
175 [label="sulphates <= 0.4\ngini = 0.6\nsamples = 10\nvalue = [0, 0, 1, 8, 5, 1, 0]"] ;
174 -> 175 ;
176 [label="pH <= 3.24\ngini = 0.32\nsamples = 3\nvalue = [0, 0, 0, 4, 0, 1, 0]"] ;
175 -> 176 ;
177 [label="density <= 0.99\ngini = 0.5\nsamples = 2\nvalue = [0, 0, 0, 1, 0, 1, 0]"] ;
176 -> 177 ;
178 [label="gini = 0.0\nsamples = 1\nvalue = [0, 0, 0, 1, 0, 0, 0]"] ;
177 -> 178 ;
179 [label="gini = 0.0\nsamples = 1\nvalue = [0, 0, 0, 0, 0, 1, 0]"] ;
177 -> 179 ;
180 [label="gini = 0.0\nsamples = 1\nvalue = [0, 0, 0, 3, 0, 0, 0]"] ;
176 -> 180 ;
181 [label="pH <= 3.15\ngini = 0.58\nsamples = 7\nvalue = [0, 0, 1, 4, 5, 0, 0]"] ;
175 -> 181 ;
182 [label="fixed acidity <= 7.55\ngini = 0.44\nsamples = 3\nvalue = [0, 0, 1, 2, 0, 0, 0]"] ;
181 -> 182 ;
183 [label="gini = 0.0\nsamples = 1\nvalue = [0, 0, 1, 0, 0, 0, 0]"] ;
182 -> 183 ;
184 [label="gini = 0.0\nsamples = 2\nvalue = [0, 0, 0, 2, 0, 0, 0]"] ;
182 -> 184 ;
185 [label="citric acid <= 0.38\ngini = 0.41\nsamples = 4\nvalue = [0, 0, 0, 2, 5, 0, 0]"] ;
181 -> 185 ;
186 [label="gini = 0.0\nsamples = 3\nvalue = [0, 0, 0, 0, 5, 0, 0]"] ;
185 -> 186 ;
187 [label="gini = 0.0\nsamples = 1\nvalue = [0, 0, 0, 2, 0, 0, 0]"] ;
185 -> 187 ;
188 [label="density <= 1.0\ngini = 0.55\nsamples = 61\nvalue = [0, 1, 46, 39, 4, 0, 0]"] ;
174 -> 188 ;
189 [label="total sulfur dioxide <= 110.0\ngini = 0.52\nsamples = 31\nvalue = [0, 1, 17, 26, 1, 0, 0]"] ;
188 -> 189 ;
190 [label="gini = 0.0\nsamples = 6\nvalue = [0, 0, 10, 0, 0, 0, 0]"] ;
189 -> 190 ;
191 [label="volatile acidity <= 0.19\ngini = 0.41\nsamples = 25\nvalue = [0, 1, 7, 26, 1, 0, 0]"] ;
189 -> 191 ;
192 [label="chlorides <= 0.04\ngini = 0.47\nsamples = 7\nvalue = [0, 0, 5, 3, 0, 0, 0]"] ;
191 -> 192 ;
193 [label="gini = 0.0\nsamples = 2\nvalue = [0, 0, 3, 0, 0, 0, 0]"] ;
192 -> 193 ;
194 [label="free sulfur dioxide <= 46.0\ngini = 0.48\nsamples = 5\nvalue = [0, 0, 2, 3, 0, 0, 0]"] ;
192 -> 194 ;
195 [label="gini = 0.0\nsamples = 3\nvalue = [0, 0, 0, 3, 0, 0, 0]"] ;
194 -> 195 ;
196 [label="gini = 0.0\nsamples = 2\nvalue = [0, 0, 2, 0, 0, 0, 0]"] ;
194 -> 196 ;
197 [label="alcohol <= 9.05\ngini = 0.27\nsamples = 18\nvalue = [0, 1, 2, 23, 1, 0, 0]"] ;
191 -> 197 ;
198 [label="gini = 0.0\nsamples = 1\nvalue = [0, 1, 0, 0, 0, 0, 0]"] ;
197 -> 198 ;
199 [label="chlorides <= 0.1\ngini = 0.21\nsamples = 17\nvalue = [0, 0, 2, 23, 1, 0, 0]"] ;
197 -> 199 ;
200 [label="fixed acidity <= 8.2\ngini = 0.15\nsamples = 16\nvalue = [0, 0, 1, 23, 1, 0, 0]"] ;
199 -> 200 ;
201 [label="volatile acidity <= 0.2\ngini = 0.08\nsamples = 15\nvalue = [0, 0, 0, 23, 1, 0, 0]"] ;
200 -> 201 ;
202 [label="total sulfur dioxide <= 163.5\ngini = 0.44\nsamples = 3\nvalue = [0, 0, 0, 2, 1, 0, 0]"] ;
201 -> 202 ;
203 [label="gini = 0.0\nsamples = 2\nvalue = [0, 0, 0, 2, 0, 0, 0]"] ;
202 -> 203 ;
204 [label="gini = 0.0\nsamples = 1\nvalue = [0, 0, 0, 0, 1, 0, 0]"] ;
202 -> 204 ;
205 [label="gini = 0.0\nsamples = 12\nvalue = [0, 0, 0, 21, 0, 0, 0]"] ;
201 -> 205 ;
206 [label="gini = 0.0\nsamples = 1\nvalue = [0, 0, 1, 0, 0, 0, 0]"] ;
200 -> 206 ;
207 [label="gini = 0.0\nsamples = 1\nvalue = [0, 0, 1, 0, 0, 0, 0]"] ;
199 -> 207 ;
208 [label="chlorides <= 0.04\ngini = 0.5\nsamples = 30\nvalue = [0, 0, 29, 13, 3, 0, 0]"] ;
188 -> 208 ;
209 [label="chlorides <= 0.04\ngini = 0.38\nsamples = 9\nvalue = [0, 0, 0, 9, 3, 0, 0]"] ;
208 -> 209 ;
210 [label="alcohol <= 9.75\ngini = 0.18\nsamples = 7\nvalue = [0, 0, 0, 9, 1, 0, 0]"] ;
209 -> 210 ;
211 [label="gini = 0.0\nsamples = 6\nvalue = [0, 0, 0, 9, 0, 0, 0]"] ;
210 -> 211 ;
212 [label="gini = 0.0\nsamples = 1\nvalue = [0, 0, 0, 0, 1, 0, 0]"] ;
210 -> 212 ;
213 [label="gini = 0.0\nsamples = 2\nvalue = [0, 0, 0, 0, 2, 0, 0]"] ;
209 -> 213 ;
214 [label="volatile acidity <= 0.2\ngini = 0.21\nsamples = 21\nvalue = [0, 0, 29, 4, 0, 0, 0]"] ;
208 -> 214 ;
215 [label="total sulfur dioxide <= 136.5\ngini = 0.44\nsamples = 8\nvalue = [0, 0, 8, 4, 0, 0, 0]"] ;
214 -> 215 ;
216 [label="density <= 1.0\ngini = 0.2\nsamples = 5\nvalue = [0, 0, 8, 1, 0, 0, 0]"] ;
215 -> 216 ;
217 [label="gini = 0.0\nsamples = 4\nvalue = [0, 0, 8, 0, 0, 0, 0]"] ;
216 -> 217 ;
218 [label="gini = 0.0\nsamples = 1\nvalue = [0, 0, 0, 1, 0, 0, 0]"] ;
216 -> 218 ;
219 [label="gini = 0.0\nsamples = 3\nvalue = [0, 0, 0, 3, 0, 0, 0]"] ;
215 -> 219 ;
220 [label="gini = 0.0\nsamples = 13\nvalue = [0, 0, 21, 0, 0, 0, 0]"] ;
214 -> 220 ;
221 [label="pH <= 3.53\ngini = 0.18\nsamples = 14\nvalue = [0, 0, 1, 19, 1, 0, 0]"] ;
173 -> 221 ;
222 [label="total sulfur dioxide <= 169.5\ngini = 0.09\nsamples = 13\nvalue = [0, 0, 1, 19, 0, 0, 0]"] ;
221 -> 222 ;
223 [label="volatile acidity <= 0.14\ngini = 0.24\nsamples = 4\nvalue = [0, 0, 1, 6, 0, 0, 0]"] ;
222 -> 223 ;
224 [label="gini = 0.0\nsamples = 1\nvalue = [0, 0, 1, 0, 0, 0, 0]"] ;
223 -> 224 ;
225 [label="gini = 0.0\nsamples = 3\nvalue = [0, 0, 0, 6, 0, 0, 0]"] ;
223 -> 225 ;
226 [label="gini = 0.0\nsamples = 9\nvalue = [0, 0, 0, 13, 0, 0, 0]"] ;
222 -> 226 ;
227 [label="gini = 0.0\nsamples = 1\nvalue = [0, 0, 0, 0, 1, 0, 0]"] ;
221 -> 227 ;
228 [label="sulphates <= 0.89\ngini = 0.52\nsamples = 127\nvalue = [0, 3, 39, 131, 28, 0, 0]"] ;
166 -> 228 ;
229 [label="pH <= 3.51\ngini = 0.5\nsamples = 125\nvalue = [0, 3, 39, 131, 24, 0, 0]"] ;
228 -> 229 ;
230 [label="chlorides <= 0.05\ngini = 0.48\nsamples = 121\nvalue = [0, 3, 33, 131, 23, 0, 0]"] ;
229 -> 230 ;
231 [label="citric acid <= 0.31\ngini = 0.42\nsamples = 81\nvalue = [0, 0, 14, 97, 21, 0, 0]"] ;
230 -> 231 ;
232 [label="fixed acidity <= 6.65\ngini = 0.14\nsamples = 31\nvalue = [0, 0, 4, 48, 0, 0, 0]"] ;
231 -> 232 ;
233 [label="gini = 0.0\nsamples = 14\nvalue = [0, 0, 0, 20, 0, 0, 0]"] ;
232 -> 233 ;
234 [label="sulphates <= 0.51\ngini = 0.22\nsamples = 17\nvalue = [0, 0, 4, 28, 0, 0, 0]"] ;
232 -> 234 ;
235 [label="gini = 0.0\nsamples = 7\nvalue = [0, 0, 0, 16, 0, 0, 0]"] ;
234 -> 235 ;
236 [label="total sulfur dioxide <= 226.5\ngini = 0.38\nsamples = 10\nvalue = [0, 0, 4, 12, 0, 0, 0]"] ;
234 -> 236 ;
237 [label="free sulfur dioxide <= 14.0\ngini = 0.24\nsamples = 9\nvalue = [0, 0, 2, 12, 0, 0, 0]"] ;
236 -> 237 ;
238 [label="gini = 0.0\nsamples = 1\nvalue = [0, 0, 1, 0, 0, 0, 0]"] ;
237 -> 238 ;
239 [label="sulphates <= 0.56\ngini = 0.14\nsamples = 8\nvalue = [0, 0, 1, 12, 0, 0, 0]"] ;
237 -> 239 ;
240 [label="fixed acidity <= 7.55\ngini = 0.44\nsamples = 2\nvalue = [0, 0, 1, 2, 0, 0, 0]"] ;
239 -> 240 ;
241 [label="gini = 0.0\nsamples = 1\nvalue = [0, 0, 0, 2, 0, 0, 0]"] ;
240 -> 241 ;
242 [label="gini = 0.0\nsamples = 1\nvalue = [0, 0, 1, 0, 0, 0, 0]"] ;
240 -> 242 ;
243 [label="gini = 0.0\nsamples = 6\nvalue = [0, 0, 0, 10, 0, 0, 0]"] ;
239 -> 243 ;
244 [label="gini = 0.0\nsamples = 1\nvalue = [0, 0, 2, 0, 0, 0, 0]"] ;
236 -> 244 ;
245 [label="free sulfur dioxide <= 73.25\ngini = 0.54\nsamples = 50\nvalue = [0, 0, 10, 49, 21, 0, 0]"] ;
231 -> 245 ;
246 [label="chlorides <= 0.04\ngini = 0.5\nsamples = 48\nvalue = [0, 0, 9, 49, 16, 0, 0]"] ;
245 -> 246 ;
247 [label="citric acid <= 0.35\ngini = 0.63\nsamples = 16\nvalue = [0, 0, 5, 9, 12, 0, 0]"] ;
246 -> 247 ;
248 [label="residual sugar <= 8.4\ngini = 0.46\nsamples = 10\nvalue = [0, 0, 0, 6, 11, 0, 0]"] ;
247 -> 248 ;
249 [label="residual sugar <= 1.65\ngini = 0.26\nsamples = 7\nvalue = [0, 0, 0, 2, 11, 0, 0]"] ;
248 -> 249 ;
250 [label="gini = 0.0\nsamples = 1\nvalue = [0, 0, 0, 1, 0, 0, 0]"] ;
249 -> 250 ;
251 [label="sulphates <= 0.51\ngini = 0.15\nsamples = 6\nvalue = [0, 0, 0, 1, 11, 0, 0]"] ;
249 -> 251 ;
252 [label="free sulfur dioxide <= 28.0\ngini = 0.5\nsamples = 2\nvalue = [0, 0, 0, 1, 1, 0, 0]"] ;
251 -> 252 ;
253 [label="gini = 0.0\nsamples = 1\nvalue = [0, 0, 0, 1, 0, 0, 0]"] ;
252 -> 253 ;
254 [label="gini = 0.0\nsamples = 1\nvalue = [0, 0, 0, 0, 1, 0, 0]"] ;
252 -> 254 ;
255 [label="gini = 0.0\nsamples = 4\nvalue = [0, 0, 0, 0, 10, 0, 0]"] ;
251 -> 255 ;
256 [label="gini = 0.0\nsamples = 3\nvalue = [0, 0, 0, 4, 0, 0, 0]"] ;
248 -> 256 ;
257 [label="residual sugar <= 2.8\ngini = 0.57\nsamples = 6\nvalue = [0, 0, 5, 3, 1, 0, 0]"] ;
247 -> 257 ;
258 [label="gini = 0.0\nsamples = 2\nvalue = [0, 0, 4, 0, 0, 0, 0]"] ;
257 -> 258 ;
259 [label="residual sugar <= 8.55\ngini = 0.56\nsamples = 4\nvalue = [0, 0, 1, 3, 1, 0, 0]"] ;
257 -> 259 ;
260 [label="gini = 0.0\nsamples = 2\nvalue = [0, 0, 0, 3, 0, 0, 0]"] ;
259 -> 260 ;
261 [label="free sulfur dioxide <= 61.5\ngini = 0.5\nsamples = 2\nvalue = [0, 0, 1, 0, 1, 0, 0]"] ;
259 -> 261 ;
262 [label="gini = 0.0\nsamples = 1\nvalue = [0, 0, 0, 0, 1, 0, 0]"] ;
261 -> 262 ;
263 [label="gini = 0.0\nsamples = 1\nvalue = [0, 0, 1, 0, 0, 0, 0]"] ;
261 -> 263 ;
264 [label="pH <= 2.93\ngini = 0.29\nsamples = 32\nvalue = [0, 0, 4, 40, 4, 0, 0]"] ;
246 -> 264 ;
265 [label="gini = 0.0\nsamples = 1\nvalue = [0, 0, 0, 0, 1, 0, 0]"] ;
264 -> 265 ;
266 [label="total sulfur dioxide <= 187.0\ngini = 0.26\nsamples = 31\nvalue = [0, 0, 4, 40, 3, 0, 0]"] ;
264 -> 266 ;
267 [label="residual sugar <= 9.0\ngini = 0.38\nsamples = 19\nvalue = [0, 0, 4, 23, 3, 0, 0]"] ;
266 -> 267 ;
268 [label="sulphates <= 0.5\ngini = 0.24\nsamples = 13\nvalue = [0, 0, 3, 19, 0, 0, 0]"] ;
267 -> 268 ;
269 [label="chlorides <= 0.05\ngini = 0.5\nsamples = 4\nvalue = [0, 0, 2, 2, 0, 0, 0]"] ;
268 -> 269 ;
270 [label="gini = 0.0\nsamples = 2\nvalue = [0, 0, 2, 0, 0, 0, 0]"] ;
269 -> 270 ;
271 [label="gini = 0.0\nsamples = 2\nvalue = [0, 0, 0, 2, 0, 0, 0]"] ;
269 -> 271 ;
272 [label="alcohol <= 9.1\ngini = 0.1\nsamples = 9\nvalue = [0, 0, 1, 17, 0, 0, 0]"] ;
268 -> 272 ;
273 [label="gini = 0.0\nsamples = 1\nvalue = [0, 0, 1, 0, 0, 0, 0]"] ;
272 -> 273 ;
274 [label="gini = 0.0\nsamples = 8\nvalue = [0, 0, 0, 17, 0, 0, 0]"] ;
272 -> 274 ;
275 [label="residual sugar <= 9.65\ngini = 0.59\nsamples = 6\nvalue = [0, 0, 1, 4, 3, 0, 0]"] ;
267 -> 275 ;
276 [label="pH <= 3.29\ngini = 0.38\nsamples = 3\nvalue = [0, 0, 1, 0, 3, 0, 0]"] ;
275 -> 276 ;
277 [label="gini = 0.0\nsamples = 2\nvalue = [0, 0, 0, 0, 3, 0, 0]"] ;
276 -> 277 ;
278 [label="gini = 0.0\nsamples = 1\nvalue = [0, 0, 1, 0, 0, 0, 0]"] ;
276 -> 278 ;
279 [label="gini = 0.0\nsamples = 3\nvalue = [0, 0, 0, 4, 0, 0, 0]"] ;
275 -> 279 ;
280 [label="gini = 0.0\nsamples = 12\nvalue = [0, 0, 0, 17, 0, 0, 0]"] ;
266 -> 280 ;
281 [label="residual sugar <= 6.15\ngini = 0.28\nsamples = 2\nvalue = [0, 0, 1, 0, 5, 0, 0]"] ;
245 -> 281 ;
282 [label="gini = 0.0\nsamples = 1\nvalue = [0, 0, 0, 0, 5, 0, 0]"] ;
281 -> 282 ;
283 [label="gini = 0.0\nsamples = 1\nvalue = [0, 0, 1, 0, 0, 0, 0]"] ;
281 -> 283 ;
284 [label="density <= 0.99\ngini = 0.55\nsamples = 40\nvalue = [0, 3, 19, 34, 2, 0, 0]"] ;
230 -> 284 ;
285 [label="volatile acidity <= 0.2\ngini = 0.46\nsamples = 9\nvalue = [0, 0, 7, 1, 2, 0, 0]"] ;
284 -> 285 ;
286 [label="gini = 0.0\nsamples = 2\nvalue = [0, 0, 0, 0, 2, 0, 0]"] ;
285 -> 286 ;
287 [label="sulphates <= 0.56\ngini = 0.22\nsamples = 7\nvalue = [0, 0, 7, 1, 0, 0, 0]"] ;
285 -> 287 ;
288 [label="gini = 0.0\nsamples = 5\nvalue = [0, 0, 6, 0, 0, 0, 0]"] ;
287 -> 288 ;
289 [label="fixed acidity <= 7.1\ngini = 0.5\nsamples = 2\nvalue = [0, 0, 1, 1, 0, 0, 0]"] ;
287 -> 289 ;
290 [label="gini = 0.0\nsamples = 1\nvalue = [0, 0, 0, 1, 0, 0, 0]"] ;
289 -> 290 ;
291 [label="gini = 0.0\nsamples = 1\nvalue = [0, 0, 1, 0, 0, 0, 0]"] ;
289 -> 291 ;
292 [label="citric acid <= 0.27\ngini = 0.46\nsamples = 31\nvalue = [0, 3, 12, 33, 0, 0, 0]"] ;
284 -> 292 ;
293 [label="gini = 0.0\nsamples = 5\nvalue = [0, 0, 7, 0, 0, 0, 0]"] ;
292 -> 293 ;
294 [label="pH <= 3.05\ngini = 0.33\nsamples = 26\nvalue = [0, 3, 5, 33, 0, 0, 0]"] ;
292 -> 294 ;
295 [label="total sulfur dioxide <= 130.0\ngini = 0.61\nsamples = 5\nvalue = [0, 1, 3, 2, 0, 0, 0]"] ;
294 -> 295 ;
296 [label="gini = 0.0\nsamples = 3\nvalue = [0, 0, 3, 0, 0, 0, 0]"] ;
295 -> 296 ;
297 [label="fixed acidity <= 8.2\ngini = 0.44\nsamples = 2\nvalue = [0, 1, 0, 2, 0, 0, 0]"] ;
295 -> 297 ;
298 [label="gini = 0.0\nsamples = 1\nvalue = [0, 0, 0, 2, 0, 0, 0]"] ;
297 -> 298 ;
299 [label="gini = 0.0\nsamples = 1\nvalue = [0, 1, 0, 0, 0, 0, 0]"] ;
297 -> 299 ;
300 [label="volatile acidity <= 0.23\ngini = 0.21\nsamples = 21\nvalue = [0, 2, 2, 31, 0, 0, 0]"] ;
294 -> 300 ;
301 [label="gini = 0.0\nsamples = 13\nvalue = [0, 0, 0, 20, 0, 0, 0]"] ;
300 -> 301 ;
302 [label="volatile acidity <= 0.23\ngini = 0.43\nsamples = 8\nvalue = [0, 2, 2, 11, 0, 0, 0]"] ;
300 -> 302 ;
303 [label="gini = 0.0\nsamples = 1\nvalue = [0, 2, 0, 0, 0, 0, 0]"] ;
302 -> 303 ;
304 [label="total sulfur dioxide <= 186.0\ngini = 0.26\nsamples = 7\nvalue = [0, 0, 2, 11, 0, 0, 0]"] ;
302 -> 304 ;
305 [label="gini = 0.0\nsamples = 5\nvalue = [0, 0, 0, 10, 0, 0, 0]"] ;
304 -> 305 ;
306 [label="pH <= 3.13\ngini = 0.44\nsamples = 2\nvalue = [0, 0, 2, 1, 0, 0, 0]"] ;
304 -> 306 ;
307 [label="gini = 0.0\nsamples = 1\nvalue = [0, 0, 0, 1, 0, 0, 0]"] ;
306 -> 307 ;
308 [label="gini = 0.0\nsamples = 1\nvalue = [0, 0, 2, 0, 0, 0, 0]"] ;
306 -> 308 ;
309 [label="citric acid <= 0.31\ngini = 0.24\nsamples = 4\nvalue = [0, 0, 6, 0, 1, 0, 0]"] ;
229 -> 309 ;
310 [label="gini = 0.0\nsamples = 1\nvalue = [0, 0, 0, 0, 1, 0, 0]"] ;
309 -> 310 ;
311 [label="gini = 0.0\nsamples = 3\nvalue = [0, 0, 6, 0, 0, 0, 0]"] ;
309 -> 311 ;
312 [label="gini = 0.0\nsamples = 2\nvalue = [0, 0, 0, 0, 4, 0, 0]"] ;
228 -> 312 ;
313 [label="density <= 0.99\ngini = 0.51\nsamples = 159\nvalue = [1, 9, 151, 88, 2, 0, 0]"] ;
165 -> 313 ;
314 [label="volatile acidity <= 0.41\ngini = 0.22\nsamples = 11\nvalue = [0, 0, 2, 14, 0, 0, 0]"] ;
313 -> 314 ;
315 [label="density <= 0.99\ngini = 0.12\nsamples = 10\nvalue = [0, 0, 1, 14, 0, 0, 0]"] ;
314 -> 315 ;
316 [label="fixed acidity <= 5.6\ngini = 0.44\nsamples = 3\nvalue = [0, 0, 1, 2, 0, 0, 0]"] ;
315 -> 316 ;
317 [label="gini = 0.0\nsamples = 2\nvalue = [0, 0, 0, 2, 0, 0, 0]"] ;
316 -> 317 ;
318 [label="gini = 0.0\nsamples = 1\nvalue = [0, 0, 1, 0, 0, 0, 0]"] ;
316 -> 318 ;
319 [label="gini = 0.0\nsamples = 7\nvalue = [0, 0, 0, 12, 0, 0, 0]"] ;
315 -> 319 ;
320 [label="gini = 0.0\nsamples = 1\nvalue = [0, 0, 1, 0, 0, 0, 0]"] ;
314 -> 320 ;
321 [label="sulphates <= 0.44\ngini = 0.5\nsamples = 148\nvalue = [1, 9, 149, 74, 2, 0, 0]"] ;
313 -> 321 ;
322 [label="pH <= 3.18\ngini = 0.33\nsamples = 37\nvalue = [1, 0, 39, 9, 0, 0, 0]"] ;
321 -> 322 ;
323 [label="chlorides <= 0.09\ngini = 0.13\nsamples = 19\nvalue = [0, 0, 26, 2, 0, 0, 0]"] ;
322 -> 323 ;
324 [label="gini = 0.0\nsamples = 15\nvalue = [0, 0, 23, 0, 0, 0, 0]"] ;
323 -> 324 ;
325 [label="residual sugar <= 9.4\ngini = 0.48\nsamples = 4\nvalue = [0, 0, 3, 2, 0, 0, 0]"] ;
323 -> 325 ;
326 [label="gini = 0.0\nsamples = 3\nvalue = [0, 0, 3, 0, 0, 0, 0]"] ;
325 -> 326 ;
327 [label="gini = 0.0\nsamples = 1\nvalue = [0, 0, 0, 2, 0, 0, 0]"] ;
325 -> 327 ;
328 [label="volatile acidity <= 0.31\ngini = 0.5\nsamples = 18\nvalue = [1, 0, 13, 7, 0, 0, 0]"] ;
322 -> 328 ;
329 [label="citric acid <= 0.29\ngini = 0.48\nsamples = 8\nvalue = [0, 0, 4, 6, 0, 0, 0]"] ;
328 -> 329 ;
330 [label="gini = 0.0\nsamples = 5\nvalue = [0, 0, 0, 6, 0, 0, 0]"] ;
329 -> 330 ;
331 [label="gini = 0.0\nsamples = 3\nvalue = [0, 0, 4, 0, 0, 0, 0]"] ;
329 -> 331 ;
332 [label="residual sugar <= 2.9\ngini = 0.31\nsamples = 10\nvalue = [1, 0, 9, 1, 0, 0, 0]"] ;
328 -> 332 ;
333 [label="gini = 0.0\nsamples = 1\nvalue = [1, 0, 0, 0, 0, 0, 0]"] ;
332 -> 333 ;
334 [label="chlorides <= 0.05\ngini = 0.18\nsamples = 9\nvalue = [0, 0, 9, 1, 0, 0, 0]"] ;
332 -> 334 ;
335 [label="residual sugar <= 7.6\ngini = 0.5\nsamples = 2\nvalue = [0, 0, 1, 1, 0, 0, 0]"] ;
334 -> 335 ;
336 [label="gini = 0.0\nsamples = 1\nvalue = [0, 0, 1, 0, 0, 0, 0]"] ;
335 -> 336 ;
337 [label="gini = 0.0\nsamples = 1\nvalue = [0, 0, 0, 1, 0, 0, 0]"] ;
335 -> 337 ;
338 [label="gini = 0.0\nsamples = 7\nvalue = [0, 0, 8, 0, 0, 0, 0]"] ;
334 -> 338 ;
339 [label="volatile acidity <= 0.38\ngini = 0.53\nsamples = 111\nvalue = [0, 9, 110, 65, 2, 0, 0]"] ;
321 -> 339 ;
340 [label="pH <= 3.22\ngini = 0.55\nsamples = 72\nvalue = [0, 4, 61, 54, 2, 0, 0]"] ;
339 -> 340 ;
341 [label="pH <= 3.19\ngini = 0.49\nsamples = 58\nvalue = [0, 1, 58, 40, 0, 0, 0]"] ;
340 -> 341 ;
342 [label="citric acid <= 0.38\ngini = 0.51\nsamples = 50\nvalue = [0, 1, 44, 38, 0, 0, 0]"] ;
341 -> 342 ;
343 [label="fixed acidity <= 6.55\ngini = 0.48\nsamples = 41\nvalue = [0, 1, 41, 23, 0, 0, 0]"] ;
342 -> 343 ;
344 [label="free sulfur dioxide <= 22.0\ngini = 0.16\nsamples = 13\nvalue = [0, 0, 21, 2, 0, 0, 0]"] ;
343 -> 344 ;
345 [label="gini = 0.0\nsamples = 1\nvalue = [0, 0, 0, 1, 0, 0, 0]"] ;
344 -> 345 ;
346 [label="alcohol <= 9.8\ngini = 0.09\nsamples = 12\nvalue = [0, 0, 21, 1, 0, 0, 0]"] ;
344 -> 346 ;
347 [label="gini = 0.0\nsamples = 10\nvalue = [0, 0, 19, 0, 0, 0, 0]"] ;
346 -> 347 ;
348 [label="residual sugar <= 12.15\ngini = 0.44\nsamples = 2\nvalue = [0, 0, 2, 1, 0, 0, 0]"] ;
346 -> 348 ;
349 [label="gini = 0.0\nsamples = 1\nvalue = [0, 0, 0, 1, 0, 0, 0]"] ;
348 -> 349 ;
350 [label="gini = 0.0\nsamples = 1\nvalue = [0, 0, 2, 0, 0, 0, 0]"] ;
348 -> 350 ;
351 [label="volatile acidity <= 0.34\ngini = 0.52\nsamples = 28\nvalue = [0, 1, 20, 21, 0, 0, 0]"] ;
343 -> 351 ;
352 [label="chlorides <= 0.04\ngini = 0.51\nsamples = 26\nvalue = [0, 1, 20, 14, 0, 0, 0]"] ;
351 -> 352 ;
353 [label="gini = 0.0\nsamples = 5\nvalue = [0, 0, 0, 5, 0, 0, 0]"] ;
352 -> 353 ;
354 [label="chlorides <= 0.06\ngini = 0.46\nsamples = 21\nvalue = [0, 1, 20, 9, 0, 0, 0]"] ;
352 -> 354 ;
355 [label="pH <= 3.16\ngini = 0.28\nsamples = 11\nvalue = [0, 1, 16, 2, 0, 0, 0]"] ;
354 -> 355 ;
356 [label="density <= 1.0\ngini = 0.2\nsamples = 10\nvalue = [0, 0, 16, 2, 0, 0, 0]"] ;
355 -> 356 ;
357 [label="gini = 0.0\nsamples = 8\nvalue = [0, 0, 14, 0, 0, 0, 0]"] ;
356 -> 357 ;
358 [label="fixed acidity <= 7.3\ngini = 0.5\nsamples = 2\nvalue = [0, 0, 2, 2, 0, 0, 0]"] ;
356 -> 358 ;
359 [label="gini = 0.0\nsamples = 1\nvalue = [0, 0, 0, 2, 0, 0, 0]"] ;
358 -> 359 ;
360 [label="gini = 0.0\nsamples = 1\nvalue = [0, 0, 2, 0, 0, 0, 0]"] ;
358 -> 360 ;
361 [label="gini = 0.0\nsamples = 1\nvalue = [0, 1, 0, 0, 0, 0, 0]"] ;
355 -> 361 ;
362 [label="citric acid <= 0.36\ngini = 0.46\nsamples = 10\nvalue = [0, 0, 4, 7, 0, 0, 0]"] ;
354 -> 362 ;
363 [label="chlorides <= 0.07\ngini = 0.22\nsamples = 7\nvalue = [0, 0, 1, 7, 0, 0, 0]"] ;
362 -> 363 ;
364 [label="gini = 0.0\nsamples = 5\nvalue = [0, 0, 0, 6, 0, 0, 0]"] ;
363 -> 364 ;
365 [label="density <= 0.99\ngini = 0.5\nsamples = 2\nvalue = [0, 0, 1, 1, 0, 0, 0]"] ;
363 -> 365 ;
366 [label="gini = 0.0\nsamples = 1\nvalue = [0, 0, 0, 1, 0, 0, 0]"] ;
365 -> 366 ;
367 [label="gini = 0.0\nsamples = 1\nvalue = [0, 0, 1, 0, 0, 0, 0]"] ;
365 -> 367 ;
368 [label="gini = 0.0\nsamples = 3\nvalue = [0, 0, 3, 0, 0, 0, 0]"] ;
362 -> 368 ;
369 [label="gini = 0.0\nsamples = 2\nvalue = [0, 0, 0, 7, 0, 0, 0]"] ;
351 -> 369 ;
370 [label="total sulfur dioxide <= 178.0\ngini = 0.28\nsamples = 9\nvalue = [0, 0, 3, 15, 0, 0, 0]"] ;
342 -> 370 ;
371 [label="gini = 0.0\nsamples = 5\nvalue = [0, 0, 0, 11, 0, 0, 0]"] ;
370 -> 371 ;
372 [label="density <= 1.0\ngini = 0.49\nsamples = 4\nvalue = [0, 0, 3, 4, 0, 0, 0]"] ;
370 -> 372 ;
373 [label="gini = 0.0\nsamples = 2\nvalue = [0, 0, 3, 0, 0, 0, 0]"] ;
372 -> 373 ;
374 [label="gini = 0.0\nsamples = 2\nvalue = [0, 0, 0, 4, 0, 0, 0]"] ;
372 -> 374 ;
375 [label="citric acid <= 0.28\ngini = 0.22\nsamples = 8\nvalue = [0, 0, 14, 2, 0, 0, 0]"] ;
341 -> 375 ;
376 [label="chlorides <= 0.04\ngini = 0.44\nsamples = 2\nvalue = [0, 0, 1, 2, 0, 0, 0]"] ;
375 -> 376 ;
377 [label="gini = 0.0\nsamples = 1\nvalue = [0, 0, 0, 2, 0, 0, 0]"] ;
376 -> 377 ;
378 [label="gini = 0.0\nsamples = 1\nvalue = [0, 0, 1, 0, 0, 0, 0]"] ;
376 -> 378 ;
379 [label="gini = 0.0\nsamples = 6\nvalue = [0, 0, 13, 0, 0, 0, 0]"] ;
375 -> 379 ;
380 [label="chlorides <= 0.05\ngini = 0.55\nsamples = 14\nvalue = [0, 3, 3, 14, 2, 0, 0]"] ;
340 -> 380 ;
381 [label="total sulfur dioxide <= 202.0\ngini = 0.14\nsamples = 7\nvalue = [0, 0, 1, 12, 0, 0, 0]"] ;
380 -> 381 ;
382 [label="gini = 0.0\nsamples = 6\nvalue = [0, 0, 0, 12, 0, 0, 0]"] ;
381 -> 382 ;
383 [label="gini = 0.0\nsamples = 1\nvalue = [0, 0, 1, 0, 0, 0, 0]"] ;
381 -> 383 ;
384 [label="volatile acidity <= 0.31\ngini = 0.74\nsamples = 7\nvalue = [0, 3, 2, 2, 2, 0, 0]"] ;
380 -> 384 ;
385 [label="gini = 0.0\nsamples = 2\nvalue = [0, 3, 0, 0, 0, 0, 0]"] ;
384 -> 385 ;
386 [label="total sulfur dioxide <= 163.5\ngini = 0.67\nsamples = 5\nvalue = [0, 0, 2, 2, 2, 0, 0]"] ;
384 -> 386 ;
387 [label="gini = 0.0\nsamples = 1\nvalue = [0, 0, 0, 0, 2, 0, 0]"] ;
386 -> 387 ;
388 [label="volatile acidity <= 0.33\ngini = 0.5\nsamples = 4\nvalue = [0, 0, 2, 2, 0, 0, 0]"] ;
386 -> 388 ;
389 [label="gini = 0.0\nsamples = 1\nvalue = [0, 0, 0, 1, 0, 0, 0]"] ;
388 -> 389 ;
390 [label="sulphates <= 0.53\ngini = 0.44\nsamples = 3\nvalue = [0, 0, 2, 1, 0, 0, 0]"] ;
388 -> 390 ;
391 [label="gini = 0.0\nsamples = 1\nvalue = [0, 0, 0, 1, 0, 0, 0]"] ;
390 -> 391 ;
392 [label="gini = 0.0\nsamples = 2\nvalue = [0, 0, 2, 0, 0, 0, 0]"] ;
390 -> 392 ;
393 [label="density <= 1.0\ngini = 0.4\nsamples = 39\nvalue = [0, 5, 49, 11, 0, 0, 0]"] ;
339 -> 393 ;
394 [label="residual sugar <= 1.55\ngini = 0.28\nsamples = 19\nvalue = [0, 5, 31, 1, 0, 0, 0]"] ;
393 -> 394 ;
395 [label="gini = 0.0\nsamples = 2\nvalue = [0, 5, 0, 0, 0, 0, 0]"] ;
394 -> 395 ;
396 [label="pH <= 3.06\ngini = 0.06\nsamples = 17\nvalue = [0, 0, 31, 1, 0, 0, 0]"] ;
394 -> 396 ;
397 [label="gini = 0.0\nsamples = 1\nvalue = [0, 0, 0, 1, 0, 0, 0]"] ;
396 -> 397 ;
398 [label="gini = 0.0\nsamples = 16\nvalue = [0, 0, 31, 0, 0, 0, 0]"] ;
396 -> 398 ;
399 [label="fixed acidity <= 7.9\ngini = 0.46\nsamples = 20\nvalue = [0, 0, 18, 10, 0, 0, 0]"] ;
393 -> 399 ;
400 [label="chlorides <= 0.06\ngini = 0.49\nsamples = 16\nvalue = [0, 0, 13, 10, 0, 0, 0]"] ;
399 -> 400 ;
401 [label="chlorides <= 0.05\ngini = 0.49\nsamples = 13\nvalue = [0, 0, 8, 10, 0, 0, 0]"] ;
400 -> 401 ;
402 [label="sulphates <= 0.57\ngini = 0.41\nsamples = 5\nvalue = [0, 0, 5, 2, 0, 0, 0]"] ;
401 -> 402 ;
403 [label="gini = 0.0\nsamples = 1\nvalue = [0, 0, 0, 2, 0, 0, 0]"] ;
402 -> 403 ;
404 [label="gini = 0.0\nsamples = 4\nvalue = [0, 0, 5, 0, 0, 0, 0]"] ;
402 -> 404 ;
405 [label="free sulfur dioxide <= 53.0\ngini = 0.4\nsamples = 8\nvalue = [0, 0, 3, 8, 0, 0, 0]"] ;
401 -> 405 ;
406 [label="fixed acidity <= 6.55\ngini = 0.2\nsamples = 7\nvalue = [0, 0, 1, 8, 0, 0, 0]"] ;
405 -> 406 ;
407 [label="density <= 1.0\ngini = 0.5\nsamples = 2\nvalue = [0, 0, 1, 1, 0, 0, 0]"] ;
406 -> 407 ;
408 [label="gini = 0.0\nsamples = 1\nvalue = [0, 0, 0, 1, 0, 0, 0]"] ;
407 -> 408 ;
409 [label="gini = 0.0\nsamples = 1\nvalue = [0, 0, 1, 0, 0, 0, 0]"] ;
407 -> 409 ;
410 [label="gini = 0.0\nsamples = 5\nvalue = [0, 0, 0, 7, 0, 0, 0]"] ;
406 -> 410 ;
411 [label="gini = 0.0\nsamples = 1\nvalue = [0, 0, 2, 0, 0, 0, 0]"] ;
405 -> 411 ;
412 [label="gini = 0.0\nsamples = 3\nvalue = [0, 0, 5, 0, 0, 0, 0]"] ;
400 -> 412 ;
413 [label="gini = 0.0\nsamples = 4\nvalue = [0, 0, 5, 0, 0, 0, 0]"] ;
399 -> 413 ;
414 [label="fixed acidity <= 6.35\ngini = 0.55\nsamples = 160\nvalue = [1, 6, 147, 94, 11, 1, 0]"] ;
164 -> 414 ;
415 [label="fixed acidity <= 5.95\ngini = 0.53\nsamples = 37\nvalue = [0, 4, 22, 36, 0, 0, 0]"] ;
414 -> 415 ;
416 [label="sulphates <= 0.57\ngini = 0.15\nsamples = 7\nvalue = [0, 0, 11, 1, 0, 0, 0]"] ;
415 -> 416 ;
417 [label="gini = 0.0\nsamples = 6\nvalue = [0, 0, 11, 0, 0, 0, 0]"] ;
416 -> 417 ;
418 [label="gini = 0.0\nsamples = 1\nvalue = [0, 0, 0, 1, 0, 0, 0]"] ;
416 -> 418 ;
419 [label="pH <= 3.2\ngini = 0.46\nsamples = 30\nvalue = [0, 4, 11, 35, 0, 0, 0]"] ;
415 -> 419 ;
420 [label="free sulfur dioxide <= 34.5\ngini = 0.62\nsamples = 17\nvalue = [0, 4, 9, 11, 0, 0, 0]"] ;
419 -> 420 ;
421 [label="gini = 0.0\nsamples = 4\nvalue = [0, 0, 0, 6, 0, 0, 0]"] ;
420 -> 421 ;
422 [label="free sulfur dioxide <= 41.5\ngini = 0.62\nsamples = 13\nvalue = [0, 4, 9, 5, 0, 0, 0]"] ;
420 -> 422 ;
423 [label="gini = 0.0\nsamples = 2\nvalue = [0, 3, 0, 0, 0, 0, 0]"] ;
422 -> 423 ;
424 [label="free sulfur dioxide <= 60.0\ngini = 0.52\nsamples = 11\nvalue = [0, 1, 9, 5, 0, 0, 0]"] ;
422 -> 424 ;
425 [label="density <= 1.0\ngini = 0.22\nsamples = 6\nvalue = [0, 1, 7, 0, 0, 0, 0]"] ;
424 -> 425 ;
426 [label="gini = 0.0\nsamples = 5\nvalue = [0, 0, 7, 0, 0, 0, 0]"] ;
425 -> 426 ;
427 [label="gini = 0.0\nsamples = 1\nvalue = [0, 1, 0, 0, 0, 0, 0]"] ;
425 -> 427 ;
428 [label="total sulfur dioxide <= 216.0\ngini = 0.41\nsamples = 5\nvalue = [0, 0, 2, 5, 0, 0, 0]"] ;
424 -> 428 ;
429 [label="gini = 0.0\nsamples = 3\nvalue = [0, 0, 0, 5, 0, 0, 0]"] ;
428 -> 429 ;
430 [label="gini = 0.0\nsamples = 2\nvalue = [0, 0, 2, 0, 0, 0, 0]"] ;
428 -> 430 ;
431 [label="free sulfur dioxide <= 64.0\ngini = 0.14\nsamples = 13\nvalue = [0, 0, 2, 24, 0, 0, 0]"] ;
419 -> 431 ;
432 [label="density <= 0.99\ngini = 0.08\nsamples = 12\nvalue = [0, 0, 1, 24, 0, 0, 0]"] ;
431 -> 432 ;
433 [label="chlorides <= 0.04\ngini = 0.44\nsamples = 3\nvalue = [0, 0, 1, 2, 0, 0, 0]"] ;
432 -> 433 ;
434 [label="gini = 0.0\nsamples = 2\nvalue = [0, 0, 0, 2, 0, 0, 0]"] ;
433 -> 434 ;
435 [label="gini = 0.0\nsamples = 1\nvalue = [0, 0, 1, 0, 0, 0, 0]"] ;
433 -> 435 ;
436 [label="gini = 0.0\nsamples = 9\nvalue = [0, 0, 0, 22, 0, 0, 0]"] ;
432 -> 436 ;
437 [label="gini = 0.0\nsamples = 1\nvalue = [0, 0, 1, 0, 0, 0, 0]"] ;
431 -> 437 ;
438 [label="total sulfur dioxide <= 166.5\ngini = 0.51\nsamples = 123\nvalue = [1, 2, 125, 58, 11, 1, 0]"] ;
414 -> 438 ;
439 [label="pH <= 3.3\ngini = 0.58\nsamples = 75\nvalue = [1, 2, 70, 43, 11, 1, 0]"] ;
438 -> 439 ;
440 [label="alcohol <= 9.25\ngini = 0.57\nsamples = 69\nvalue = [1, 2, 69, 35, 11, 1, 0]"] ;
439 -> 440 ;
441 [label="pH <= 3.13\ngini = 0.61\nsamples = 36\nvalue = [0, 2, 24, 30, 5, 1, 0]"] ;
440 -> 441 ;
442 [label="alcohol <= 8.75\ngini = 0.46\nsamples = 29\nvalue = [0, 0, 17, 30, 0, 0, 0]"] ;
441 -> 442 ;
443 [label="sulphates <= 0.48\ngini = 0.35\nsamples = 5\nvalue = [0, 0, 7, 2, 0, 0, 0]"] ;
442 -> 443 ;
444 [label="residual sugar <= 6.05\ngini = 0.44\nsamples = 3\nvalue = [0, 0, 1, 2, 0, 0, 0]"] ;
443 -> 444 ;
445 [label="gini = 0.0\nsamples = 1\nvalue = [0, 0, 0, 1, 0, 0, 0]"] ;
444 -> 445 ;
446 [label="residual sugar <= 11.35\ngini = 0.5\nsamples = 2\nvalue = [0, 0, 1, 1, 0, 0, 0]"] ;
444 -> 446 ;
447 [label="gini = 0.0\nsamples = 1\nvalue = [0, 0, 1, 0, 0, 0, 0]"] ;
446 -> 447 ;
448 [label="gini = 0.0\nsamples = 1\nvalue = [0, 0, 0, 1, 0, 0, 0]"] ;
446 -> 448 ;
449 [label="gini = 0.0\nsamples = 2\nvalue = [0, 0, 6, 0, 0, 0, 0]"] ;
443 -> 449 ;
450 [label="total sulfur dioxide <= 133.0\ngini = 0.39\nsamples = 24\nvalue = [0, 0, 10, 28, 0, 0, 0]"] ;
442 -> 450 ;
451 [label="residual sugar <= 1.5\ngini = 0.24\nsamples = 12\nvalue = [0, 0, 3, 18, 0, 0, 0]"] ;
450 -> 451 ;
452 [label="sulphates <= 0.38\ngini = 0.12\nsamples = 8\nvalue = [0, 0, 1, 15, 0, 0, 0]"] ;
451 -> 452 ;
453 [label="gini = 0.0\nsamples = 1\nvalue = [0, 0, 1, 0, 0, 0, 0]"] ;
452 -> 453 ;
454 [label="gini = 0.0\nsamples = 7\nvalue = [0, 0, 0, 15, 0, 0, 0]"] ;
452 -> 454 ;
455 [label="fixed acidity <= 6.9\ngini = 0.48\nsamples = 4\nvalue = [0, 0, 2, 3, 0, 0, 0]"] ;
451 -> 455 ;
456 [label="gini = 0.0\nsamples = 2\nvalue = [0, 0, 0, 3, 0, 0, 0]"] ;
455 -> 456 ;
457 [label="gini = 0.0\nsamples = 2\nvalue = [0, 0, 2, 0, 0, 0, 0]"] ;
455 -> 457 ;
458 [label="citric acid <= 0.69\ngini = 0.48\nsamples = 12\nvalue = [0, 0, 7, 10, 0, 0, 0]"] ;
450 -> 458 ;
459 [label="free sulfur dioxide <= 31.0\ngini = 0.41\nsamples = 9\nvalue = [0, 0, 4, 10, 0, 0, 0]"] ;
458 -> 459 ;
460 [label="gini = 0.0\nsamples = 1\nvalue = [0, 0, 2, 0, 0, 0, 0]"] ;
459 -> 460 ;
461 [label="volatile acidity <= 0.25\ngini = 0.28\nsamples = 8\nvalue = [0, 0, 2, 10, 0, 0, 0]"] ;
459 -> 461 ;
462 [label="alcohol <= 8.95\ngini = 0.44\nsamples = 2\nvalue = [0, 0, 2, 1, 0, 0, 0]"] ;
461 -> 462 ;
463 [label="gini = 0.0\nsamples = 1\nvalue = [0, 0, 0, 1, 0, 0, 0]"] ;
462 -> 463 ;
464 [label="gini = 0.0\nsamples = 1\nvalue = [0, 0, 2, 0, 0, 0, 0]"] ;
462 -> 464 ;
465 [label="gini = 0.0\nsamples = 6\nvalue = [0, 0, 0, 9, 0, 0, 0]"] ;
461 -> 465 ;
466 [label="gini = 0.0\nsamples = 3\nvalue = [0, 0, 3, 0, 0, 0, 0]"] ;
458 -> 466 ;
467 [label="density <= 1.0\ngini = 0.65\nsamples = 7\nvalue = [0, 2, 7, 0, 5, 1, 0]"] ;
441 -> 467 ;
468 [label="gini = 0.0\nsamples = 1\nvalue = [0, 0, 0, 0, 5, 0, 0]"] ;
467 -> 468 ;
469 [label="total sulfur dioxide <= 163.5\ngini = 0.46\nsamples = 6\nvalue = [0, 2, 7, 0, 0, 1, 0]"] ;
467 -> 469 ;
470 [label="volatile acidity <= 0.2\ngini = 0.22\nsamples = 5\nvalue = [0, 0, 7, 0, 0, 1, 0]"] ;
469 -> 470 ;
471 [label="gini = 0.0\nsamples = 1\nvalue = [0, 0, 0, 0, 0, 1, 0]"] ;
470 -> 471 ;
472 [label="gini = 0.0\nsamples = 4\nvalue = [0, 0, 7, 0, 0, 0, 0]"] ;
470 -> 472 ;
473 [label="gini = 0.0\nsamples = 1\nvalue = [0, 2, 0, 0, 0, 0, 0]"] ;
469 -> 473 ;
474 [label="chlorides <= 0.1\ngini = 0.36\nsamples = 33\nvalue = [1, 0, 45, 5, 6, 0, 0]"] ;
440 -> 474 ;
475 [label="total sulfur dioxide <= 100.0\ngini = 0.31\nsamples = 30\nvalue = [1, 0, 42, 5, 3, 0, 0]"] ;
474 -> 475 ;
476 [label="citric acid <= 0.45\ngini = 0.69\nsamples = 6\nvalue = [1, 0, 3, 1, 3, 0, 0]"] ;
475 -> 476 ;
477 [label="gini = 0.0\nsamples = 2\nvalue = [0, 0, 0, 0, 3, 0, 0]"] ;
476 -> 477 ;
478 [label="alcohol <= 9.95\ngini = 0.56\nsamples = 4\nvalue = [1, 0, 3, 1, 0, 0, 0]"] ;
476 -> 478 ;
479 [label="density <= 0.99\ngini = 0.38\nsamples = 3\nvalue = [1, 0, 3, 0, 0, 0, 0]"] ;
478 -> 479 ;
480 [label="pH <= 2.9\ngini = 0.5\nsamples = 2\nvalue = [1, 0, 1, 0, 0, 0, 0]"] ;
479 -> 480 ;
481 [label="gini = 0.0\nsamples = 1\nvalue = [1, 0, 0, 0, 0, 0, 0]"] ;
480 -> 481 ;
482 [label="gini = 0.0\nsamples = 1\nvalue = [0, 0, 1, 0, 0, 0, 0]"] ;
480 -> 482 ;
483 [label="gini = 0.0\nsamples = 1\nvalue = [0, 0, 2, 0, 0, 0, 0]"] ;
479 -> 483 ;
484 [label="gini = 0.0\nsamples = 1\nvalue = [0, 0, 0, 1, 0, 0, 0]"] ;
478 -> 484 ;
485 [label="volatile acidity <= 0.14\ngini = 0.17\nsamples = 24\nvalue = [0, 0, 39, 4, 0, 0, 0]"] ;
475 -> 485 ;
486 [label="gini = 0.0\nsamples = 1\nvalue = [0, 0, 0, 1, 0, 0, 0]"] ;
485 -> 486 ;
487 [label="alcohol <= 9.8\ngini = 0.13\nsamples = 23\nvalue = [0, 0, 39, 3, 0, 0, 0]"] ;
485 -> 487 ;
488 [label="gini = 0.0\nsamples = 16\nvalue = [0, 0, 28, 0, 0, 0, 0]"] ;
487 -> 488 ;
489 [label="density <= 1.0\ngini = 0.34\nsamples = 7\nvalue = [0, 0, 11, 3, 0, 0, 0]"] ;
487 -> 489 ;
490 [label="volatile acidity <= 0.3\ngini = 0.15\nsamples = 5\nvalue = [0, 0, 11, 1, 0, 0, 0]"] ;
489 -> 490 ;
491 [label="density <= 0.99\ngini = 0.44\nsamples = 2\nvalue = [0, 0, 2, 1, 0, 0, 0]"] ;
490 -> 491 ;
492 [label="gini = 0.0\nsamples = 1\nvalue = [0, 0, 2, 0, 0, 0, 0]"] ;
491 -> 492 ;
493 [label="gini = 0.0\nsamples = 1\nvalue = [0, 0, 0, 1, 0, 0, 0]"] ;
491 -> 493 ;
494 [label="gini = 0.0\nsamples = 3\nvalue = [0, 0, 9, 0, 0, 0, 0]"] ;
490 -> 494 ;
495 [label="gini = 0.0\nsamples = 2\nvalue = [0, 0, 0, 2, 0, 0, 0]"] ;
489 -> 495 ;
496 [label="sulphates <= 0.44\ngini = 0.5\nsamples = 3\nvalue = [0, 0, 3, 0, 3, 0, 0]"] ;
474 -> 496 ;
497 [label="gini = 0.0\nsamples = 1\nvalue = [0, 0, 0, 0, 3, 0, 0]"] ;
496 -> 497 ;
498 [label="gini = 0.0\nsamples = 2\nvalue = [0, 0, 3, 0, 0, 0, 0]"] ;
496 -> 498 ;
499 [label="sulphates <= 0.47\ngini = 0.2\nsamples = 6\nvalue = [0, 0, 1, 8, 0, 0, 0]"] ;
439 -> 499 ;
500 [label="gini = 0.0\nsamples = 1\nvalue = [0, 0, 1, 0, 0, 0, 0]"] ;
499 -> 500 ;
501 [label="gini = 0.0\nsamples = 5\nvalue = [0, 0, 0, 8, 0, 0, 0]"] ;
499 -> 501 ;
502 [label="fixed acidity <= 8.2\ngini = 0.34\nsamples = 48\nvalue = [0, 0, 55, 15, 0, 0, 0]"] ;
438 -> 502 ;
503 [label="residual sugar <= 6.4\ngini = 0.26\nsamples = 45\nvalue = [0, 0, 55, 10, 0, 0, 0]"] ;
502 -> 503 ;
504 [label="volatile acidity <= 0.27\ngini = 0.5\nsamples = 7\nvalue = [0, 0, 4, 4, 0, 0, 0]"] ;
503 -> 504 ;
505 [label="gini = 0.0\nsamples = 1\nvalue = [0, 0, 0, 2, 0, 0, 0]"] ;
504 -> 505 ;
506 [label="sulphates <= 0.46\ngini = 0.44\nsamples = 6\nvalue = [0, 0, 4, 2, 0, 0, 0]"] ;
504 -> 506 ;
507 [label="sulphates <= 0.38\ngini = 0.5\nsamples = 4\nvalue = [0, 0, 2, 2, 0, 0, 0]"] ;
506 -> 507 ;
508 [label="gini = 0.0\nsamples = 1\nvalue = [0, 0, 1, 0, 0, 0, 0]"] ;
507 -> 508 ;
509 [label="pH <= 3.05\ngini = 0.44\nsamples = 3\nvalue = [0, 0, 1, 2, 0, 0, 0]"] ;
507 -> 509 ;
510 [label="chlorides <= 0.2\ngini = 0.5\nsamples = 2\nvalue = [0, 0, 1, 1, 0, 0, 0]"] ;
509 -> 510 ;
511 [label="gini = 0.0\nsamples = 1\nvalue = [0, 0, 0, 1, 0, 0, 0]"] ;
510 -> 511 ;
512 [label="gini = 0.0\nsamples = 1\nvalue = [0, 0, 1, 0, 0, 0, 0]"] ;
510 -> 512 ;
513 [label="gini = 0.0\nsamples = 1\nvalue = [0, 0, 0, 1, 0, 0, 0]"] ;
509 -> 513 ;
514 [label="gini = 0.0\nsamples = 2\nvalue = [0, 0, 2, 0, 0, 0, 0]"] ;
506 -> 514 ;
515 [label="volatile acidity <= 0.23\ngini = 0.19\nsamples = 38\nvalue = [0, 0, 51, 6, 0, 0, 0]"] ;
503 -> 515 ;
516 [label="pH <= 3.24\ngini = 0.38\nsamples = 3\nvalue = [0, 0, 1, 3, 0, 0, 0]"] ;
515 -> 516 ;
517 [label="gini = 0.0\nsamples = 2\nvalue = [0, 0, 0, 3, 0, 0, 0]"] ;
516 -> 517 ;
518 [label="gini = 0.0\nsamples = 1\nvalue = [0, 0, 1, 0, 0, 0, 0]"] ;
516 -> 518 ;
519 [label="volatile acidity <= 0.49\ngini = 0.11\nsamples = 35\nvalue = [0, 0, 50, 3, 0, 0, 0]"] ;
515 -> 519 ;
520 [label="pH <= 3.16\ngini = 0.07\nsamples = 34\nvalue = [0, 0, 50, 2, 0, 0, 0]"] ;
519 -> 520 ;
521 [label="gini = 0.0\nsamples = 19\nvalue = [0, 0, 35, 0, 0, 0, 0]"] ;
520 -> 521 ;
522 [label="density <= 1.0\ngini = 0.21\nsamples = 15\nvalue = [0, 0, 15, 2, 0, 0, 0]"] ;
520 -> 522 ;
523 [label="gini = 0.0\nsamples = 1\nvalue = [0, 0, 0, 1, 0, 0, 0]"] ;
522 -> 523 ;
524 [label="density <= 1.0\ngini = 0.12\nsamples = 14\nvalue = [0, 0, 15, 1, 0, 0, 0]"] ;
522 -> 524 ;
525 [label="gini = 0.0\nsamples = 10\nvalue = [0, 0, 12, 0, 0, 0, 0]"] ;
524 -> 525 ;
526 [label="sulphates <= 0.54\ngini = 0.38\nsamples = 4\nvalue = [0, 0, 3, 1, 0, 0, 0]"] ;
524 -> 526 ;
527 [label="gini = 0.0\nsamples = 3\nvalue = [0, 0, 3, 0, 0, 0, 0]"] ;
526 -> 527 ;
528 [label="gini = 0.0\nsamples = 1\nvalue = [0, 0, 0, 1, 0, 0, 0]"] ;
526 -> 528 ;
529 [label="gini = 0.0\nsamples = 1\nvalue = [0, 0, 0, 1, 0, 0, 0]"] ;
519 -> 529 ;
530 [label="gini = 0.0\nsamples = 3\nvalue = [0, 0, 0, 5, 0, 0, 0]"] ;
502 -> 530 ;
531 [label="volatile acidity <= 0.2\ngini = 0.68\nsamples = 270\nvalue = [0, 10, 157, 163, 80, 16, 0]"] ;
163 -> 531 ;
532 [label="volatile acidity <= 0.16\ngini = 0.62\nsamples = 59\nvalue = [0, 0, 6, 29, 51, 11, 0]"] ;
531 -> 532 ;
533 [label="total sulfur dioxide <= 105.25\ngini = 0.32\nsamples = 22\nvalue = [0, 0, 2, 5, 30, 0, 0]"] ;
532 -> 533 ;
534 [label="gini = 0.0\nsamples = 3\nvalue = [0, 0, 0, 4, 0, 0, 0]"] ;
533 -> 534 ;
535 [label="alcohol <= 9.1\ngini = 0.17\nsamples = 19\nvalue = [0, 0, 2, 1, 30, 0, 0]"] ;
533 -> 535 ;
536 [label="gini = 0.0\nsamples = 14\nvalue = [0, 0, 0, 0, 22, 0, 0]"] ;
535 -> 536 ;
537 [label="pH <= 3.07\ngini = 0.43\nsamples = 5\nvalue = [0, 0, 2, 1, 8, 0, 0]"] ;
535 -> 537 ;
538 [label="sulphates <= 0.44\ngini = 0.44\nsamples = 2\nvalue = [0, 0, 2, 1, 0, 0, 0]"] ;
537 -> 538 ;
539 [label="gini = 0.0\nsamples = 1\nvalue = [0, 0, 2, 0, 0, 0, 0]"] ;
538 -> 539 ;
540 [label="gini = 0.0\nsamples = 1\nvalue = [0, 0, 0, 1, 0, 0, 0]"] ;
538 -> 540 ;
541 [label="gini = 0.0\nsamples = 3\nvalue = [0, 0, 0, 0, 8, 0, 0]"] ;
537 -> 541 ;
542 [label="density <= 1.0\ngini = 0.68\nsamples = 37\nvalue = [0, 0, 4, 24, 21, 11, 0]"] ;
532 -> 542 ;
543 [label="total sulfur dioxide <= 152.0\ngini = 0.54\nsamples = 9\nvalue = [0, 0, 1, 5, 0, 8, 0]"] ;
542 -> 543 ;
544 [label="total sulfur dioxide <= 144.0\ngini = 0.28\nsamples = 5\nvalue = [0, 0, 1, 5, 0, 0, 0]"] ;
543 -> 544 ;
545 [label="gini = 0.0\nsamples = 4\nvalue = [0, 0, 0, 5, 0, 0, 0]"] ;
544 -> 545 ;
546 [label="gini = 0.0\nsamples = 1\nvalue = [0, 0, 1, 0, 0, 0, 0]"] ;
544 -> 546 ;
547 [label="gini = 0.0\nsamples = 4\nvalue = [0, 0, 0, 0, 0, 8, 0]"] ;
543 -> 547 ;
548 [label="citric acid <= 0.31\ngini = 0.61\nsamples = 28\nvalue = [0, 0, 3, 19, 21, 3, 0]"] ;
542 -> 548 ;
549 [label="alcohol <= 9.25\ngini = 0.24\nsamples = 9\nvalue = [0, 0, 0, 2, 12, 0, 0]"] ;
548 -> 549 ;
550 [label="gini = 0.0\nsamples = 7\nvalue = [0, 0, 0, 0, 12, 0, 0]"] ;
549 -> 550 ;
551 [label="gini = 0.0\nsamples = 2\nvalue = [0, 0, 0, 2, 0, 0, 0]"] ;
549 -> 551 ;
552 [label="residual sugar <= 15.05\ngini = 0.62\nsamples = 19\nvalue = [0, 0, 3, 17, 9, 3, 0]"] ;
548 -> 552 ;
553 [label="density <= 1.0\ngini = 0.52\nsamples = 11\nvalue = [0, 0, 3, 11, 0, 3, 0]"] ;
552 -> 553 ;
554 [label="citric acid <= 0.38\ngini = 0.34\nsamples = 9\nvalue = [0, 0, 3, 11, 0, 0, 0]"] ;
553 -> 554 ;
555 [label="gini = 0.0\nsamples = 6\nvalue = [0, 0, 0, 9, 0, 0, 0]"] ;
554 -> 555 ;
556 [label="volatile acidity <= 0.18\ngini = 0.48\nsamples = 3\nvalue = [0, 0, 3, 2, 0, 0, 0]"] ;
554 -> 556 ;
557 [label="gini = 0.0\nsamples = 2\nvalue = [0, 0, 0, 2, 0, 0, 0]"] ;
556 -> 557 ;
558 [label="gini = 0.0\nsamples = 1\nvalue = [0, 0, 3, 0, 0, 0, 0]"] ;
556 -> 558 ;
559 [label="gini = 0.0\nsamples = 2\nvalue = [0, 0, 0, 0, 0, 3, 0]"] ;
553 -> 559 ;
560 [label="total sulfur dioxide <= 144.5\ngini = 0.48\nsamples = 8\nvalue = [0, 0, 0, 6, 9, 0, 0]"] ;
552 -> 560 ;
561 [label="gini = 0.0\nsamples = 2\nvalue = [0, 0, 0, 0, 6, 0, 0]"] ;
560 -> 561 ;
562 [label="citric acid <= 0.36\ngini = 0.44\nsamples = 6\nvalue = [0, 0, 0, 6, 3, 0, 0]"] ;
560 -> 562 ;
563 [label="gini = 0.0\nsamples = 2\nvalue = [0, 0, 0, 0, 3, 0, 0]"] ;
562 -> 563 ;
564 [label="gini = 0.0\nsamples = 4\nvalue = [0, 0, 0, 6, 0, 0, 0]"] ;
562 -> 564 ;
565 [label="density <= 1.0\ngini = 0.61\nsamples = 211\nvalue = [0, 10, 151, 134, 29, 5, 0]"] ;
531 -> 565 ;
566 [label="pH <= 3.24\ngini = 0.53\nsamples = 38\nvalue = [0, 4, 16, 41, 4, 0, 0]"] ;
565 -> 566 ;
567 [label="volatile acidity <= 0.3\ngini = 0.42\nsamples = 35\nvalue = [0, 0, 11, 41, 4, 0, 0]"] ;
566 -> 567 ;
568 [label="free sulfur dioxide <= 70.5\ngini = 0.25\nsamples = 25\nvalue = [0, 0, 4, 36, 2, 0, 0]"] ;
567 -> 568 ;
569 [label="citric acid <= 0.38\ngini = 0.14\nsamples = 23\nvalue = [0, 0, 1, 36, 2, 0, 0]"] ;
568 -> 569 ;
570 [label="residual sugar <= 13.15\ngini = 0.07\nsamples = 14\nvalue = [0, 0, 1, 26, 0, 0, 0]"] ;
569 -> 570 ;
571 [label="chlorides <= 0.05\ngini = 0.22\nsamples = 5\nvalue = [0, 0, 1, 7, 0, 0, 0]"] ;
570 -> 571 ;
572 [label="gini = 0.0\nsamples = 4\nvalue = [0, 0, 0, 7, 0, 0, 0]"] ;
571 -> 572 ;
573 [label="gini = 0.0\nsamples = 1\nvalue = [0, 0, 1, 0, 0, 0, 0]"] ;
571 -> 573 ;
574 [label="gini = 0.0\nsamples = 9\nvalue = [0, 0, 0, 19, 0, 0, 0]"] ;
570 -> 574 ;
575 [label="total sulfur dioxide <= 195.0\ngini = 0.28\nsamples = 9\nvalue = [0, 0, 0, 10, 2, 0, 0]"] ;
569 -> 575 ;
576 [label="total sulfur dioxide <= 182.0\ngini = 0.5\nsamples = 4\nvalue = [0, 0, 0, 2, 2, 0, 0]"] ;
575 -> 576 ;
577 [label="gini = 0.0\nsamples = 2\nvalue = [0, 0, 0, 2, 0, 0, 0]"] ;
576 -> 577 ;
578 [label="gini = 0.0\nsamples = 2\nvalue = [0, 0, 0, 0, 2, 0, 0]"] ;
576 -> 578 ;
579 [label="gini = 0.0\nsamples = 5\nvalue = [0, 0, 0, 8, 0, 0, 0]"] ;
575 -> 579 ;
580 [label="gini = 0.0\nsamples = 2\nvalue = [0, 0, 3, 0, 0, 0, 0]"] ;
568 -> 580 ;
581 [label="fixed acidity <= 6.25\ngini = 0.6\nsamples = 10\nvalue = [0, 0, 7, 5, 2, 0, 0]"] ;
567 -> 581 ;
582 [label="gini = 0.0\nsamples = 2\nvalue = [0, 0, 0, 3, 0, 0, 0]"] ;
581 -> 582 ;
583 [label="total sulfur dioxide <= 193.5\ngini = 0.53\nsamples = 8\nvalue = [0, 0, 7, 2, 2, 0, 0]"] ;
581 -> 583 ;
584 [label="density <= 1.0\ngini = 0.65\nsamples = 5\nvalue = [0, 0, 3, 2, 2, 0, 0]"] ;
583 -> 584 ;
585 [label="gini = 0.0\nsamples = 2\nvalue = [0, 0, 3, 0, 0, 0, 0]"] ;
584 -> 585 ;
586 [label="fixed acidity <= 6.95\ngini = 0.5\nsamples = 3\nvalue = [0, 0, 0, 2, 2, 0, 0]"] ;
584 -> 586 ;
587 [label="gini = 0.0\nsamples = 2\nvalue = [0, 0, 0, 2, 0, 0, 0]"] ;
586 -> 587 ;
588 [label="gini = 0.0\nsamples = 1\nvalue = [0, 0, 0, 0, 2, 0, 0]"] ;
586 -> 588 ;
589 [label="gini = 0.0\nsamples = 3\nvalue = [0, 0, 4, 0, 0, 0, 0]"] ;
583 -> 589 ;
590 [label="free sulfur dioxide <= 45.5\ngini = 0.49\nsamples = 3\nvalue = [0, 4, 5, 0, 0, 0, 0]"] ;
566 -> 590 ;
591 [label="gini = 0.0\nsamples = 1\nvalue = [0, 4, 0, 0, 0, 0, 0]"] ;
590 -> 591 ;
592 [label="gini = 0.0\nsamples = 2\nvalue = [0, 0, 5, 0, 0, 0, 0]"] ;
590 -> 592 ;
593 [label="volatile acidity <= 0.27\ngini = 0.6\nsamples = 173\nvalue = [0, 6, 135, 93, 25, 5, 0]"] ;
565 -> 593 ;
594 [label="pH <= 3.25\ngini = 0.64\nsamples = 98\nvalue = [0, 0, 49, 67, 24, 5, 0]"] ;
593 -> 594 ;
595 [label="density <= 1.0\ngini = 0.63\nsamples = 74\nvalue = [0, 0, 24, 57, 23, 5, 0]"] ;
594 -> 595 ;
596 [label="total sulfur dioxide <= 188.5\ngini = 0.57\nsamples = 55\nvalue = [0, 0, 13, 50, 14, 5, 0]"] ;
595 -> 596 ;
597 [label="total sulfur dioxide <= 133.0\ngini = 0.38\nsamples = 36\nvalue = [0, 0, 12, 35, 0, 0, 0]"] ;
596 -> 597 ;
598 [label="gini = 0.0\nsamples = 12\nvalue = [0, 0, 0, 18, 0, 0, 0]"] ;
597 -> 598 ;
599 [label="citric acid <= 0.51\ngini = 0.49\nsamples = 24\nvalue = [0, 0, 12, 17, 0, 0, 0]"] ;
597 -> 599 ;
600 [label="density <= 1.0\ngini = 0.39\nsamples = 18\nvalue = [0, 0, 6, 17, 0, 0, 0]"] ;
599 -> 600 ;
601 [label="sulphates <= 0.5\ngini = 0.47\nsamples = 8\nvalue = [0, 0, 5, 3, 0, 0, 0]"] ;
600 -> 601 ;
602 [label="total sulfur dioxide <= 163.5\ngini = 0.38\nsamples = 4\nvalue = [0, 0, 1, 3, 0, 0, 0]"] ;
601 -> 602 ;
603 [label="gini = 0.0\nsamples = 1\nvalue = [0, 0, 1, 0, 0, 0, 0]"] ;
602 -> 603 ;
604 [label="gini = 0.0\nsamples = 3\nvalue = [0, 0, 0, 3, 0, 0, 0]"] ;
602 -> 604 ;
605 [label="gini = 0.0\nsamples = 4\nvalue = [0, 0, 4, 0, 0, 0, 0]"] ;
601 -> 605 ;
606 [label="sulphates <= 0.6\ngini = 0.12\nsamples = 10\nvalue = [0, 0, 1, 14, 0, 0, 0]"] ;
600 -> 606 ;
607 [label="gini = 0.0\nsamples = 9\nvalue = [0, 0, 0, 14, 0, 0, 0]"] ;
606 -> 607 ;
608 [label="gini = 0.0\nsamples = 1\nvalue = [0, 0, 1, 0, 0, 0, 0]"] ;
606 -> 608 ;
609 [label="gini = 0.0\nsamples = 6\nvalue = [0, 0, 6, 0, 0, 0, 0]"] ;
599 -> 609 ;
610 [label="volatile acidity <= 0.24\ngini = 0.64\nsamples = 19\nvalue = [0, 0, 1, 15, 14, 5, 0]"] ;
596 -> 610 ;
611 [label="citric acid <= 0.34\ngini = 0.44\nsamples = 10\nvalue = [0, 0, 1, 14, 0, 5, 0]"] ;
610 -> 611 ;
612 [label="total sulfur dioxide <= 204.75\ngini = 0.28\nsamples = 4\nvalue = [0, 0, 0, 1, 0, 5, 0]"] ;
611 -> 612 ;
613 [label="gini = 0.0\nsamples = 1\nvalue = [0, 0, 0, 1, 0, 0, 0]"] ;
612 -> 613 ;
614 [label="gini = 0.0\nsamples = 3\nvalue = [0, 0, 0, 0, 0, 5, 0]"] ;
612 -> 614 ;
615 [label="density <= 1.0\ngini = 0.13\nsamples = 6\nvalue = [0, 0, 1, 13, 0, 0, 0]"] ;
611 -> 615 ;
616 [label="gini = 0.0\nsamples = 1\nvalue = [0, 0, 1, 0, 0, 0, 0]"] ;
615 -> 616 ;
617 [label="gini = 0.0\nsamples = 5\nvalue = [0, 0, 0, 13, 0, 0, 0]"] ;
615 -> 617 ;
618 [label="fixed acidity <= 7.65\ngini = 0.12\nsamples = 9\nvalue = [0, 0, 0, 1, 14, 0, 0]"] ;
610 -> 618 ;
619 [label="gini = 0.0\nsamples = 8\nvalue = [0, 0, 0, 0, 14, 0, 0]"] ;
618 -> 619 ;
620 [label="gini = 0.0\nsamples = 1\nvalue = [0, 0, 0, 1, 0, 0, 0]"] ;
618 -> 620 ;
621 [label="volatile acidity <= 0.21\ngini = 0.66\nsamples = 19\nvalue = [0, 0, 11, 7, 9, 0, 0]"] ;
595 -> 621 ;
622 [label="free sulfur dioxide <= 56.0\ngini = 0.28\nsamples = 4\nvalue = [0, 0, 1, 5, 0, 0, 0]"] ;
621 -> 622 ;
623 [label="gini = 0.0\nsamples = 1\nvalue = [0, 0, 1, 0, 0, 0, 0]"] ;
622 -> 623 ;
624 [label="gini = 0.0\nsamples = 3\nvalue = [0, 0, 0, 5, 0, 0, 0]"] ;
622 -> 624 ;
625 [label="volatile acidity <= 0.23\ngini = 0.58\nsamples = 15\nvalue = [0, 0, 10, 2, 9, 0, 0]"] ;
621 -> 625 ;
626 [label="gini = 0.0\nsamples = 3\nvalue = [0, 0, 0, 0, 6, 0, 0]"] ;
625 -> 626 ;
627 [label="free sulfur dioxide <= 51.25\ngini = 0.5\nsamples = 12\nvalue = [0, 0, 10, 2, 3, 0, 0]"] ;
625 -> 627 ;
628 [label="total sulfur dioxide <= 163.0\ngini = 0.64\nsamples = 8\nvalue = [0, 0, 4, 2, 3, 0, 0]"] ;
627 -> 628 ;
629 [label="pH <= 3.03\ngini = 0.32\nsamples = 5\nvalue = [0, 0, 4, 1, 0, 0, 0]"] ;
628 -> 629 ;
630 [label="gini = 0.0\nsamples = 1\nvalue = [0, 0, 0, 1, 0, 0, 0]"] ;
629 -> 630 ;
631 [label="gini = 0.0\nsamples = 4\nvalue = [0, 0, 4, 0, 0, 0, 0]"] ;
629 -> 631 ;
632 [label="alcohol <= 9.15\ngini = 0.38\nsamples = 3\nvalue = [0, 0, 0, 1, 3, 0, 0]"] ;
628 -> 632 ;
633 [label="gini = 0.0\nsamples = 2\nvalue = [0, 0, 0, 0, 3, 0, 0]"] ;
632 -> 633 ;
634 [label="gini = 0.0\nsamples = 1\nvalue = [0, 0, 0, 1, 0, 0, 0]"] ;
632 -> 634 ;
635 [label="gini = 0.0\nsamples = 4\nvalue = [0, 0, 6, 0, 0, 0, 0]"] ;
627 -> 635 ;
636 [label="citric acid <= 0.42\ngini = 0.44\nsamples = 24\nvalue = [0, 0, 25, 10, 1, 0, 0]"] ;
594 -> 636 ;
637 [label="alcohol <= 9.45\ngini = 0.32\nsamples = 20\nvalue = [0, 0, 25, 5, 1, 0, 0]"] ;
636 -> 637 ;
638 [label="gini = 0.0\nsamples = 12\nvalue = [0, 0, 18, 0, 0, 0, 0]"] ;
637 -> 638 ;
639 [label="chlorides <= 0.05\ngini = 0.56\nsamples = 8\nvalue = [0, 0, 7, 5, 1, 0, 0]"] ;
637 -> 639 ;
640 [label="gini = 0.0\nsamples = 2\nvalue = [0, 0, 0, 3, 0, 0, 0]"] ;
639 -> 640 ;
641 [label="fixed acidity <= 6.85\ngini = 0.46\nsamples = 6\nvalue = [0, 0, 7, 2, 1, 0, 0]"] ;
639 -> 641 ;
642 [label="gini = 0.0\nsamples = 3\nvalue = [0, 0, 6, 0, 0, 0, 0]"] ;
641 -> 642 ;
643 [label="total sulfur dioxide <= 168.0\ngini = 0.62\nsamples = 3\nvalue = [0, 0, 1, 2, 1, 0, 0]"] ;
641 -> 643 ;
644 [label="gini = 0.0\nsamples = 1\nvalue = [0, 0, 0, 2, 0, 0, 0]"] ;
643 -> 644 ;
645 [label="free sulfur dioxide <= 54.5\ngini = 0.5\nsamples = 2\nvalue = [0, 0, 1, 0, 1, 0, 0]"] ;
643 -> 645 ;
646 [label="gini = 0.0\nsamples = 1\nvalue = [0, 0, 1, 0, 0, 0, 0]"] ;
645 -> 646 ;
647 [label="gini = 0.0\nsamples = 1\nvalue = [0, 0, 0, 0, 1, 0, 0]"] ;
645 -> 647 ;
648 [label="gini = 0.0\nsamples = 4\nvalue = [0, 0, 0, 5, 0, 0, 0]"] ;
636 -> 648 ;
649 [label="citric acid <= 0.37\ngini = 0.43\nsamples = 75\nvalue = [0, 6, 86, 26, 1, 0, 0]"] ;
593 -> 649 ;
650 [label="sulphates <= 0.46\ngini = 0.49\nsamples = 30\nvalue = [0, 0, 22, 17, 0, 0, 0]"] ;
649 -> 650 ;
651 [label="density <= 1.0\ngini = 0.2\nsamples = 9\nvalue = [0, 0, 1, 8, 0, 0, 0]"] ;
650 -> 651 ;
652 [label="gini = 0.0\nsamples = 1\nvalue = [0, 0, 1, 0, 0, 0, 0]"] ;
651 -> 652 ;
653 [label="gini = 0.0\nsamples = 8\nvalue = [0, 0, 0, 8, 0, 0, 0]"] ;
651 -> 653 ;
654 [label="sulphates <= 0.55\ngini = 0.42\nsamples = 21\nvalue = [0, 0, 21, 9, 0, 0, 0]"] ;
650 -> 654 ;
655 [label="gini = 0.0\nsamples = 11\nvalue = [0, 0, 13, 0, 0, 0, 0]"] ;
654 -> 655 ;
656 [label="citric acid <= 0.27\ngini = 0.5\nsamples = 10\nvalue = [0, 0, 8, 9, 0, 0, 0]"] ;
654 -> 656 ;
657 [label="gini = 0.0\nsamples = 2\nvalue = [0, 0, 3, 0, 0, 0, 0]"] ;
656 -> 657 ;
658 [label="pH <= 3.12\ngini = 0.46\nsamples = 8\nvalue = [0, 0, 5, 9, 0, 0, 0]"] ;
656 -> 658 ;
659 [label="density <= 1.0\ngini = 0.32\nsamples = 3\nvalue = [0, 0, 4, 1, 0, 0, 0]"] ;
658 -> 659 ;
660 [label="gini = 0.0\nsamples = 2\nvalue = [0, 0, 4, 0, 0, 0, 0]"] ;
659 -> 660 ;
661 [label="gini = 0.0\nsamples = 1\nvalue = [0, 0, 0, 1, 0, 0, 0]"] ;
659 -> 661 ;
662 [label="fixed acidity <= 7.05\ngini = 0.2\nsamples = 5\nvalue = [0, 0, 1, 8, 0, 0, 0]"] ;
658 -> 662 ;
663 [label="gini = 0.0\nsamples = 4\nvalue = [0, 0, 0, 8, 0, 0, 0]"] ;
662 -> 663 ;
664 [label="gini = 0.0\nsamples = 1\nvalue = [0, 0, 1, 0, 0, 0, 0]"] ;
662 -> 664 ;
665 [label="chlorides <= 0.04\ngini = 0.34\nsamples = 45\nvalue = [0, 6, 64, 9, 1, 0, 0]"] ;
649 -> 665 ;
666 [label="alcohol <= 9.3\ngini = 0.48\nsamples = 3\nvalue = [0, 0, 2, 3, 0, 0, 0]"] ;
665 -> 666 ;
667 [label="gini = 0.0\nsamples = 1\nvalue = [0, 0, 2, 0, 0, 0, 0]"] ;
666 -> 667 ;
668 [label="gini = 0.0\nsamples = 2\nvalue = [0, 0, 0, 3, 0, 0, 0]"] ;
666 -> 668 ;
669 [label="citric acid <= 0.56\ngini = 0.3\nsamples = 42\nvalue = [0, 6, 62, 6, 1, 0, 0]"] ;
665 -> 669 ;
670 [label="pH <= 3.2\ngini = 0.4\nsamples = 31\nvalue = [0, 6, 41, 6, 1, 0, 0]"] ;
669 -> 670 ;
671 [label="fixed acidity <= 6.45\ngini = 0.27\nsamples = 26\nvalue = [0, 1, 37, 6, 0, 0, 0]"] ;
670 -> 671 ;
672 [label="gini = 0.0\nsamples = 1\nvalue = [0, 0, 0, 1, 0, 0, 0]"] ;
671 -> 672 ;
673 [label="residual sugar <= 12.95\ngini = 0.25\nsamples = 25\nvalue = [0, 1, 37, 5, 0, 0, 0]"] ;
671 -> 673 ;
674 [label="gini = 0.0\nsamples = 2\nvalue = [0, 0, 0, 2, 0, 0, 0]"] ;
673 -> 674 ;
675 [label="free sulfur dioxide <= 50.5\ngini = 0.18\nsamples = 23\nvalue = [0, 1, 37, 3, 0, 0, 0]"] ;
673 -> 675 ;
676 [label="gini = 0.0\nsamples = 13\nvalue = [0, 0, 27, 0, 0, 0, 0]"] ;
675 -> 676 ;
677 [label="density <= 1.0\ngini = 0.44\nsamples = 10\nvalue = [0, 1, 10, 3, 0, 0, 0]"] ;
675 -> 677 ;
678 [label="free sulfur dioxide <= 62.5\ngini = 0.17\nsamples = 8\nvalue = [0, 1, 10, 0, 0, 0, 0]"] ;
677 -> 678 ;
679 [label="gini = 0.0\nsamples = 6\nvalue = [0, 0, 9, 0, 0, 0, 0]"] ;
678 -> 679 ;
680 [label="chlorides <= 0.06\ngini = 0.5\nsamples = 2\nvalue = [0, 1, 1, 0, 0, 0, 0]"] ;
678 -> 680 ;
681 [label="gini = 0.0\nsamples = 1\nvalue = [0, 1, 0, 0, 0, 0, 0]"] ;
680 -> 681 ;
682 [label="gini = 0.0\nsamples = 1\nvalue = [0, 0, 1, 0, 0, 0, 0]"] ;
680 -> 682 ;
683 [label="gini = 0.0\nsamples = 2\nvalue = [0, 0, 0, 3, 0, 0, 0]"] ;
677 -> 683 ;
684 [label="fixed acidity <= 7.45\ngini = 0.58\nsamples = 5\nvalue = [0, 5, 4, 0, 1, 0, 0]"] ;
670 -> 684 ;
685 [label="total sulfur dioxide <= 190.0\ngini = 0.32\nsamples = 3\nvalue = [0, 0, 4, 0, 1, 0, 0]"] ;
684 -> 685 ;
686 [label="gini = 0.0\nsamples = 1\nvalue = [0, 0, 0, 0, 1, 0, 0]"] ;
685 -> 686 ;
687 [label="gini = 0.0\nsamples = 2\nvalue = [0, 0, 4, 0, 0, 0, 0]"] ;
685 -> 687 ;
688 [label="gini = 0.0\nsamples = 2\nvalue = [0, 5, 0, 0, 0, 0, 0]"] ;
684 -> 688 ;
689 [label="gini = 0.0\nsamples = 11\nvalue = [0, 0, 21, 0, 0, 0, 0]"] ;
669 -> 689 ;
690 [label="total sulfur dioxide <= 158.5\ngini = 0.66\nsamples = 1430\nvalue = [6, 69, 342, 1115, 630, 108, 7]"] ;
0 -> 690 [labeldistance=2.5, labelangle=-45, headlabel="False"] ;
691 [label="alcohol <= 10.85\ngini = 0.66\nsamples = 1194\nvalue = [5, 57, 248, 905, 590, 95, 7]"] ;
690 -> 691 ;
692 [label="total sulfur dioxide <= 77.5\ngini = 0.62\nsamples = 379\nvalue = [0, 27, 129, 332, 114, 2, 2]"] ;
691 -> 692 ;
693 [label="chlorides <= 0.05\ngini = 0.68\nsamples = 39\nvalue = [0, 10, 26, 15, 6, 0, 0]"] ;
692 -> 693 ;
694 [label="pH <= 3.31\ngini = 0.6\nsamples = 28\nvalue = [0, 3, 24, 9, 6, 0, 0]"] ;
693 -> 694 ;
695 [label="pH <= 2.89\ngini = 0.51\nsamples = 26\nvalue = [0, 3, 24, 9, 1, 0, 0]"] ;
694 -> 695 ;
696 [label="gini = 0.0\nsamples = 2\nvalue = [0, 0, 0, 4, 0, 0, 0]"] ;
695 -> 696 ;
697 [label="total sulfur dioxide <= 58.5\ngini = 0.44\nsamples = 24\nvalue = [0, 3, 24, 5, 1, 0, 0]"] ;
695 -> 697 ;
698 [label="chlorides <= 0.04\ngini = 0.61\nsamples = 5\nvalue = [0, 3, 1, 2, 0, 0, 0]"] ;
697 -> 698 ;
699 [label="gini = 0.0\nsamples = 2\nvalue = [0, 0, 0, 2, 0, 0, 0]"] ;
698 -> 699 ;
700 [label="sulphates <= 0.55\ngini = 0.38\nsamples = 3\nvalue = [0, 3, 1, 0, 0, 0, 0]"] ;
698 -> 700 ;
701 [label="gini = 0.0\nsamples = 2\nvalue = [0, 3, 0, 0, 0, 0, 0]"] ;
700 -> 701 ;
702 [label="gini = 0.0\nsamples = 1\nvalue = [0, 0, 1, 0, 0, 0, 0]"] ;
700 -> 702 ;
703 [label="alcohol <= 10.75\ngini = 0.26\nsamples = 19\nvalue = [0, 0, 23, 3, 1, 0, 0]"] ;
697 -> 703 ;
704 [label="gini = 0.0\nsamples = 14\nvalue = [0, 0, 21, 0, 0, 0, 0]"] ;
703 -> 704 ;
705 [label="chlorides <= 0.03\ngini = 0.61\nsamples = 5\nvalue = [0, 0, 2, 3, 1, 0, 0]"] ;
703 -> 705 ;
706 [label="gini = 0.0\nsamples = 1\nvalue = [0, 0, 0, 0, 1, 0, 0]"] ;
705 -> 706 ;
707 [label="residual sugar <= 1.4\ngini = 0.48\nsamples = 4\nvalue = [0, 0, 2, 3, 0, 0, 0]"] ;
705 -> 707 ;
708 [label="gini = 0.0\nsamples = 1\nvalue = [0, 0, 2, 0, 0, 0, 0]"] ;
707 -> 708 ;
709 [label="gini = 0.0\nsamples = 3\nvalue = [0, 0, 0, 3, 0, 0, 0]"] ;
707 -> 709 ;
710 [label="gini = 0.0\nsamples = 2\nvalue = [0, 0, 0, 0, 5, 0, 0]"] ;
694 -> 710 ;
711 [label="volatile acidity <= 0.23\ngini = 0.6\nsamples = 11\nvalue = [0, 7, 2, 6, 0, 0, 0]"] ;
693 -> 711 ;
712 [label="alcohol <= 10.65\ngini = 0.24\nsamples = 6\nvalue = [0, 0, 1, 6, 0, 0, 0]"] ;
711 -> 712 ;
713 [label="gini = 0.0\nsamples = 5\nvalue = [0, 0, 0, 6, 0, 0, 0]"] ;
712 -> 713 ;
714 [label="gini = 0.0\nsamples = 1\nvalue = [0, 0, 1, 0, 0, 0, 0]"] ;
712 -> 714 ;
715 [label="sulphates <= 0.62\ngini = 0.22\nsamples = 5\nvalue = [0, 7, 1, 0, 0, 0, 0]"] ;
711 -> 715 ;
716 [label="gini = 0.0\nsamples = 4\nvalue = [0, 7, 0, 0, 0, 0, 0]"] ;
715 -> 716 ;
717 [label="gini = 0.0\nsamples = 1\nvalue = [0, 0, 1, 0, 0, 0, 0]"] ;
715 -> 717 ;
718 [label="sulphates <= 0.5\ngini = 0.59\nsamples = 340\nvalue = [0, 17, 103, 317, 108, 2, 2]"] ;
692 -> 718 ;
719 [label="volatile acidity <= 0.34\ngini = 0.54\nsamples = 190\nvalue = [0, 8, 76, 188, 27, 2, 2]"] ;
718 -> 719 ;
720 [label="free sulfur dioxide <= 7.0\ngini = 0.52\nsamples = 160\nvalue = [0, 2, 57, 168, 27, 2, 2]"] ;
719 -> 720 ;
721 [label="gini = 0.0\nsamples = 1\nvalue = [0, 2, 0, 0, 0, 0, 0]"] ;
720 -> 721 ;
722 [label="free sulfur dioxide <= 24.5\ngini = 0.51\nsamples = 159\nvalue = [0, 0, 57, 168, 27, 2, 2]"] ;
720 -> 722 ;
723 [label="citric acid <= 0.21\ngini = 0.58\nsamples = 45\nvalue = [0, 0, 21, 34, 8, 0, 0]"] ;
722 -> 723 ;
724 [label="gini = 0.0\nsamples = 4\nvalue = [0, 0, 0, 7, 0, 0, 0]"] ;
723 -> 724 ;
725 [label="citric acid <= 0.24\ngini = 0.61\nsamples = 41\nvalue = [0, 0, 21, 27, 8, 0, 0]"] ;
723 -> 725 ;
726 [label="free sulfur dioxide <= 15.0\ngini = 0.24\nsamples = 5\nvalue = [0, 0, 6, 1, 0, 0, 0]"] ;
725 -> 726 ;
727 [label="gini = 0.0\nsamples = 1\nvalue = [0, 0, 0, 1, 0, 0, 0]"] ;
726 -> 727 ;
728 [label="gini = 0.0\nsamples = 4\nvalue = [0, 0, 6, 0, 0, 0, 0]"] ;
726 -> 728 ;
729 [label="density <= 1.0\ngini = 0.6\nsamples = 36\nvalue = [0, 0, 15, 26, 8, 0, 0]"] ;
725 -> 729 ;
730 [label="sulphates <= 0.33\ngini = 0.58\nsamples = 34\nvalue = [0, 0, 12, 26, 8, 0, 0]"] ;
729 -> 730 ;
731 [label="gini = 0.0\nsamples = 1\nvalue = [0, 0, 0, 0, 2, 0, 0]"] ;
730 -> 731 ;
732 [label="fixed acidity <= 6.75\ngini = 0.56\nsamples = 33\nvalue = [0, 0, 12, 26, 6, 0, 0]"] ;
730 -> 732 ;
733 [label="gini = 0.0\nsamples = 8\nvalue = [0, 0, 0, 12, 0, 0, 0]"] ;
732 -> 733 ;
734 [label="fixed acidity <= 8.0\ngini = 0.63\nsamples = 25\nvalue = [0, 0, 12, 14, 6, 0, 0]"] ;
732 -> 734 ;
735 [label="chlorides <= 0.05\ngini = 0.62\nsamples = 17\nvalue = [0, 0, 11, 5, 6, 0, 0]"] ;
734 -> 735 ;
736 [label="alcohol <= 10.45\ngini = 0.54\nsamples = 14\nvalue = [0, 0, 11, 2, 5, 0, 0]"] ;
735 -> 736 ;
737 [label="gini = 0.0\nsamples = 3\nvalue = [0, 0, 7, 0, 0, 0, 0]"] ;
736 -> 737 ;
738 [label="free sulfur dioxide <= 19.5\ngini = 0.63\nsamples = 11\nvalue = [0, 0, 4, 2, 5, 0, 0]"] ;
736 -> 738 ;
739 [label="free sulfur dioxide <= 16.5\ngini = 0.53\nsamples = 8\nvalue = [0, 0, 1, 2, 5, 0, 0]"] ;
738 -> 739 ;
740 [label="volatile acidity <= 0.19\ngini = 0.44\nsamples = 3\nvalue = [0, 0, 1, 2, 0, 0, 0]"] ;
739 -> 740 ;
741 [label="gini = 0.0\nsamples = 1\nvalue = [0, 0, 1, 0, 0, 0, 0]"] ;
740 -> 741 ;
742 [label="gini = 0.0\nsamples = 2\nvalue = [0, 0, 0, 2, 0, 0, 0]"] ;
740 -> 742 ;
743 [label="gini = 0.0\nsamples = 5\nvalue = [0, 0, 0, 0, 5, 0, 0]"] ;
739 -> 743 ;
744 [label="gini = 0.0\nsamples = 3\nvalue = [0, 0, 3, 0, 0, 0, 0]"] ;
738 -> 744 ;
745 [label="residual sugar <= 1.6\ngini = 0.38\nsamples = 3\nvalue = [0, 0, 0, 3, 1, 0, 0]"] ;
735 -> 745 ;
746 [label="gini = 0.0\nsamples = 1\nvalue = [0, 0, 0, 0, 1, 0, 0]"] ;
745 -> 746 ;
747 [label="gini = 0.0\nsamples = 2\nvalue = [0, 0, 0, 3, 0, 0, 0]"] ;
745 -> 747 ;
748 [label="total sulfur dioxide <= 95.5\ngini = 0.18\nsamples = 8\nvalue = [0, 0, 1, 9, 0, 0, 0]"] ;
734 -> 748 ;
749 [label="sulphates <= 0.39\ngini = 0.5\nsamples = 2\nvalue = [0, 0, 1, 1, 0, 0, 0]"] ;
748 -> 749 ;
750 [label="gini = 0.0\nsamples = 1\nvalue = [0, 0, 1, 0, 0, 0, 0]"] ;
749 -> 750 ;
751 [label="gini = 0.0\nsamples = 1\nvalue = [0, 0, 0, 1, 0, 0, 0]"] ;
749 -> 751 ;
752 [label="gini = 0.0\nsamples = 6\nvalue = [0, 0, 0, 8, 0, 0, 0]"] ;
748 -> 752 ;
753 [label="gini = 0.0\nsamples = 2\nvalue = [0, 0, 3, 0, 0, 0, 0]"] ;
729 -> 753 ;
754 [label="chlorides <= 0.04\ngini = 0.47\nsamples = 114\nvalue = [0, 0, 36, 134, 19, 2, 2]"] ;
722 -> 754 ;
755 [label="citric acid <= 0.28\ngini = 0.62\nsamples = 41\nvalue = [0, 0, 13, 37, 15, 1, 2]"] ;
754 -> 755 ;
756 [label="pH <= 3.13\ngini = 0.59\nsamples = 11\nvalue = [0, 0, 4, 4, 10, 0, 0]"] ;
755 -> 756 ;
757 [label="gini = 0.0\nsamples = 2\nvalue = [0, 0, 0, 0, 6, 0, 0]"] ;
756 -> 757 ;
758 [label="chlorides <= 0.04\ngini = 0.67\nsamples = 9\nvalue = [0, 0, 4, 4, 4, 0, 0]"] ;
756 -> 758 ;
759 [label="free sulfur dioxide <= 43.0\ngini = 0.5\nsamples = 5\nvalue = [0, 0, 1, 1, 4, 0, 0]"] ;
758 -> 759 ;
760 [label="residual sugar <= 8.55\ngini = 0.32\nsamples = 4\nvalue = [0, 0, 1, 0, 4, 0, 0]"] ;
759 -> 760 ;
761 [label="gini = 0.0\nsamples = 3\nvalue = [0, 0, 0, 0, 4, 0, 0]"] ;
760 -> 761 ;
762 [label="gini = 0.0\nsamples = 1\nvalue = [0, 0, 1, 0, 0, 0, 0]"] ;
760 -> 762 ;
763 [label="gini = 0.0\nsamples = 1\nvalue = [0, 0, 0, 1, 0, 0, 0]"] ;
759 -> 763 ;
764 [label="pH <= 3.23\ngini = 0.5\nsamples = 4\nvalue = [0, 0, 3, 3, 0, 0, 0]"] ;
758 -> 764 ;
765 [label="gini = 0.0\nsamples = 2\nvalue = [0, 0, 0, 3, 0, 0, 0]"] ;
764 -> 765 ;
766 [label="gini = 0.0\nsamples = 2\nvalue = [0, 0, 3, 0, 0, 0, 0]"] ;
764 -> 766 ;
767 [label="pH <= 2.88\ngini = 0.52\nsamples = 30\nvalue = [0, 0, 9, 33, 5, 1, 2]"] ;
755 -> 767 ;
768 [label="gini = 0.0\nsamples = 1\nvalue = [0, 0, 2, 0, 0, 0, 0]"] ;
767 -> 768 ;
769 [label="chlorides <= 0.04\ngini = 0.49\nsamples = 29\nvalue = [0, 0, 7, 33, 5, 1, 2]"] ;
767 -> 769 ;
770 [label="residual sugar <= 9.9\ngini = 0.45\nsamples = 27\nvalue = [0, 0, 4, 32, 5, 1, 2]"] ;
769 -> 770 ;
771 [label="alcohol <= 10.55\ngini = 0.28\nsamples = 19\nvalue = [0, 0, 3, 27, 2, 0, 0]"] ;
770 -> 771 ;
772 [label="chlorides <= 0.04\ngini = 0.57\nsamples = 7\nvalue = [0, 0, 3, 5, 1, 0, 0]"] ;
771 -> 772 ;
773 [label="density <= 0.99\ngini = 0.28\nsamples = 5\nvalue = [0, 0, 1, 5, 0, 0, 0]"] ;
772 -> 773 ;
774 [label="gini = 0.0\nsamples = 4\nvalue = [0, 0, 0, 5, 0, 0, 0]"] ;
773 -> 774 ;
775 [label="gini = 0.0\nsamples = 1\nvalue = [0, 0, 1, 0, 0, 0, 0]"] ;
773 -> 775 ;
776 [label="citric acid <= 0.35\ngini = 0.44\nsamples = 2\nvalue = [0, 0, 2, 0, 1, 0, 0]"] ;
772 -> 776 ;
777 [label="gini = 0.0\nsamples = 1\nvalue = [0, 0, 0, 0, 1, 0, 0]"] ;
776 -> 777 ;
778 [label="gini = 0.0\nsamples = 1\nvalue = [0, 0, 2, 0, 0, 0, 0]"] ;
776 -> 778 ;
779 [label="total sulfur dioxide <= 138.0\ngini = 0.08\nsamples = 12\nvalue = [0, 0, 0, 22, 1, 0, 0]"] ;
771 -> 779 ;
780 [label="gini = 0.0\nsamples = 9\nvalue = [0, 0, 0, 17, 0, 0, 0]"] ;
779 -> 780 ;
781 [label="total sulfur dioxide <= 143.0\ngini = 0.28\nsamples = 3\nvalue = [0, 0, 0, 5, 1, 0, 0]"] ;
779 -> 781 ;
782 [label="gini = 0.0\nsamples = 1\nvalue = [0, 0, 0, 0, 1, 0, 0]"] ;
781 -> 782 ;
783 [label="gini = 0.0\nsamples = 2\nvalue = [0, 0, 0, 5, 0, 0, 0]"] ;
781 -> 783 ;
784 [label="fixed acidity <= 5.75\ngini = 0.72\nsamples = 8\nvalue = [0, 0, 1, 5, 3, 1, 2]"] ;
770 -> 784 ;
785 [label="gini = 0.0\nsamples = 1\nvalue = [0, 0, 0, 0, 3, 0, 0]"] ;
784 -> 785 ;
786 [label="pH <= 3.19\ngini = 0.62\nsamples = 7\nvalue = [0, 0, 1, 5, 0, 1, 2]"] ;
784 -> 786 ;
787 [label="citric acid <= 0.41\ngini = 0.28\nsamples = 5\nvalue = [0, 0, 1, 5, 0, 0, 0]"] ;
786 -> 787 ;
788 [label="gini = 0.0\nsamples = 4\nvalue = [0, 0, 0, 5, 0, 0, 0]"] ;
787 -> 788 ;
789 [label="gini = 0.0\nsamples = 1\nvalue = [0, 0, 1, 0, 0, 0, 0]"] ;
787 -> 789 ;
790 [label="total sulfur dioxide <= 119.5\ngini = 0.44\nsamples = 2\nvalue = [0, 0, 0, 0, 0, 1, 2]"] ;
786 -> 790 ;
791 [label="gini = 0.0\nsamples = 1\nvalue = [0, 0, 0, 0, 0, 1, 0]"] ;
790 -> 791 ;
792 [label="gini = 0.0\nsamples = 1\nvalue = [0, 0, 0, 0, 0, 0, 2]"] ;
790 -> 792 ;
793 [label="residual sugar <= 8.72\ngini = 0.38\nsamples = 2\nvalue = [0, 0, 3, 1, 0, 0, 0]"] ;
769 -> 793 ;
794 [label="gini = 0.0\nsamples = 1\nvalue = [0, 0, 0, 1, 0, 0, 0]"] ;
793 -> 794 ;
795 [label="gini = 0.0\nsamples = 1\nvalue = [0, 0, 3, 0, 0, 0, 0]"] ;
793 -> 795 ;
796 [label="free sulfur dioxide <= 39.5\ngini = 0.36\nsamples = 73\nvalue = [0, 0, 23, 97, 4, 1, 0]"] ;
754 -> 796 ;
797 [label="residual sugar <= 4.8\ngini = 0.26\nsamples = 43\nvalue = [0, 0, 7, 66, 3, 1, 0]"] ;
796 -> 797 ;
798 [label="total sulfur dioxide <= 122.5\ngini = 0.45\nsamples = 22\nvalue = [0, 0, 7, 27, 3, 1, 0]"] ;
797 -> 798 ;
799 [label="gini = 0.0\nsamples = 10\nvalue = [0, 0, 0, 16, 0, 0, 0]"] ;
798 -> 799 ;
800 [label="fixed acidity <= 7.7\ngini = 0.63\nsamples = 12\nvalue = [0, 0, 7, 11, 3, 1, 0]"] ;
798 -> 800 ;
801 [label="chlorides <= 0.05\ngini = 0.67\nsamples = 10\nvalue = [0, 0, 7, 5, 3, 1, 0]"] ;
800 -> 801 ;
802 [label="pH <= 3.38\ngini = 0.59\nsamples = 5\nvalue = [0, 0, 0, 4, 3, 1, 0]"] ;
801 -> 802 ;
803 [label="gini = 0.0\nsamples = 2\nvalue = [0, 0, 0, 4, 0, 0, 0]"] ;
802 -> 803 ;
804 [label="density <= 0.99\ngini = 0.38\nsamples = 3\nvalue = [0, 0, 0, 0, 3, 1, 0]"] ;
802 -> 804 ;
805 [label="gini = 0.0\nsamples = 1\nvalue = [0, 0, 0, 0, 0, 1, 0]"] ;
804 -> 805 ;
806 [label="gini = 0.0\nsamples = 2\nvalue = [0, 0, 0, 0, 3, 0, 0]"] ;
804 -> 806 ;
807 [label="volatile acidity <= 0.31\ngini = 0.22\nsamples = 5\nvalue = [0, 0, 7, 1, 0, 0, 0]"] ;
801 -> 807 ;
808 [label="gini = 0.0\nsamples = 4\nvalue = [0, 0, 7, 0, 0, 0, 0]"] ;
807 -> 808 ;
809 [label="gini = 0.0\nsamples = 1\nvalue = [0, 0, 0, 1, 0, 0, 0]"] ;
807 -> 809 ;
810 [label="gini = 0.0\nsamples = 2\nvalue = [0, 0, 0, 6, 0, 0, 0]"] ;
800 -> 810 ;
811 [label="gini = 0.0\nsamples = 21\nvalue = [0, 0, 0, 39, 0, 0, 0]"] ;
797 -> 811 ;
812 [label="sulphates <= 0.41\ngini = 0.47\nsamples = 30\nvalue = [0, 0, 16, 31, 1, 0, 0]"] ;
796 -> 812 ;
813 [label="density <= 1.0\ngini = 0.25\nsamples = 17\nvalue = [0, 0, 4, 23, 0, 0, 0]"] ;
812 -> 813 ;
814 [label="chlorides <= 0.05\ngini = 0.08\nsamples = 13\nvalue = [0, 0, 1, 22, 0, 0, 0]"] ;
813 -> 814 ;
815 [label="gini = 0.0\nsamples = 7\nvalue = [0, 0, 0, 14, 0, 0, 0]"] ;
814 -> 815 ;
816 [label="total sulfur dioxide <= 143.5\ngini = 0.2\nsamples = 6\nvalue = [0, 0, 1, 8, 0, 0, 0]"] ;
814 -> 816 ;
817 [label="gini = 0.0\nsamples = 5\nvalue = [0, 0, 0, 8, 0, 0, 0]"] ;
816 -> 817 ;
818 [label="gini = 0.0\nsamples = 1\nvalue = [0, 0, 1, 0, 0, 0, 0]"] ;
816 -> 818 ;
819 [label="fixed acidity <= 6.15\ngini = 0.38\nsamples = 4\nvalue = [0, 0, 3, 1, 0, 0, 0]"] ;
813 -> 819 ;
820 [label="gini = 0.0\nsamples = 2\nvalue = [0, 0, 2, 0, 0, 0, 0]"] ;
819 -> 820 ;
821 [label="residual sugar <= 15.35\ngini = 0.5\nsamples = 2\nvalue = [0, 0, 1, 1, 0, 0, 0]"] ;
819 -> 821 ;
822 [label="gini = 0.0\nsamples = 1\nvalue = [0, 0, 1, 0, 0, 0, 0]"] ;
821 -> 822 ;
823 [label="gini = 0.0\nsamples = 1\nvalue = [0, 0, 0, 1, 0, 0, 0]"] ;
821 -> 823 ;
824 [label="residual sugar <= 1.3\ngini = 0.53\nsamples = 13\nvalue = [0, 0, 12, 8, 1, 0, 0]"] ;
812 -> 824 ;
825 [label="gini = 0.0\nsamples = 2\nvalue = [0, 0, 0, 2, 0, 0, 0]"] ;
824 -> 825 ;
826 [label="density <= 0.99\ngini = 0.5\nsamples = 11\nvalue = [0, 0, 12, 6, 1, 0, 0]"] ;
824 -> 826 ;
827 [label="fixed acidity <= 6.7\ngini = 0.4\nsamples = 7\nvalue = [0, 0, 9, 2, 1, 0, 0]"] ;
826 -> 827 ;
828 [label="sulphates <= 0.45\ngini = 0.18\nsamples = 5\nvalue = [0, 0, 9, 0, 1, 0, 0]"] ;
827 -> 828 ;
829 [label="gini = 0.0\nsamples = 1\nvalue = [0, 0, 0, 0, 1, 0, 0]"] ;
828 -> 829 ;
830 [label="gini = 0.0\nsamples = 4\nvalue = [0, 0, 9, 0, 0, 0, 0]"] ;
828 -> 830 ;
831 [label="gini = 0.0\nsamples = 2\nvalue = [0, 0, 0, 2, 0, 0, 0]"] ;
827 -> 831 ;
832 [label="chlorides <= 0.05\ngini = 0.49\nsamples = 4\nvalue = [0, 0, 3, 4, 0, 0, 0]"] ;
826 -> 832 ;
833 [label="gini = 0.0\nsamples = 2\nvalue = [0, 0, 3, 0, 0, 0, 0]"] ;
832 -> 833 ;
834 [label="gini = 0.0\nsamples = 2\nvalue = [0, 0, 0, 4, 0, 0, 0]"] ;
832 -> 834 ;
835 [label="density <= 0.99\ngini = 0.61\nsamples = 30\nvalue = [0, 6, 19, 20, 0, 0, 0]"] ;
719 -> 835 ;
836 [label="gini = 0.0\nsamples = 5\nvalue = [0, 0, 9, 0, 0, 0, 0]"] ;
835 -> 836 ;
837 [label="pH <= 3.27\ngini = 0.59\nsamples = 25\nvalue = [0, 6, 10, 20, 0, 0, 0]"] ;
835 -> 837 ;
838 [label="free sulfur dioxide <= 21.5\ngini = 0.53\nsamples = 19\nvalue = [0, 6, 4, 17, 0, 0, 0]"] ;
837 -> 838 ;
839 [label="pH <= 3.04\ngini = 0.65\nsamples = 8\nvalue = [0, 5, 3, 4, 0, 0, 0]"] ;
838 -> 839 ;
840 [label="density <= 0.99\ngini = 0.38\nsamples = 3\nvalue = [0, 1, 3, 0, 0, 0, 0]"] ;
839 -> 840 ;
841 [label="gini = 0.0\nsamples = 1\nvalue = [0, 1, 0, 0, 0, 0, 0]"] ;
840 -> 841 ;
842 [label="gini = 0.0\nsamples = 2\nvalue = [0, 0, 3, 0, 0, 0, 0]"] ;
840 -> 842 ;
843 [label="total sulfur dioxide <= 120.5\ngini = 0.5\nsamples = 5\nvalue = [0, 4, 0, 4, 0, 0, 0]"] ;
839 -> 843 ;
844 [label="density <= 0.99\ngini = 0.32\nsamples = 3\nvalue = [0, 4, 0, 1, 0, 0, 0]"] ;
843 -> 844 ;
845 [label="gini = 0.0\nsamples = 1\nvalue = [0, 0, 0, 1, 0, 0, 0]"] ;
844 -> 845 ;
846 [label="gini = 0.0\nsamples = 2\nvalue = [0, 4, 0, 0, 0, 0, 0]"] ;
844 -> 846 ;
847 [label="gini = 0.0\nsamples = 2\nvalue = [0, 0, 0, 3, 0, 0, 0]"] ;
843 -> 847 ;
848 [label="citric acid <= 0.07\ngini = 0.24\nsamples = 11\nvalue = [0, 1, 1, 13, 0, 0, 0]"] ;
838 -> 848 ;
849 [label="gini = 0.0\nsamples = 1\nvalue = [0, 1, 0, 0, 0, 0, 0]"] ;
848 -> 849 ;
850 [label="fixed acidity <= 7.25\ngini = 0.13\nsamples = 10\nvalue = [0, 0, 1, 13, 0, 0, 0]"] ;
848 -> 850 ;
851 [label="gini = 0.0\nsamples = 7\nvalue = [0, 0, 0, 11, 0, 0, 0]"] ;
850 -> 851 ;
852 [label="fixed acidity <= 7.5\ngini = 0.44\nsamples = 3\nvalue = [0, 0, 1, 2, 0, 0, 0]"] ;
850 -> 852 ;
853 [label="gini = 0.0\nsamples = 1\nvalue = [0, 0, 1, 0, 0, 0, 0]"] ;
852 -> 853 ;
854 [label="gini = 0.0\nsamples = 2\nvalue = [0, 0, 0, 2, 0, 0, 0]"] ;
852 -> 854 ;
855 [label="residual sugar <= 3.25\ngini = 0.44\nsamples = 6\nvalue = [0, 0, 6, 3, 0, 0, 0]"] ;
837 -> 855 ;
856 [label="gini = 0.0\nsamples = 2\nvalue = [0, 0, 0, 3, 0, 0, 0]"] ;
855 -> 856 ;
857 [label="gini = 0.0\nsamples = 4\nvalue = [0, 0, 6, 0, 0, 0, 0]"] ;
855 -> 857 ;
858 [label="density <= 0.99\ngini = 0.6\nsamples = 150\nvalue = [0, 9, 27, 129, 81, 0, 0]"] ;
718 -> 858 ;
859 [label="density <= 0.99\ngini = 0.54\nsamples = 29\nvalue = [0, 0, 3, 21, 29, 0, 0]"] ;
858 -> 859 ;
860 [label="pH <= 3.2\ngini = 0.48\nsamples = 12\nvalue = [0, 0, 0, 13, 9, 0, 0]"] ;
859 -> 860 ;
861 [label="gini = 0.0\nsamples = 2\nvalue = [0, 0, 0, 0, 5, 0, 0]"] ;
860 -> 861 ;
862 [label="residual sugar <= 1.3\ngini = 0.36\nsamples = 10\nvalue = [0, 0, 0, 13, 4, 0, 0]"] ;
860 -> 862 ;
863 [label="chlorides <= 0.04\ngini = 0.5\nsamples = 5\nvalue = [0, 0, 0, 4, 4, 0, 0]"] ;
862 -> 863 ;
864 [label="gini = 0.0\nsamples = 3\nvalue = [0, 0, 0, 4, 0, 0, 0]"] ;
863 -> 864 ;
865 [label="gini = 0.0\nsamples = 2\nvalue = [0, 0, 0, 0, 4, 0, 0]"] ;
863 -> 865 ;
866 [label="gini = 0.0\nsamples = 5\nvalue = [0, 0, 0, 9, 0, 0, 0]"] ;
862 -> 866 ;
867 [label="sulphates <= 0.65\ngini = 0.51\nsamples = 17\nvalue = [0, 0, 3, 8, 20, 0, 0]"] ;
859 -> 867 ;
868 [label="fixed acidity <= 6.9\ngini = 0.5\nsamples = 10\nvalue = [0, 0, 0, 8, 9, 0, 0]"] ;
867 -> 868 ;
869 [label="chlorides <= 0.03\ngini = 0.38\nsamples = 7\nvalue = [0, 0, 0, 3, 9, 0, 0]"] ;
868 -> 869 ;
870 [label="gini = 0.0\nsamples = 1\nvalue = [0, 0, 0, 1, 0, 0, 0]"] ;
869 -> 870 ;
871 [label="residual sugar <= 1.15\ngini = 0.3\nsamples = 6\nvalue = [0, 0, 0, 2, 9, 0, 0]"] ;
869 -> 871 ;
872 [label="gini = 0.0\nsamples = 1\nvalue = [0, 0, 0, 1, 0, 0, 0]"] ;
871 -> 872 ;
873 [label="volatile acidity <= 0.19\ngini = 0.18\nsamples = 5\nvalue = [0, 0, 0, 1, 9, 0, 0]"] ;
871 -> 873 ;
874 [label="gini = 0.0\nsamples = 1\nvalue = [0, 0, 0, 1, 0, 0, 0]"] ;
873 -> 874 ;
875 [label="gini = 0.0\nsamples = 4\nvalue = [0, 0, 0, 0, 9, 0, 0]"] ;
873 -> 875 ;
876 [label="gini = 0.0\nsamples = 3\nvalue = [0, 0, 0, 5, 0, 0, 0]"] ;
868 -> 876 ;
877 [label="total sulfur dioxide <= 80.5\ngini = 0.34\nsamples = 7\nvalue = [0, 0, 3, 0, 11, 0, 0]"] ;
867 -> 877 ;
878 [label="gini = 0.0\nsamples = 1\nvalue = [0, 0, 1, 0, 0, 0, 0]"] ;
877 -> 878 ;
879 [label="chlorides <= 0.04\ngini = 0.26\nsamples = 6\nvalue = [0, 0, 2, 0, 11, 0, 0]"] ;
877 -> 879 ;
880 [label="gini = 0.0\nsamples = 3\nvalue = [0, 0, 0, 0, 8, 0, 0]"] ;
879 -> 880 ;
881 [label="free sulfur dioxide <= 33.5\ngini = 0.48\nsamples = 3\nvalue = [0, 0, 2, 0, 3, 0, 0]"] ;
879 -> 881 ;
882 [label="gini = 0.0\nsamples = 1\nvalue = [0, 0, 2, 0, 0, 0, 0]"] ;
881 -> 882 ;
883 [label="gini = 0.0\nsamples = 2\nvalue = [0, 0, 0, 0, 3, 0, 0]"] ;
881 -> 883 ;
884 [label="free sulfur dioxide <= 29.5\ngini = 0.6\nsamples = 121\nvalue = [0, 9, 24, 108, 52, 0, 0]"] ;
858 -> 884 ;
885 [label="free sulfur dioxide <= 24.5\ngini = 0.52\nsamples = 56\nvalue = [0, 9, 13, 56, 6, 0, 0]"] ;
884 -> 885 ;
886 [label="pH <= 2.98\ngini = 0.66\nsamples = 33\nvalue = [0, 9, 11, 27, 6, 0, 0]"] ;
885 -> 886 ;
887 [label="volatile acidity <= 0.25\ngini = 0.5\nsamples = 3\nvalue = [0, 3, 0, 0, 3, 0, 0]"] ;
886 -> 887 ;
888 [label="gini = 0.0\nsamples = 1\nvalue = [0, 3, 0, 0, 0, 0, 0]"] ;
887 -> 888 ;
889 [label="gini = 0.0\nsamples = 2\nvalue = [0, 0, 0, 0, 3, 0, 0]"] ;
887 -> 889 ;
890 [label="total sulfur dioxide <= 104.5\ngini = 0.59\nsamples = 30\nvalue = [0, 6, 11, 27, 3, 0, 0]"] ;
886 -> 890 ;
891 [label="gini = 0.0\nsamples = 8\nvalue = [0, 0, 0, 15, 0, 0, 0]"] ;
890 -> 891 ;
892 [label="sulphates <= 0.53\ngini = 0.7\nsamples = 22\nvalue = [0, 6, 11, 12, 3, 0, 0]"] ;
890 -> 892 ;
893 [label="volatile acidity <= 0.16\ngini = 0.4\nsamples = 8\nvalue = [0, 1, 2, 9, 0, 0, 0]"] ;
892 -> 893 ;
894 [label="gini = 0.0\nsamples = 1\nvalue = [0, 1, 0, 0, 0, 0, 0]"] ;
893 -> 894 ;
895 [label="volatile acidity <= 0.24\ngini = 0.3\nsamples = 7\nvalue = [0, 0, 2, 9, 0, 0, 0]"] ;
893 -> 895 ;
896 [label="gini = 0.0\nsamples = 2\nvalue = [0, 0, 0, 4, 0, 0, 0]"] ;
895 -> 896 ;
897 [label="fixed acidity <= 5.95\ngini = 0.41\nsamples = 5\nvalue = [0, 0, 2, 5, 0, 0, 0]"] ;
895 -> 897 ;
898 [label="gini = 0.0\nsamples = 1\nvalue = [0, 0, 1, 0, 0, 0, 0]"] ;
897 -> 898 ;
899 [label="free sulfur dioxide <= 21.0\ngini = 0.28\nsamples = 4\nvalue = [0, 0, 1, 5, 0, 0, 0]"] ;
897 -> 899 ;
900 [label="gini = 0.0\nsamples = 3\nvalue = [0, 0, 0, 5, 0, 0, 0]"] ;
899 -> 900 ;
901 [label="gini = 0.0\nsamples = 1\nvalue = [0, 0, 1, 0, 0, 0, 0]"] ;
899 -> 901 ;
902 [label="residual sugar <= 1.55\ngini = 0.69\nsamples = 14\nvalue = [0, 5, 9, 3, 3, 0, 0]"] ;
892 -> 902 ;
903 [label="alcohol <= 10.3\ngini = 0.66\nsamples = 5\nvalue = [0, 0, 2, 3, 3, 0, 0]"] ;
902 -> 903 ;
904 [label="gini = 0.0\nsamples = 1\nvalue = [0, 0, 2, 0, 0, 0, 0]"] ;
903 -> 904 ;
905 [label="chlorides <= 0.04\ngini = 0.5\nsamples = 4\nvalue = [0, 0, 0, 3, 3, 0, 0]"] ;
903 -> 905 ;
906 [label="gini = 0.0\nsamples = 1\nvalue = [0, 0, 0, 2, 0, 0, 0]"] ;
905 -> 906 ;
907 [label="free sulfur dioxide <= 22.0\ngini = 0.38\nsamples = 3\nvalue = [0, 0, 0, 1, 3, 0, 0]"] ;
905 -> 907 ;
908 [label="gini = 0.0\nsamples = 2\nvalue = [0, 0, 0, 0, 3, 0, 0]"] ;
907 -> 908 ;
909 [label="gini = 0.0\nsamples = 1\nvalue = [0, 0, 0, 1, 0, 0, 0]"] ;
907 -> 909 ;
910 [label="residual sugar <= 4.45\ngini = 0.49\nsamples = 9\nvalue = [0, 5, 7, 0, 0, 0, 0]"] ;
902 -> 910 ;
911 [label="free sulfur dioxide <= 23.5\ngini = 0.47\nsamples = 6\nvalue = [0, 5, 3, 0, 0, 0, 0]"] ;
910 -> 911 ;
912 [label="fixed acidity <= 8.25\ngini = 0.28\nsamples = 4\nvalue = [0, 5, 1, 0, 0, 0, 0]"] ;
911 -> 912 ;
913 [label="gini = 0.0\nsamples = 2\nvalue = [0, 4, 0, 0, 0, 0, 0]"] ;
912 -> 913 ;
914 [label="sulphates <= 0.64\ngini = 0.5\nsamples = 2\nvalue = [0, 1, 1, 0, 0, 0, 0]"] ;
912 -> 914 ;
915 [label="gini = 0.0\nsamples = 1\nvalue = [0, 0, 1, 0, 0, 0, 0]"] ;
914 -> 915 ;
916 [label="gini = 0.0\nsamples = 1\nvalue = [0, 1, 0, 0, 0, 0, 0]"] ;
914 -> 916 ;
917 [label="gini = 0.0\nsamples = 2\nvalue = [0, 0, 2, 0, 0, 0, 0]"] ;
911 -> 917 ;
918 [label="gini = 0.0\nsamples = 3\nvalue = [0, 0, 4, 0, 0, 0, 0]"] ;
910 -> 918 ;
919 [label="pH <= 3.06\ngini = 0.12\nsamples = 23\nvalue = [0, 0, 2, 29, 0, 0, 0]"] ;
885 -> 919 ;
920 [label="citric acid <= 0.38\ngini = 0.5\nsamples = 3\nvalue = [0, 0, 2, 2, 0, 0, 0]"] ;
919 -> 920 ;
921 [label="gini = 0.0\nsamples = 1\nvalue = [0, 0, 2, 0, 0, 0, 0]"] ;
920 -> 921 ;
922 [label="gini = 0.0\nsamples = 2\nvalue = [0, 0, 0, 2, 0, 0, 0]"] ;
920 -> 922 ;
923 [label="gini = 0.0\nsamples = 20\nvalue = [0, 0, 0, 27, 0, 0, 0]"] ;
919 -> 923 ;
924 [label="residual sugar <= 6.85\ngini = 0.58\nsamples = 65\nvalue = [0, 0, 11, 52, 46, 0, 0]"] ;
884 -> 924 ;
925 [label="citric acid <= 0.36\ngini = 0.57\nsamples = 44\nvalue = [0, 0, 8, 28, 41, 0, 0]"] ;
924 -> 925 ;
926 [label="volatile acidity <= 0.29\ngini = 0.51\nsamples = 35\nvalue = [0, 0, 6, 16, 40, 0, 0]"] ;
925 -> 926 ;
927 [label="volatile acidity <= 0.15\ngini = 0.44\nsamples = 32\nvalue = [0, 0, 5, 11, 40, 0, 0]"] ;
926 -> 927 ;
928 [label="gini = 0.0\nsamples = 1\nvalue = [0, 0, 0, 3, 0, 0, 0]"] ;
927 -> 928 ;
929 [label="citric acid <= 0.24\ngini = 0.4\nsamples = 31\nvalue = [0, 0, 5, 8, 40, 0, 0]"] ;
927 -> 929 ;
930 [label="sulphates <= 0.63\ngini = 0.48\nsamples = 3\nvalue = [0, 0, 3, 2, 0, 0, 0]"] ;
929 -> 930 ;
931 [label="gini = 0.0\nsamples = 2\nvalue = [0, 0, 3, 0, 0, 0, 0]"] ;
930 -> 931 ;
932 [label="gini = 0.0\nsamples = 1\nvalue = [0, 0, 0, 2, 0, 0, 0]"] ;
930 -> 932 ;
933 [label="density <= 0.99\ngini = 0.29\nsamples = 28\nvalue = [0, 0, 2, 6, 40, 0, 0]"] ;
929 -> 933 ;
934 [label="total sulfur dioxide <= 145.0\ngini = 0.48\nsamples = 4\nvalue = [0, 0, 2, 3, 0, 0, 0]"] ;
933 -> 934 ;
935 [label="gini = 0.0\nsamples = 2\nvalue = [0, 0, 0, 3, 0, 0, 0]"] ;
934 -> 935 ;
936 [label="gini = 0.0\nsamples = 2\nvalue = [0, 0, 2, 0, 0, 0, 0]"] ;
934 -> 936 ;
937 [label="density <= 1.0\ngini = 0.13\nsamples = 24\nvalue = [0, 0, 0, 3, 40, 0, 0]"] ;
933 -> 937 ;
938 [label="pH <= 3.62\ngini = 0.09\nsamples = 23\nvalue = [0, 0, 0, 2, 40, 0, 0]"] ;
937 -> 938 ;
939 [label="fixed acidity <= 7.55\ngini = 0.05\nsamples = 22\nvalue = [0, 0, 0, 1, 40, 0, 0]"] ;
938 -> 939 ;
940 [label="gini = 0.0\nsamples = 18\nvalue = [0, 0, 0, 0, 35, 0, 0]"] ;
939 -> 940 ;
941 [label="free sulfur dioxide <= 38.5\ngini = 0.28\nsamples = 4\nvalue = [0, 0, 0, 1, 5, 0, 0]"] ;
939 -> 941 ;
942 [label="gini = 0.0\nsamples = 3\nvalue = [0, 0, 0, 0, 5, 0, 0]"] ;
941 -> 942 ;
943 [label="gini = 0.0\nsamples = 1\nvalue = [0, 0, 0, 1, 0, 0, 0]"] ;
941 -> 943 ;
944 [label="gini = 0.0\nsamples = 1\nvalue = [0, 0, 0, 1, 0, 0, 0]"] ;
938 -> 944 ;
945 [label="gini = 0.0\nsamples = 1\nvalue = [0, 0, 0, 1, 0, 0, 0]"] ;
937 -> 945 ;
946 [label="alcohol <= 10.35\ngini = 0.28\nsamples = 3\nvalue = [0, 0, 1, 5, 0, 0, 0]"] ;
926 -> 946 ;
947 [label="free sulfur dioxide <= 31.5\ngini = 0.5\nsamples = 2\nvalue = [0, 0, 1, 1, 0, 0, 0]"] ;
946 -> 947 ;
948 [label="gini = 0.0\nsamples = 1\nvalue = [0, 0, 0, 1, 0, 0, 0]"] ;
947 -> 948 ;
949 [label="gini = 0.0\nsamples = 1\nvalue = [0, 0, 1, 0, 0, 0, 0]"] ;
947 -> 949 ;
950 [label="gini = 0.0\nsamples = 1\nvalue = [0, 0, 0, 4, 0, 0, 0]"] ;
946 -> 950 ;
951 [label="free sulfur dioxide <= 31.5\ngini = 0.34\nsamples = 9\nvalue = [0, 0, 2, 12, 1, 0, 0]"] ;
925 -> 951 ;
952 [label="gini = 0.0\nsamples = 1\nvalue = [0, 0, 2, 0, 0, 0, 0]"] ;
951 -> 952 ;
953 [label="residual sugar <= 1.45\ngini = 0.14\nsamples = 8\nvalue = [0, 0, 0, 12, 1, 0, 0]"] ;
951 -> 953 ;
954 [label="density <= 0.99\ngini = 0.5\nsamples = 2\nvalue = [0, 0, 0, 1, 1, 0, 0]"] ;
953 -> 954 ;
955 [label="gini = 0.0\nsamples = 1\nvalue = [0, 0, 0, 1, 0, 0, 0]"] ;
954 -> 955 ;
956 [label="gini = 0.0\nsamples = 1\nvalue = [0, 0, 0, 0, 1, 0, 0]"] ;
954 -> 956 ;
957 [label="gini = 0.0\nsamples = 6\nvalue = [0, 0, 0, 11, 0, 0, 0]"] ;
953 -> 957 ;
958 [label="fixed acidity <= 7.85\ngini = 0.4\nsamples = 21\nvalue = [0, 0, 3, 24, 5, 0, 0]"] ;
924 -> 958 ;
959 [label="citric acid <= 0.41\ngini = 0.14\nsamples = 18\nvalue = [0, 0, 0, 24, 2, 0, 0]"] ;
958 -> 959 ;
960 [label="gini = 0.0\nsamples = 14\nvalue = [0, 0, 0, 20, 0, 0, 0]"] ;
959 -> 960 ;
961 [label="density <= 1.0\ngini = 0.44\nsamples = 4\nvalue = [0, 0, 0, 4, 2, 0, 0]"] ;
959 -> 961 ;
962 [label="gini = 0.0\nsamples = 2\nvalue = [0, 0, 0, 4, 0, 0, 0]"] ;
961 -> 962 ;
963 [label="gini = 0.0\nsamples = 2\nvalue = [0, 0, 0, 0, 2, 0, 0]"] ;
961 -> 963 ;
964 [label="pH <= 3.13\ngini = 0.5\nsamples = 3\nvalue = [0, 0, 3, 0, 3, 0, 0]"] ;
958 -> 964 ;
965 [label="gini = 0.0\nsamples = 1\nvalue = [0, 0, 0, 0, 3, 0, 0]"] ;
964 -> 965 ;
966 [label="gini = 0.0\nsamples = 2\nvalue = [0, 0, 3, 0, 0, 0, 0]"] ;
964 -> 966 ;
967 [label="free sulfur dioxide <= 10.5\ngini = 0.66\nsamples = 815\nvalue = [5, 30, 119, 573, 476, 93, 5]"] ;
691 -> 967 ;
968 [label="residual sugar <= 9.05\ngini = 0.73\nsamples = 49\nvalue = [3, 20, 13, 28, 7, 2, 0]"] ;
967 -> 968 ;
969 [label="total sulfur dioxide <= 110.5\ngini = 0.76\nsamples = 45\nvalue = [3, 20, 13, 20, 7, 2, 0]"] ;
968 -> 969 ;
970 [label="citric acid <= 0.2\ngini = 0.74\nsamples = 35\nvalue = [3, 20, 10, 8, 6, 2, 0]"] ;
969 -> 970 ;
971 [label="gini = 0.0\nsamples = 6\nvalue = [0, 9, 0, 0, 0, 0, 0]"] ;
970 -> 971 ;
972 [label="sulphates <= 0.36\ngini = 0.79\nsamples = 29\nvalue = [3, 11, 10, 8, 6, 2, 0]"] ;
970 -> 972 ;
973 [label="gini = 0.0\nsamples = 5\nvalue = [0, 8, 0, 0, 0, 0, 0]"] ;
972 -> 973 ;
974 [label="chlorides <= 0.04\ngini = 0.78\nsamples = 24\nvalue = [3, 3, 10, 8, 6, 2, 0]"] ;
972 -> 974 ;
975 [label="density <= 0.99\ngini = 0.75\nsamples = 13\nvalue = [3, 2, 0, 7, 4, 2, 0]"] ;
974 -> 975 ;
976 [label="citric acid <= 0.25\ngini = 0.38\nsamples = 7\nvalue = [0, 0, 0, 6, 2, 0, 0]"] ;
975 -> 976 ;
977 [label="gini = 0.0\nsamples = 2\nvalue = [0, 0, 0, 0, 2, 0, 0]"] ;
976 -> 977 ;
978 [label="gini = 0.0\nsamples = 5\nvalue = [0, 0, 0, 6, 0, 0, 0]"] ;
976 -> 978 ;
979 [label="pH <= 3.29\ngini = 0.78\nsamples = 6\nvalue = [3, 2, 0, 1, 2, 2, 0]"] ;
975 -> 979 ;
980 [label="citric acid <= 0.26\ngini = 0.73\nsamples = 5\nvalue = [0, 2, 0, 1, 2, 2, 0]"] ;
979 -> 980 ;
981 [label="gini = 0.0\nsamples = 1\nvalue = [0, 2, 0, 0, 0, 0, 0]"] ;
980 -> 981 ;
982 [label="free sulfur dioxide <= 6.5\ngini = 0.64\nsamples = 4\nvalue = [0, 0, 0, 1, 2, 2, 0]"] ;
980 -> 982 ;
983 [label="gini = 0.0\nsamples = 1\nvalue = [0, 0, 0, 0, 0, 2, 0]"] ;
982 -> 983 ;
984 [label="residual sugar <= 3.65\ngini = 0.44\nsamples = 3\nvalue = [0, 0, 0, 1, 2, 0, 0]"] ;
982 -> 984 ;
985 [label="gini = 0.0\nsamples = 1\nvalue = [0, 0, 0, 1, 0, 0, 0]"] ;
984 -> 985 ;
986 [label="gini = 0.0\nsamples = 2\nvalue = [0, 0, 0, 0, 2, 0, 0]"] ;
984 -> 986 ;
987 [label="gini = 0.0\nsamples = 1\nvalue = [3, 0, 0, 0, 0, 0, 0]"] ;
979 -> 987 ;
988 [label="fixed acidity <= 5.45\ngini = 0.46\nsamples = 11\nvalue = [0, 1, 10, 1, 2, 0, 0]"] ;
974 -> 988 ;
989 [label="gini = 0.0\nsamples = 1\nvalue = [0, 0, 0, 1, 0, 0, 0]"] ;
988 -> 989 ;
990 [label="pH <= 3.07\ngini = 0.38\nsamples = 10\nvalue = [0, 1, 10, 0, 2, 0, 0]"] ;
988 -> 990 ;
991 [label="gini = 0.0\nsamples = 1\nvalue = [0, 1, 0, 0, 0, 0, 0]"] ;
990 -> 991 ;
992 [label="volatile acidity <= 0.32\ngini = 0.28\nsamples = 9\nvalue = [0, 0, 10, 0, 2, 0, 0]"] ;
990 -> 992 ;
993 [label="chlorides <= 0.05\ngini = 0.17\nsamples = 8\nvalue = [0, 0, 10, 0, 1, 0, 0]"] ;
992 -> 993 ;
994 [label="gini = 0.0\nsamples = 7\nvalue = [0, 0, 10, 0, 0, 0, 0]"] ;
993 -> 994 ;
995 [label="gini = 0.0\nsamples = 1\nvalue = [0, 0, 0, 0, 1, 0, 0]"] ;
993 -> 995 ;
996 [label="gini = 0.0\nsamples = 1\nvalue = [0, 0, 0, 0, 1, 0, 0]"] ;
992 -> 996 ;
997 [label="citric acid <= 0.39\ngini = 0.4\nsamples = 10\nvalue = [0, 0, 3, 12, 1, 0, 0]"] ;
969 -> 997 ;
998 [label="residual sugar <= 4.45\ngini = 0.61\nsamples = 6\nvalue = [0, 0, 3, 3, 1, 0, 0]"] ;
997 -> 998 ;
999 [label="gini = 0.0\nsamples = 2\nvalue = [0, 0, 0, 3, 0, 0, 0]"] ;
998 -> 999 ;
1000 [label="citric acid <= 0.36\ngini = 0.38\nsamples = 4\nvalue = [0, 0, 3, 0, 1, 0, 0]"] ;
998 -> 1000 ;
1001 [label="gini = 0.0\nsamples = 3\nvalue = [0, 0, 3, 0, 0, 0, 0]"] ;
1000 -> 1001 ;
1002 [label="gini = 0.0\nsamples = 1\nvalue = [0, 0, 0, 0, 1, 0, 0]"] ;
1000 -> 1002 ;
1003 [label="gini = 0.0\nsamples = 4\nvalue = [0, 0, 0, 9, 0, 0, 0]"] ;
997 -> 1003 ;
1004 [label="gini = 0.0\nsamples = 4\nvalue = [0, 0, 0, 8, 0, 0, 0]"] ;
968 -> 1004 ;
1005 [label="pH <= 3.06\ngini = 0.64\nsamples = 766\nvalue = [2, 10, 106, 545, 469, 91, 5]"] ;
967 -> 1005 ;
1006 [label="citric acid <= 0.23\ngini = 0.59\nsamples = 143\nvalue = [0, 1, 35, 139, 63, 8, 0]"] ;
1005 -> 1006 ;
1007 [label="free sulfur dioxide <= 38.0\ngini = 0.38\nsamples = 4\nvalue = [0, 0, 6, 2, 0, 0, 0]"] ;
1006 -> 1007 ;
1008 [label="chlorides <= 0.03\ngini = 0.44\nsamples = 3\nvalue = [0, 0, 1, 2, 0, 0, 0]"] ;
1007 -> 1008 ;
1009 [label="gini = 0.0\nsamples = 1\nvalue = [0, 0, 1, 0, 0, 0, 0]"] ;
1008 -> 1009 ;
1010 [label="gini = 0.0\nsamples = 2\nvalue = [0, 0, 0, 2, 0, 0, 0]"] ;
1008 -> 1010 ;
1011 [label="gini = 0.0\nsamples = 1\nvalue = [0, 0, 5, 0, 0, 0, 0]"] ;
1007 -> 1011 ;
1012 [label="residual sugar <= 1.45\ngini = 0.58\nsamples = 139\nvalue = [0, 1, 29, 137, 63, 8, 0]"] ;
1006 -> 1012 ;
1013 [label="volatile acidity <= 0.29\ngini = 0.37\nsamples = 32\nvalue = [0, 0, 9, 42, 1, 2, 0]"] ;
1012 -> 1013 ;
1014 [label="citric acid <= 0.39\ngini = 0.28\nsamples = 29\nvalue = [0, 0, 6, 42, 1, 1, 0]"] ;
1013 -> 1014 ;
1015 [label="density <= 0.99\ngini = 0.17\nsamples = 24\nvalue = [0, 0, 2, 40, 1, 1, 0]"] ;
1014 -> 1015 ;
1016 [label="pH <= 3.0\ngini = 0.13\nsamples = 23\nvalue = [0, 0, 1, 40, 1, 1, 0]"] ;
1015 -> 1016 ;
1017 [label="pH <= 2.99\ngini = 0.37\nsamples = 8\nvalue = [0, 0, 1, 11, 1, 1, 0]"] ;
1016 -> 1017 ;
1018 [label="total sulfur dioxide <= 83.0\ngini = 0.27\nsamples = 7\nvalue = [0, 0, 0, 11, 1, 1, 0]"] ;
1017 -> 1018 ;
1019 [label="gini = 0.0\nsamples = 1\nvalue = [0, 0, 0, 0, 1, 0, 0]"] ;
1018 -> 1019 ;
1020 [label="volatile acidity <= 0.16\ngini = 0.15\nsamples = 6\nvalue = [0, 0, 0, 11, 0, 1, 0]"] ;
1018 -> 1020 ;
1021 [label="volatile acidity <= 0.12\ngini = 0.38\nsamples = 2\nvalue = [0, 0, 0, 3, 0, 1, 0]"] ;
1020 -> 1021 ;
1022 [label="gini = 0.0\nsamples = 1\nvalue = [0, 0, 0, 3, 0, 0, 0]"] ;
1021 -> 1022 ;
1023 [label="gini = 0.0\nsamples = 1\nvalue = [0, 0, 0, 0, 0, 1, 0]"] ;
1021 -> 1023 ;
1024 [label="gini = 0.0\nsamples = 4\nvalue = [0, 0, 0, 8, 0, 0, 0]"] ;
1020 -> 1024 ;
1025 [label="gini = 0.0\nsamples = 1\nvalue = [0, 0, 1, 0, 0, 0, 0]"] ;
1017 -> 1025 ;
1026 [label="gini = 0.0\nsamples = 15\nvalue = [0, 0, 0, 29, 0, 0, 0]"] ;
1016 -> 1026 ;
1027 [label="gini = 0.0\nsamples = 1\nvalue = [0, 0, 1, 0, 0, 0, 0]"] ;
1015 -> 1027 ;
1028 [label="chlorides <= 0.04\ngini = 0.44\nsamples = 5\nvalue = [0, 0, 4, 2, 0, 0, 0]"] ;
1014 -> 1028 ;
1029 [label="gini = 0.0\nsamples = 1\nvalue = [0, 0, 0, 1, 0, 0, 0]"] ;
1028 -> 1029 ;
1030 [label="fixed acidity <= 7.95\ngini = 0.32\nsamples = 4\nvalue = [0, 0, 4, 1, 0, 0, 0]"] ;
1028 -> 1030 ;
1031 [label="gini = 0.0\nsamples = 3\nvalue = [0, 0, 4, 0, 0, 0, 0]"] ;
1030 -> 1031 ;
1032 [label="gini = 0.0\nsamples = 1\nvalue = [0, 0, 0, 1, 0, 0, 0]"] ;
1030 -> 1032 ;
1033 [label="fixed acidity <= 8.3\ngini = 0.38\nsamples = 3\nvalue = [0, 0, 3, 0, 0, 1, 0]"] ;
1013 -> 1033 ;
1034 [label="gini = 0.0\nsamples = 1\nvalue = [0, 0, 0, 0, 0, 1, 0]"] ;
1033 -> 1034 ;
1035 [label="gini = 0.0\nsamples = 2\nvalue = [0, 0, 3, 0, 0, 0, 0]"] ;
1033 -> 1035 ;
1036 [label="volatile acidity <= 0.12\ngini = 0.61\nsamples = 107\nvalue = [0, 1, 20, 95, 62, 6, 0]"] ;
1012 -> 1036 ;
1037 [label="gini = 0.0\nsamples = 1\nvalue = [0, 0, 0, 0, 4, 0, 0]"] ;
1036 -> 1037 ;
1038 [label="sulphates <= 0.33\ngini = 0.6\nsamples = 106\nvalue = [0, 1, 20, 95, 58, 6, 0]"] ;
1036 -> 1038 ;
