digraph Tree {
node [shape=box, style="rounded", color="black", fontname=helvetica] ;
edge [fontname=helvetica] ;
0 [label="density <= 0.99\ngini = 0.67\nsamples = 2457\nvalue = [12, 128, 1155, 1782, 704, 132, 4]"] ;
1 [label="alcohol <= 11.48\ngini = 0.66\nsamples = 1000\nvalue = [7, 47, 204, 776, 467, 95, 4]"] ;
0 -> 1 [labeldistance=2.5, labelangle=45, headlabel="True"] ;
2 [label="residual sugar <= 1.05\ngini = 0.64\nsamples = 479\nvalue = [2, 28, 172, 391, 151, 15, 0]"] ;
1 -> 2 ;
3 [label="fixed acidity <= 7.95\ngini = 0.62\nsamples = 48\nvalue = [1, 13, 37, 15, 2, 0, 0]"] ;
2 -> 3 ;
4 [label="sulphates <= 0.41\ngini = 0.59\nsamples = 43\nvalue = [1, 12, 37, 11, 2, 0, 0]"] ;
3 -> 4 ;
5 [label="volatile acidity <= 0.48\ngini = 0.52\nsamples = 21\nvalue = [0, 12, 21, 2, 0, 0, 0]"] ;
4 -> 5 ;
6 [label="chlorides <= 0.04\ngini = 0.38\nsamples = 16\nvalue = [0, 4, 20, 2, 0, 0, 0]"] ;
5 -> 6 ;
7 [label="free sulfur dioxide <= 4.0\ngini = 0.18\nsamples = 13\nvalue = [0, 1, 19, 1, 0, 0, 0]"] ;
6 -> 7 ;
8 [label="gini = 0.0\nsamples = 1\nvalue = [0, 1, 0, 0, 0, 0, 0]"] ;
7 -> 8 ;
9 [label="volatile acidity <= 0.16\ngini = 0.09\nsamples = 12\nvalue = [0, 0, 19, 1, 0, 0, 0]"] ;
7 -> 9 ;
10 [label="gini = 0.0\nsamples = 1\nvalue = [0, 0, 0, 1, 0, 0, 0]"] ;
9 -> 10 ;
11 [label="gini = 0.0\nsamples = 11\nvalue = [0, 0, 19, 0, 0, 0, 0]"] ;
9 -> 11 ;
12 [label="pH <= 3.15\ngini = 0.56\nsamples = 3\nvalue = [0, 3, 1, 1, 0, 0, 0]"] ;
6 -> 12 ;
13 [label="sulphates <= 0.36\ngini = 0.38\nsamples = 2\nvalue = [0, 3, 1, 0, 0, 0, 0]"] ;
12 -> 13 ;
14 [label="gini = 0.0\nsamples = 1\nvalue = [0, 3, 0, 0, 0, 0, 0]"] ;
13 -> 14 ;
15 [label="gini = 0.0\nsamples = 1\nvalue = [0, 0, 1, 0, 0, 0, 0]"] ;
13 -> 15 ;
16 [label="gini = 0.0\nsamples = 1\nvalue = [0, 0, 0, 1, 0, 0, 0]"] ;
12 -> 16 ;
17 [label="chlorides <= 0.03\ngini = 0.2\nsamples = 5\nvalue = [0, 8, 1, 0, 0, 0, 0]"] ;
5 -> 17 ;
18 [label="density <= 0.99\ngini = 0.5\nsamples = 2\nvalue = [0, 1, 1, 0, 0, 0, 0]"] ;
17 -> 18 ;
19 [label="gini = 0.0\nsamples = 1\nvalue = [0, 1, 0, 0, 0, 0, 0]"] ;
18 -> 19 ;
20 [label="gini = 0.0\nsamples = 1\nvalue = [0, 0, 1, 0, 0, 0, 0]"] ;
18 -> 20 ;
21 [label="gini = 0.0\nsamples = 3\nvalue = [0, 7, 0, 0, 0, 0, 0]"] ;
17 -> 21 ;
22 [label="volatile acidity <= 0.26\ngini = 0.56\nsamples = 22\nvalue = [1, 0, 16, 9, 2, 0, 0]"] ;
4 -> 22 ;
23 [label="alcohol <= 9.85\ngini = 0.63\nsamples = 15\nvalue = [1, 0, 7, 9, 2, 0, 0]"] ;
22 -> 23 ;
24 [label="residual sugar <= 0.9\ngini = 0.22\nsamples = 4\nvalue = [0, 0, 7, 1, 0, 0, 0]"] ;
23 -> 24 ;
25 [label="gini = 0.0\nsamples = 2\nvalue = [0, 0, 5, 0, 0, 0, 0]"] ;
24 -> 25 ;
26 [label="total sulfur dioxide <= 118.5\ngini = 0.44\nsamples = 2\nvalue = [0, 0, 2, 1, 0, 0, 0]"] ;
24 -> 26 ;
27 [label="gini = 0.0\nsamples = 1\nvalue = [0, 0, 0, 1, 0, 0, 0]"] ;
26 -> 27 ;
28 [label="gini = 0.0\nsamples = 1\nvalue = [0, 0, 2, 0, 0, 0, 0]"] ;
26 -> 28 ;
29 [label="density <= 0.99\ngini = 0.43\nsamples = 11\nvalue = [1, 0, 0, 8, 2, 0, 0]"] ;
23 -> 29 ;
30 [label="chlorides <= 0.05\ngini = 0.34\nsamples = 10\nvalue = [1, 0, 0, 8, 1, 0, 0]"] ;
29 -> 30 ;
31 [label="volatile acidity <= 0.18\ngini = 0.22\nsamples = 8\nvalue = [0, 0, 0, 7, 1, 0, 0]"] ;
30 -> 31 ;
32 [label="citric acid <= 0.28\ngini = 0.38\nsamples = 4\nvalue = [0, 0, 0, 3, 1, 0, 0]"] ;
31 -> 32 ;
33 [label="gini = 0.0\nsamples = 1\nvalue = [0, 0, 0, 0, 1, 0, 0]"] ;
32 -> 33 ;
34 [label="gini = 0.0\nsamples = 3\nvalue = [0, 0, 0, 3, 0, 0, 0]"] ;
32 -> 34 ;
35 [label="gini = 0.0\nsamples = 4\nvalue = [0, 0, 0, 4, 0, 0, 0]"] ;
31 -> 35 ;
36 [label="pH <= 3.34\ngini = 0.5\nsamples = 2\nvalue = [1, 0, 0, 1, 0, 0, 0]"] ;
30 -> 36 ;
37 [label="gini = 0.0\nsamples = 1\nvalue = [0, 0, 0, 1, 0, 0, 0]"] ;
36 -> 37 ;
38 [label="gini = 0.0\nsamples = 1\nvalue = [1, 0, 0, 0, 0, 0, 0]"] ;
36 -> 38 ;
39 [label="gini = 0.0\nsamples = 1\nvalue = [0, 0, 0, 0, 1, 0, 0]"] ;
29 -> 39 ;
40 [label="gini = 0.0\nsamples = 7\nvalue = [0, 0, 9, 0, 0, 0, 0]"] ;
22 -> 40 ;
41 [label="free sulfur dioxide <= 16.0\ngini = 0.32\nsamples = 5\nvalue = [0, 1, 0, 4, 0, 0, 0]"] ;
3 -> 41 ;
42 [label="total sulfur dioxide <= 67.0\ngini = 0.5\nsamples = 2\nvalue = [0, 1, 0, 1, 0, 0, 0]"] ;
41 -> 42 ;
43 [label="gini = 0.0\nsamples = 1\nvalue = [0, 1, 0, 0, 0, 0, 0]"] ;
42 -> 43 ;
44 [label="gini = 0.0\nsamples = 1\nvalue = [0, 0, 0, 1, 0, 0, 0]"] ;
42 -> 44 ;
45 [label="gini = 0.0\nsamples = 3\nvalue = [0, 0, 0, 3, 0, 0, 0]"] ;
41 -> 45 ;
46 [label="citric acid <= 0.15\ngini = 0.62\nsamples = 431\nvalue = [1, 15, 135, 376, 149, 15, 0]"] ;
2 -> 46 ;
47 [label="citric acid <= 0.05\ngini = 0.56\nsamples = 22\nvalue = [0, 3, 23, 11, 2, 0, 0]"] ;
46 -> 47 ;
48 [label="free sulfur dioxide <= 27.5\ngini = 0.53\nsamples = 5\nvalue = [0, 2, 2, 7, 0, 0, 0]"] ;
47 -> 48 ;
49 [label="gini = 0.0\nsamples = 1\nvalue = [0, 2, 0, 0, 0, 0, 0]"] ;
48 -> 49 ;
50 [label="fixed acidity <= 5.95\ngini = 0.35\nsamples = 4\nvalue = [0, 0, 2, 7, 0, 0, 0]"] ;
48 -> 50 ;
51 [label="gini = 0.0\nsamples = 1\nvalue = [0, 0, 2, 0, 0, 0, 0]"] ;
50 -> 51 ;
52 [label="gini = 0.0\nsamples = 3\nvalue = [0, 0, 0, 7, 0, 0, 0]"] ;
50 -> 52 ;
53 [label="total sulfur dioxide <= 80.0\ngini = 0.41\nsamples = 17\nvalue = [0, 1, 21, 4, 2, 0, 0]"] ;
47 -> 53 ;
54 [label="density <= 0.99\ngini = 0.62\nsamples = 4\nvalue = [0, 1, 1, 0, 2, 0, 0]"] ;
53 -> 54 ;
55 [label="gini = 0.0\nsamples = 2\nvalue = [0, 0, 0, 0, 2, 0, 0]"] ;
54 -> 55 ;
56 [label="pH <= 3.36\ngini = 0.5\nsamples = 2\nvalue = [0, 1, 1, 0, 0, 0, 0]"] ;
54 -> 56 ;
57 [label="gini = 0.0\nsamples = 1\nvalue = [0, 0, 1, 0, 0, 0, 0]"] ;
56 -> 57 ;
58 [label="gini = 0.0\nsamples = 1\nvalue = [0, 1, 0, 0, 0, 0, 0]"] ;
56 -> 58 ;
59 [label="density <= 0.99\ngini = 0.28\nsamples = 13\nvalue = [0, 0, 20, 4, 0, 0, 0]"] ;
53 -> 59 ;
60 [label="gini = 0.0\nsamples = 6\nvalue = [0, 0, 13, 0, 0, 0, 0]"] ;
59 -> 60 ;
61 [label="citric acid <= 0.11\ngini = 0.46\nsamples = 7\nvalue = [0, 0, 7, 4, 0, 0, 0]"] ;
59 -> 61 ;
62 [label="gini = 0.0\nsamples = 3\nvalue = [0, 0, 5, 0, 0, 0, 0]"] ;
61 -> 62 ;
63 [label="free sulfur dioxide <= 65.5\ngini = 0.44\nsamples = 4\nvalue = [0, 0, 2, 4, 0, 0, 0]"] ;
61 -> 63 ;
64 [label="gini = 0.0\nsamples = 2\nvalue = [0, 0, 0, 4, 0, 0, 0]"] ;
63 -> 64 ;
65 [label="gini = 0.0\nsamples = 2\nvalue = [0, 0, 2, 0, 0, 0, 0]"] ;
63 -> 65 ;
66 [label="sulphates <= 0.62\ngini = 0.61\nsamples = 409\nvalue = [1, 12, 112, 365, 147, 15, 0]"] ;
46 -> 66 ;
67 [label="fixed acidity <= 8.55\ngini = 0.59\nsamples = 359\nvalue = [1, 12, 102, 334, 113, 14, 0]"] ;
66 -> 67 ;
68 [label="alcohol <= 9.55\ngini = 0.58\nsamples = 352\nvalue = [1, 12, 99, 333, 105, 14, 0]"] ;
67 -> 68 ;
69 [label="sulphates <= 0.42\ngini = 0.42\nsamples = 5\nvalue = [0, 0, 7, 0, 3, 0, 0]"] ;
68 -> 69 ;
70 [label="gini = 0.0\nsamples = 2\nvalue = [0, 0, 0, 0, 3, 0, 0]"] ;
69 -> 70 ;
71 [label="gini = 0.0\nsamples = 3\nvalue = [0, 0, 7, 0, 0, 0, 0]"] ;
69 -> 71 ;
72 [label="chlorides <= 0.04\ngini = 0.58\nsamples = 347\nvalue = [1, 12, 92, 333, 102, 14, 0]"] ;
68 -> 72 ;
73 [label="pH <= 3.15\ngini = 0.61\nsamples = 169\nvalue = [0, 3, 40, 149, 73, 10, 0]"] ;
72 -> 73 ;
74 [label="citric acid <= 0.41\ngini = 0.47\nsamples = 54\nvalue = [0, 3, 11, 59, 11, 0, 0]"] ;
73 -> 74 ;
75 [label="fixed acidity <= 6.25\ngini = 0.33\nsamples = 44\nvalue = [0, 1, 5, 54, 7, 0, 0]"] ;
74 -> 75 ;
76 [label="fixed acidity <= 5.9\ngini = 0.67\nsamples = 4\nvalue = [0, 0, 2, 2, 2, 0, 0]"] ;
75 -> 76 ;
77 [label="gini = 0.0\nsamples = 2\nvalue = [0, 0, 0, 2, 0, 0, 0]"] ;
76 -> 77 ;
78 [label="density <= 0.99\ngini = 0.5\nsamples = 2\nvalue = [0, 0, 2, 0, 2, 0, 0]"] ;
76 -> 78 ;
79 [label="gini = 0.0\nsamples = 1\nvalue = [0, 0, 0, 0, 2, 0, 0]"] ;
78 -> 79 ;
80 [label="gini = 0.0\nsamples = 1\nvalue = [0, 0, 2, 0, 0, 0, 0]"] ;
78 -> 80 ;
81 [label="residual sugar <= 2.65\ngini = 0.26\nsamples = 40\nvalue = [0, 1, 3, 52, 5, 0, 0]"] ;
75 -> 81 ;
82 [label="fixed acidity <= 8.45\ngini = 0.36\nsamples = 29\nvalue = [0, 1, 3, 34, 5, 0, 0]"] ;
81 -> 82 ;
83 [label="residual sugar <= 2.47\ngini = 0.3\nsamples = 27\nvalue = [0, 0, 3, 34, 4, 0, 0]"] ;
82 -> 83 ;
84 [label="citric acid <= 0.28\ngini = 0.23\nsamples = 25\nvalue = [0, 0, 3, 34, 2, 0, 0]"] ;
83 -> 84 ;
85 [label="sulphates <= 0.45\ngini = 0.44\nsamples = 3\nvalue = [0, 0, 1, 2, 0, 0, 0]"] ;
84 -> 85 ;
86 [label="gini = 0.0\nsamples = 2\nvalue = [0, 0, 0, 2, 0, 0, 0]"] ;
85 -> 86 ;
87 [label="gini = 0.0\nsamples = 1\nvalue = [0, 0, 1, 0, 0, 0, 0]"] ;
85 -> 87 ;
88 [label="chlorides <= 0.03\ngini = 0.2\nsamples = 22\nvalue = [0, 0, 2, 32, 2, 0, 0]"] ;
84 -> 88 ;
89 [label="residual sugar <= 1.3\ngini = 0.47\nsamples = 11\nvalue = [0, 0, 2, 9, 2, 0, 0]"] ;
88 -> 89 ;
90 [label="gini = 0.0\nsamples = 4\nvalue = [0, 0, 0, 6, 0, 0, 0]"] ;
89 -> 90 ;
91 [label="volatile acidity <= 0.18\ngini = 0.65\nsamples = 7\nvalue = [0, 0, 2, 3, 2, 0, 0]"] ;
89 -> 91 ;
92 [label="gini = 0.0\nsamples = 1\nvalue = [0, 0, 0, 0, 1, 0, 0]"] ;
91 -> 92 ;
93 [label="pH <= 3.12\ngini = 0.61\nsamples = 6\nvalue = [0, 0, 2, 3, 1, 0, 0]"] ;
91 -> 93 ;
94 [label="citric acid <= 0.31\ngini = 0.48\nsamples = 5\nvalue = [0, 0, 2, 3, 0, 0, 0]"] ;
93 -> 94 ;
95 [label="gini = 0.0\nsamples = 2\nvalue = [0, 0, 0, 2, 0, 0, 0]"] ;
94 -> 95 ;
96 [label="free sulfur dioxide <= 24.5\ngini = 0.44\nsamples = 3\nvalue = [0, 0, 2, 1, 0, 0, 0]"] ;
94 -> 96 ;
97 [label="gini = 0.0\nsamples = 1\nvalue = [0, 0, 0, 1, 0, 0, 0]"] ;
96 -> 97 ;
98 [label="gini = 0.0\nsamples = 2\nvalue = [0, 0, 2, 0, 0, 0, 0]"] ;
96 -> 98 ;
99 [label="gini = 0.0\nsamples = 1\nvalue = [0, 0, 0, 0, 1, 0, 0]"] ;
93 -> 99 ;
100 [label="gini = 0.0\nsamples = 11\nvalue = [0, 0, 0, 23, 0, 0, 0]"] ;
88 -> 100 ;
101 [label="gini = 0.0\nsamples = 2\nvalue = [0, 0, 0, 0, 2, 0, 0]"] ;
83 -> 101 ;
102 [label="citric acid <= 0.32\ngini = 0.5\nsamples = 2\nvalue = [0, 1, 0, 0, 1, 0, 0]"] ;
82 -> 102 ;
103 [label="gini = 0.0\nsamples = 1\nvalue = [0, 1, 0, 0, 0, 0, 0]"] ;
102 -> 103 ;
104 [label="gini = 0.0\nsamples = 1\nvalue = [0, 0, 0, 0, 1, 0, 0]"] ;
102 -> 104 ;
105 [label="gini = 0.0\nsamples = 11\nvalue = [0, 0, 0, 18, 0, 0, 0]"] ;
81 -> 105 ;
106 [label="fixed acidity <= 6.7\ngini = 0.72\nsamples = 10\nvalue = [0, 2, 6, 5, 4, 0, 0]"] ;
74 -> 106 ;
107 [label="gini = 0.0\nsamples = 1\nvalue = [0, 0, 0, 3, 0, 0, 0]"] ;
106 -> 107 ;
108 [label="pH <= 2.98\ngini = 0.69\nsamples = 9\nvalue = [0, 2, 6, 2, 4, 0, 0]"] ;
106 -> 108 ;
109 [label="pH <= 2.91\ngini = 0.5\nsamples = 3\nvalue = [0, 2, 0, 2, 0, 0, 0]"] ;
108 -> 109 ;
110 [label="gini = 0.0\nsamples = 2\nvalue = [0, 0, 0, 2, 0, 0, 0]"] ;
109 -> 110 ;
111 [label="gini = 0.0\nsamples = 1\nvalue = [0, 2, 0, 0, 0, 0, 0]"] ;
109 -> 111 ;
112 [label="pH <= 3.08\ngini = 0.48\nsamples = 6\nvalue = [0, 0, 6, 0, 4, 0, 0]"] ;
108 -> 112 ;
113 [label="citric acid <= 0.5\ngini = 0.44\nsamples = 4\nvalue = [0, 0, 2, 0, 4, 0, 0]"] ;
112 -> 113 ;
114 [label="gini = 0.0\nsamples = 2\nvalue = [0, 0, 0, 0, 4, 0, 0]"] ;
113 -> 114 ;
115 [label="gini = 0.0\nsamples = 2\nvalue = [0, 0, 2, 0, 0, 0, 0]"] ;
113 -> 115 ;
116 [label="gini = 0.0\nsamples = 2\nvalue = [0, 0, 4, 0, 0, 0, 0]"] ;
112 -> 116 ;
117 [label="volatile acidity <= 0.18\ngini = 0.65\nsamples = 115\nvalue = [0, 0, 29, 90, 62, 10, 0]"] ;
73 -> 117 ;
118 [label="volatile acidity <= 0.13\ngini = 0.65\nsamples = 22\nvalue = [0, 0, 16, 9, 11, 0, 0]"] ;
117 -> 118 ;
119 [label="gini = 0.0\nsamples = 4\nvalue = [0, 0, 0, 0, 4, 0, 0]"] ;
118 -> 119 ;
120 [label="density <= 0.99\ngini = 0.62\nsamples = 18\nvalue = [0, 0, 16, 9, 7, 0, 0]"] ;
118 -> 120 ;
121 [label="chlorides <= 0.03\ngini = 0.59\nsamples = 16\nvalue = [0, 0, 16, 6, 7, 0, 0]"] ;
120 -> 121 ;
122 [label="gini = 0.0\nsamples = 2\nvalue = [0, 0, 0, 0, 2, 0, 0]"] ;
121 -> 122 ;
123 [label="fixed acidity <= 6.35\ngini = 0.57\nsamples = 14\nvalue = [0, 0, 16, 6, 5, 0, 0]"] ;
121 -> 123 ;
124 [label="density <= 0.99\ngini = 0.32\nsamples = 8\nvalue = [0, 0, 16, 4, 0, 0, 0]"] ;
123 -> 124 ;
125 [label="gini = 0.0\nsamples = 1\nvalue = [0, 0, 0, 2, 0, 0, 0]"] ;
124 -> 125 ;
126 [label="alcohol <= 10.6\ngini = 0.2\nsamples = 7\nvalue = [0, 0, 16, 2, 0, 0, 0]"] ;
124 -> 126 ;
127 [label="citric acid <= 0.27\ngini = 0.44\nsamples = 3\nvalue = [0, 0, 4, 2, 0, 0, 0]"] ;
126 -> 127 ;
128 [label="gini = 0.0\nsamples = 2\nvalue = [0, 0, 4, 0, 0, 0, 0]"] ;
127 -> 128 ;
129 [label="gini = 0.0\nsamples = 1\nvalue = [0, 0, 0, 2, 0, 0, 0]"] ;
127 -> 129 ;
130 [label="gini = 0.0\nsamples = 4\nvalue = [0, 0, 12, 0, 0, 0, 0]"] ;
126 -> 130 ;
131 [label="citric acid <= 0.45\ngini = 0.41\nsamples = 6\nvalue = [0, 0, 0, 2, 5, 0, 0]"] ;
123 -> 131 ;
132 [label="volatile acidity <= 0.16\ngini = 0.28\nsamples = 5\nvalue = [0, 0, 0, 1, 5, 0, 0]"] ;
131 -> 132 ;
133 [label="residual sugar <= 1.95\ngini = 0.5\nsamples = 2\nvalue = [0, 0, 0, 1, 1, 0, 0]"] ;
132 -> 133 ;
134 [label="gini = 0.0\nsamples = 1\nvalue = [0, 0, 0, 1, 0, 0, 0]"] ;
133 -> 134 ;
135 [label="gini = 0.0\nsamples = 1\nvalue = [0, 0, 0, 0, 1, 0, 0]"] ;
133 -> 135 ;
136 [label="gini = 0.0\nsamples = 3\nvalue = [0, 0, 0, 0, 4, 0, 0]"] ;
132 -> 136 ;
137 [label="gini = 0.0\nsamples = 1\nvalue = [0, 0, 0, 1, 0, 0, 0]"] ;
131 -> 137 ;
138 [label="gini = 0.0\nsamples = 2\nvalue = [0, 0, 0, 3, 0, 0, 0]"] ;
120 -> 138 ;
139 [label="sulphates <= 0.44\ngini = 0.61\nsamples = 93\nvalue = [0, 0, 13, 81, 51, 10, 0]"] ;
117 -> 139 ;
140 [label="chlorides <= 0.02\ngini = 0.62\nsamples = 41\nvalue = [0, 0, 3, 29, 32, 7, 0]"] ;
139 -> 140 ;
141 [label="gini = 0.0\nsamples = 3\nvalue = [0, 0, 0, 0, 8, 0, 0]"] ;
140 -> 141 ;
142 [label="density <= 0.99\ngini = 0.63\nsamples = 38\nvalue = [0, 0, 3, 29, 24, 7, 0]"] ;
140 -> 142 ;
143 [label="pH <= 3.29\ngini = 0.46\nsamples = 11\nvalue = [0, 0, 0, 5, 13, 1, 0]"] ;
142 -> 143 ;
144 [label="gini = 0.0\nsamples = 5\nvalue = [0, 0, 0, 0, 10, 0, 0]"] ;
143 -> 144 ;
145 [label="free sulfur dioxide <= 16.0\ngini = 0.57\nsamples = 6\nvalue = [0, 0, 0, 5, 3, 1, 0]"] ;
143 -> 145 ;
146 [label="gini = 0.0\nsamples = 2\nvalue = [0, 0, 0, 3, 0, 0, 0]"] ;
145 -> 146 ;
147 [label="pH <= 3.43\ngini = 0.61\nsamples = 4\nvalue = [0, 0, 0, 2, 3, 1, 0]"] ;
145 -> 147 ;
148 [label="gini = 0.0\nsamples = 2\nvalue = [0, 0, 0, 0, 3, 0, 0]"] ;
147 -> 148 ;
149 [label="total sulfur dioxide <= 100.5\ngini = 0.44\nsamples = 2\nvalue = [0, 0, 0, 2, 0, 1, 0]"] ;
147 -> 149 ;
150 [label="gini = 0.0\nsamples = 1\nvalue = [0, 0, 0, 0, 0, 1, 0]"] ;
149 -> 150 ;
151 [label="gini = 0.0\nsamples = 1\nvalue = [0, 0, 0, 2, 0, 0, 0]"] ;
149 -> 151 ;
152 [label="alcohol <= 10.9\ngini = 0.62\nsamples = 27\nvalue = [0, 0, 3, 24, 11, 6, 0]"] ;
142 -> 152 ;
153 [label="volatile acidity <= 0.2\ngini = 0.4\nsamples = 8\nvalue = [0, 0, 3, 8, 0, 0, 0]"] ;
152 -> 153 ;
154 [label="gini = 0.0\nsamples = 1\nvalue = [0, 0, 1, 0, 0, 0, 0]"] ;
153 -> 154 ;
155 [label="free sulfur dioxide <= 15.0\ngini = 0.32\nsamples = 7\nvalue = [0, 0, 2, 8, 0, 0, 0]"] ;
153 -> 155 ;
156 [label="gini = 0.0\nsamples = 1\nvalue = [0, 0, 1, 0, 0, 0, 0]"] ;
155 -> 156 ;
157 [label="density <= 0.99\ngini = 0.2\nsamples = 6\nvalue = [0, 0, 1, 8, 0, 0, 0]"] ;
155 -> 157 ;
158 [label="volatile acidity <= 0.23\ngini = 0.44\nsamples = 3\nvalue = [0, 0, 1, 2, 0, 0, 0]"] ;
157 -> 158 ;
159 [label="gini = 0.0\nsamples = 1\nvalue = [0, 0, 1, 0, 0, 0, 0]"] ;
158 -> 159 ;
160 [label="gini = 0.0\nsamples = 2\nvalue = [0, 0, 0, 2, 0, 0, 0]"] ;
158 -> 160 ;
161 [label="gini = 0.0\nsamples = 3\nvalue = [0, 0, 0, 6, 0, 0, 0]"] ;
157 -> 161 ;
162 [label="density <= 0.99\ngini = 0.62\nsamples = 19\nvalue = [0, 0, 0, 16, 11, 6, 0]"] ;
152 -> 162 ;
163 [label="pH <= 3.23\ngini = 0.36\nsamples = 9\nvalue = [0, 0, 0, 11, 2, 1, 0]"] ;
162 -> 163 ;
164 [label="gini = 0.0\nsamples = 5\nvalue = [0, 0, 0, 9, 0, 0, 0]"] ;
163 -> 164 ;
165 [label="free sulfur dioxide <= 33.5\ngini = 0.64\nsamples = 4\nvalue = [0, 0, 0, 2, 2, 1, 0]"] ;
163 -> 165 ;
166 [label="gini = 0.0\nsamples = 1\nvalue = [0, 0, 0, 2, 0, 0, 0]"] ;
165 -> 166 ;
167 [label="chlorides <= 0.03\ngini = 0.44\nsamples = 3\nvalue = [0, 0, 0, 0, 2, 1, 0]"] ;
165 -> 167 ;
168 [label="gini = 0.0\nsamples = 1\nvalue = [0, 0, 0, 0, 0, 1, 0]"] ;
167 -> 168 ;
169 [label="gini = 0.0\nsamples = 2\nvalue = [0, 0, 0, 0, 2, 0, 0]"] ;
167 -> 169 ;
170 [label="residual sugar <= 6.9\ngini = 0.64\nsamples = 10\nvalue = [0, 0, 0, 5, 9, 5, 0]"] ;
162 -> 170 ;
171 [label="fixed acidity <= 6.25\ngini = 0.52\nsamples = 8\nvalue = [0, 0, 0, 1, 9, 5, 0]"] ;
170 -> 171 ;
172 [label="gini = 0.0\nsamples = 1\nvalue = [0, 0, 0, 0, 0, 3, 0]"] ;
171 -> 172 ;
173 [label="fixed acidity <= 6.95\ngini = 0.4\nsamples = 7\nvalue = [0, 0, 0, 1, 9, 2, 0]"] ;
171 -> 173 ;
174 [label="gini = 0.0\nsamples = 5\nvalue = [0, 0, 0, 0, 9, 0, 0]"] ;
173 -> 174 ;
175 [label="volatile acidity <= 0.22\ngini = 0.44\nsamples = 2\nvalue = [0, 0, 0, 1, 0, 2, 0]"] ;
173 -> 175 ;
176 [label="gini = 0.0\nsamples = 1\nvalue = [0, 0, 0, 1, 0, 0, 0]"] ;
175 -> 176 ;
177 [label="gini = 0.0\nsamples = 1\nvalue = [0, 0, 0, 0, 0, 2, 0]"] ;
175 -> 177 ;
178 [label="gini = 0.0\nsamples = 2\nvalue = [0, 0, 0, 4, 0, 0, 0]"] ;
170 -> 178 ;
179 [label="total sulfur dioxide <= 152.5\ngini = 0.55\nsamples = 52\nvalue = [0, 0, 10, 52, 19, 3, 0]"] ;
139 -> 179 ;
180 [label="citric acid <= 0.38\ngini = 0.6\nsamples = 46\nvalue = [0, 0, 10, 40, 19, 3, 0]"] ;
179 -> 180 ;
181 [label="fixed acidity <= 5.85\ngini = 0.58\nsamples = 41\nvalue = [0, 0, 6, 38, 19, 3, 0]"] ;
180 -> 181 ;
182 [label="gini = 0.0\nsamples = 10\nvalue = [0, 0, 0, 17, 0, 0, 0]"] ;
181 -> 182 ;
183 [label="volatile acidity <= 0.27\ngini = 0.65\nsamples = 31\nvalue = [0, 0, 6, 21, 19, 3, 0]"] ;
181 -> 183 ;
184 [label="sulphates <= 0.53\ngini = 0.59\nsamples = 23\nvalue = [0, 0, 2, 20, 12, 3, 0]"] ;
183 -> 184 ;
185 [label="alcohol <= 10.95\ngini = 0.43\nsamples = 14\nvalue = [0, 0, 1, 17, 3, 2, 0]"] ;
184 -> 185 ;
186 [label="gini = 0.0\nsamples = 6\nvalue = [0, 0, 0, 10, 0, 0, 0]"] ;
185 -> 186 ;
187 [label="alcohol <= 11.1\ngini = 0.63\nsamples = 8\nvalue = [0, 0, 1, 7, 3, 2, 0]"] ;
185 -> 187 ;
188 [label="citric acid <= 0.33\ngini = 0.64\nsamples = 3\nvalue = [0, 0, 0, 1, 2, 2, 0]"] ;
187 -> 188 ;
189 [label="gini = 0.0\nsamples = 1\nvalue = [0, 0, 0, 0, 0, 2, 0]"] ;
188 -> 189 ;
190 [label="residual sugar <= 1.85\ngini = 0.44\nsamples = 2\nvalue = [0, 0, 0, 1, 2, 0, 0]"] ;
188 -> 190 ;
191 [label="gini = 0.0\nsamples = 1\nvalue = [0, 0, 0, 1, 0, 0, 0]"] ;
190 -> 191 ;
192 [label="gini = 0.0\nsamples = 1\nvalue = [0, 0, 0, 0, 2, 0, 0]"] ;
190 -> 192 ;
193 [label="citric acid <= 0.28\ngini = 0.41\nsamples = 5\nvalue = [0, 0, 1, 6, 1, 0, 0]"] ;
187 -> 193 ;
194 [label="sulphates <= 0.5\ngini = 0.62\nsamples = 3\nvalue = [0, 0, 1, 2, 1, 0, 0]"] ;
193 -> 194 ;
195 [label="fixed acidity <= 6.25\ngini = 0.5\nsamples = 2\nvalue = [0, 0, 1, 0, 1, 0, 0]"] ;
194 -> 195 ;
196 [label="gini = 0.0\nsamples = 1\nvalue = [0, 0, 0, 0, 1, 0, 0]"] ;
195 -> 196 ;
197 [label="gini = 0.0\nsamples = 1\nvalue = [0, 0, 1, 0, 0, 0, 0]"] ;
195 -> 197 ;
198 [label="gini = 0.0\nsamples = 1\nvalue = [0, 0, 0, 2, 0, 0, 0]"] ;
194 -> 198 ;
199 [label="gini = 0.0\nsamples = 2\nvalue = [0, 0, 0, 4, 0, 0, 0]"] ;
193 -> 199 ;
200 [label="pH <= 3.28\ngini = 0.53\nsamples = 9\nvalue = [0, 0, 1, 3, 9, 1, 0]"] ;
184 -> 200 ;
201 [label="chlorides <= 0.03\ngini = 0.38\nsamples = 3\nvalue = [0, 0, 0, 3, 1, 0, 0]"] ;
200 -> 201 ;
202 [label="gini = 0.0\nsamples = 2\nvalue = [0, 0, 0, 3, 0, 0, 0]"] ;
201 -> 202 ;
203 [label="gini = 0.0\nsamples = 1\nvalue = [0, 0, 0, 0, 1, 0, 0]"] ;
201 -> 203 ;
204 [label="free sulfur dioxide <= 19.5\ngini = 0.34\nsamples = 6\nvalue = [0, 0, 1, 0, 8, 1, 0]"] ;
200 -> 204 ;
205 [label="gini = 0.0\nsamples = 1\nvalue = [0, 0, 0, 0, 0, 1, 0]"] ;
204 -> 205 ;
206 [label="pH <= 3.42\ngini = 0.2\nsamples = 5\nvalue = [0, 0, 1, 0, 8, 0, 0]"] ;
204 -> 206 ;
207 [label="gini = 0.0\nsamples = 4\nvalue = [0, 0, 0, 0, 8, 0, 0]"] ;
206 -> 207 ;
208 [label="gini = 0.0\nsamples = 1\nvalue = [0, 0, 1, 0, 0, 0, 0]"] ;
206 -> 208 ;
209 [label="citric acid <= 0.32\ngini = 0.54\nsamples = 8\nvalue = [0, 0, 4, 1, 7, 0, 0]"] ;
183 -> 209 ;
210 [label="total sulfur dioxide <= 120.0\ngini = 0.35\nsamples = 6\nvalue = [0, 0, 2, 0, 7, 0, 0]"] ;
209 -> 210 ;
211 [label="citric acid <= 0.26\ngini = 0.44\nsamples = 2\nvalue = [0, 0, 2, 0, 1, 0, 0]"] ;
210 -> 211 ;
212 [label="gini = 0.0\nsamples = 1\nvalue = [0, 0, 2, 0, 0, 0, 0]"] ;
211 -> 212 ;
213 [label="gini = 0.0\nsamples = 1\nvalue = [0, 0, 0, 0, 1, 0, 0]"] ;
211 -> 213 ;
214 [label="gini = 0.0\nsamples = 4\nvalue = [0, 0, 0, 0, 6, 0, 0]"] ;
210 -> 214 ;
215 [label="residual sugar <= 2.05\ngini = 0.44\nsamples = 2\nvalue = [0, 0, 2, 1, 0, 0, 0]"] ;
209 -> 215 ;
216 [label="gini = 0.0\nsamples = 1\nvalue = [0, 0, 2, 0, 0, 0, 0]"] ;
215 -> 216 ;
217 [label="gini = 0.0\nsamples = 1\nvalue = [0, 0, 0, 1, 0, 0, 0]"] ;
215 -> 217 ;
218 [label="volatile acidity <= 0.24\ngini = 0.44\nsamples = 5\nvalue = [0, 0, 4, 2, 0, 0, 0]"] ;
180 -> 218 ;
219 [label="gini = 0.0\nsamples = 3\nvalue = [0, 0, 4, 0, 0, 0, 0]"] ;
218 -> 219 ;
220 [label="gini = 0.0\nsamples = 2\nvalue = [0, 0, 0, 2, 0, 0, 0]"] ;
218 -> 220 ;
221 [label="gini = 0.0\nsamples = 6\nvalue = [0, 0, 0, 12, 0, 0, 0]"] ;
179 -> 221 ;
222 [label="total sulfur dioxide <= 176.0\ngini = 0.52\nsamples = 178\nvalue = [1, 9, 52, 184, 29, 4, 0]"] ;
72 -> 222 ;
223 [label="pH <= 3.34\ngini = 0.48\nsamples = 153\nvalue = [0, 9, 37, 172, 28, 2, 0]"] ;
222 -> 223 ;
224 [label="alcohol <= 9.67\ngini = 0.43\nsamples = 134\nvalue = [0, 9, 32, 164, 18, 0, 0]"] ;
223 -> 224 ;
225 [label="gini = 0.0\nsamples = 1\nvalue = [0, 0, 2, 0, 0, 0, 0]"] ;
224 -> 225 ;
226 [label="chlorides <= 0.04\ngini = 0.42\nsamples = 133\nvalue = [0, 9, 30, 164, 18, 0, 0]"] ;
224 -> 226 ;
227 [label="alcohol <= 10.15\ngini = 0.18\nsamples = 19\nvalue = [0, 3, 0, 36, 1, 0, 0]"] ;
226 -> 227 ;
228 [label="pH <= 3.13\ngini = 0.38\nsamples = 2\nvalue = [0, 3, 0, 1, 0, 0, 0]"] ;
227 -> 228 ;
229 [label="gini = 0.0\nsamples = 1\nvalue = [0, 3, 0, 0, 0, 0, 0]"] ;
228 -> 229 ;
230 [label="gini = 0.0\nsamples = 1\nvalue = [0, 0, 0, 1, 0, 0, 0]"] ;
228 -> 230 ;
231 [label="citric acid <= 0.59\ngini = 0.05\nsamples = 17\nvalue = [0, 0, 0, 35, 1, 0, 0]"] ;
227 -> 231 ;
232 [label="gini = 0.0\nsamples = 16\nvalue = [0, 0, 0, 35, 0, 0, 0]"] ;
231 -> 232 ;
233 [label="gini = 0.0\nsamples = 1\nvalue = [0, 0, 0, 0, 1, 0, 0]"] ;
231 -> 233 ;
234 [label="total sulfur dioxide <= 78.0\ngini = 0.46\nsamples = 114\nvalue = [0, 6, 30, 128, 17, 0, 0]"] ;
226 -> 234 ;
235 [label="citric acid <= 0.35\ngini = 0.6\nsamples = 10\nvalue = [0, 1, 8, 5, 1, 0, 0]"] ;
234 -> 235 ;
236 [label="alcohol <= 10.5\ngini = 0.34\nsamples = 7\nvalue = [0, 1, 8, 0, 1, 0, 0]"] ;
235 -> 236 ;
237 [label="gini = 0.0\nsamples = 2\nvalue = [0, 0, 4, 0, 0, 0, 0]"] ;
236 -> 237 ;
238 [label="chlorides <= 0.04\ngini = 0.5\nsamples = 5\nvalue = [0, 1, 4, 0, 1, 0, 0]"] ;
236 -> 238 ;
239 [label="gini = 0.0\nsamples = 1\nvalue = [0, 1, 0, 0, 0, 0, 0]"] ;
238 -> 239 ;
240 [label="alcohol <= 11.1\ngini = 0.32\nsamples = 4\nvalue = [0, 0, 4, 0, 1, 0, 0]"] ;
238 -> 240 ;
241 [label="gini = 0.0\nsamples = 1\nvalue = [0, 0, 0, 0, 1, 0, 0]"] ;
240 -> 241 ;
242 [label="gini = 0.0\nsamples = 3\nvalue = [0, 0, 4, 0, 0, 0, 0]"] ;
240 -> 242 ;
243 [label="gini = 0.0\nsamples = 3\nvalue = [0, 0, 0, 5, 0, 0, 0]"] ;
235 -> 243 ;
244 [label="free sulfur dioxide <= 21.5\ngini = 0.42\nsamples = 104\nvalue = [0, 5, 22, 123, 16, 0, 0]"] ;
234 -> 244 ;
245 [label="citric acid <= 0.2\ngini = 0.65\nsamples = 26\nvalue = [0, 3, 7, 19, 8, 0, 0]"] ;
244 -> 245 ;
246 [label="gini = 0.0\nsamples = 1\nvalue = [0, 2, 0, 0, 0, 0, 0]"] ;
245 -> 246 ;
247 [label="volatile acidity <= 0.16\ngini = 0.61\nsamples = 25\nvalue = [0, 1, 7, 19, 8, 0, 0]"] ;
245 -> 247 ;
248 [label="chlorides <= 0.05\ngini = 0.48\nsamples = 3\nvalue = [0, 0, 2, 0, 3, 0, 0]"] ;
247 -> 248 ;
249 [label="gini = 0.0\nsamples = 1\nvalue = [0, 0, 2, 0, 0, 0, 0]"] ;
248 -> 249 ;
250 [label="gini = 0.0\nsamples = 2\nvalue = [0, 0, 0, 0, 3, 0, 0]"] ;
248 -> 250 ;
251 [label="residual sugar <= 2.65\ngini = 0.54\nsamples = 22\nvalue = [0, 1, 5, 19, 5, 0, 0]"] ;
247 -> 251 ;
252 [label="volatile acidity <= 0.24\ngini = 0.62\nsamples = 18\nvalue = [0, 1, 5, 13, 5, 0, 0]"] ;
251 -> 252 ;
253 [label="fixed acidity <= 6.95\ngini = 0.7\nsamples = 11\nvalue = [0, 1, 3, 4, 5, 0, 0]"] ;
252 -> 253 ;
254 [label="free sulfur dioxide <= 20.0\ngini = 0.32\nsamples = 3\nvalue = [0, 0, 0, 1, 4, 0, 0]"] ;
253 -> 254 ;
255 [label="gini = 0.0\nsamples = 2\nvalue = [0, 0, 0, 0, 4, 0, 0]"] ;
254 -> 255 ;
256 [label="gini = 0.0\nsamples = 1\nvalue = [0, 0, 0, 1, 0, 0, 0]"] ;
254 -> 256 ;
257 [label="sulphates <= 0.47\ngini = 0.69\nsamples = 8\nvalue = [0, 1, 3, 3, 1, 0, 0]"] ;
253 -> 257 ;
258 [label="citric acid <= 0.45\ngini = 0.56\nsamples = 5\nvalue = [0, 1, 0, 3, 1, 0, 0]"] ;
257 -> 258 ;
259 [label="pH <= 3.08\ngini = 0.67\nsamples = 3\nvalue = [0, 1, 0, 1, 1, 0, 0]"] ;
258 -> 259 ;
260 [label="gini = 0.0\nsamples = 1\nvalue = [0, 0, 0, 1, 0, 0, 0]"] ;
259 -> 260 ;
261 [label="volatile acidity <= 0.22\ngini = 0.5\nsamples = 2\nvalue = [0, 1, 0, 0, 1, 0, 0]"] ;
259 -> 261 ;
262 [label="gini = 0.0\nsamples = 1\nvalue = [0, 0, 0, 0, 1, 0, 0]"] ;
261 -> 262 ;
263 [label="gini = 0.0\nsamples = 1\nvalue = [0, 1, 0, 0, 0, 0, 0]"] ;
261 -> 263 ;
264 [label="gini = 0.0\nsamples = 2\nvalue = [0, 0, 0, 2, 0, 0, 0]"] ;
258 -> 264 ;
265 [label="gini = 0.0\nsamples = 3\nvalue = [0, 0, 3, 0, 0, 0, 0]"] ;
257 -> 265 ;
266 [label="fixed acidity <= 6.9\ngini = 0.3\nsamples = 7\nvalue = [0, 0, 2, 9, 0, 0, 0]"] ;
252 -> 266 ;
267 [label="gini = 0.0\nsamples = 4\nvalue = [0, 0, 0, 8, 0, 0, 0]"] ;
266 -> 267 ;
268 [label="pH <= 3.15\ngini = 0.44\nsamples = 3\nvalue = [0, 0, 2, 1, 0, 0, 0]"] ;
266 -> 268 ;
269 [label="gini = 0.0\nsamples = 1\nvalue = [0, 0, 0, 1, 0, 0, 0]"] ;
268 -> 269 ;
270 [label="gini = 0.0\nsamples = 2\nvalue = [0, 0, 2, 0, 0, 0, 0]"] ;
268 -> 270 ;
271 [label="gini = 0.0\nsamples = 4\nvalue = [0, 0, 0, 6, 0, 0, 0]"] ;
251 -> 271 ;
272 [label="chlorides <= 0.04\ngini = 0.33\nsamples = 78\nvalue = [0, 2, 15, 104, 8, 0, 0]"] ;
244 -> 272 ;
273 [label="gini = 0.0\nsamples = 1\nvalue = [0, 0, 0, 0, 3, 0, 0]"] ;
272 -> 273 ;
274 [label="density <= 0.99\ngini = 0.3\nsamples = 77\nvalue = [0, 2, 15, 104, 5, 0, 0]"] ;
272 -> 274 ;
275 [label="fixed acidity <= 8.45\ngini = 0.28\nsamples = 76\nvalue = [0, 2, 15, 104, 3, 0, 0]"] ;
274 -> 275 ;
276 [label="alcohol <= 11.05\ngini = 0.27\nsamples = 75\nvalue = [0, 1, 15, 104, 3, 0, 0]"] ;
275 -> 276 ;
277 [label="fixed acidity <= 6.9\ngini = 0.15\nsamples = 47\nvalue = [0, 1, 4, 68, 1, 0, 0]"] ;
276 -> 277 ;
278 [label="density <= 0.99\ngini = 0.21\nsamples = 33\nvalue = [0, 1, 4, 45, 1, 0, 0]"] ;
277 -> 278 ;
279 [label="pH <= 3.32\ngini = 0.56\nsamples = 4\nvalue = [0, 0, 1, 3, 1, 0, 0]"] ;
278 -> 279 ;
280 [label="density <= 0.99\ngini = 0.38\nsamples = 3\nvalue = [0, 0, 1, 3, 0, 0, 0]"] ;
279 -> 280 ;
281 [label="gini = 0.0\nsamples = 2\nvalue = [0, 0, 0, 3, 0, 0, 0]"] ;
280 -> 281 ;
282 [label="gini = 0.0\nsamples = 1\nvalue = [0, 0, 1, 0, 0, 0, 0]"] ;
280 -> 282 ;
283 [label="gini = 0.0\nsamples = 1\nvalue = [0, 0, 0, 0, 1, 0, 0]"] ;
279 -> 283 ;
284 [label="pH <= 3.1\ngini = 0.16\nsamples = 29\nvalue = [0, 1, 3, 42, 0, 0, 0]"] ;
278 -> 284 ;
285 [label="density <= 0.99\ngini = 0.38\nsamples = 4\nvalue = [0, 0, 1, 3, 0, 0, 0]"] ;
284 -> 285 ;
286 [label="gini = 0.0\nsamples = 3\nvalue = [0, 0, 0, 3, 0, 0, 0]"] ;
285 -> 286 ;
287 [label="gini = 0.0\nsamples = 1\nvalue = [0, 0, 1, 0, 0, 0, 0]"] ;
285 -> 287 ;
288 [label="citric acid <= 0.42\ngini = 0.13\nsamples = 25\nvalue = [0, 1, 2, 39, 0, 0, 0]"] ;
284 -> 288 ;
289 [label="chlorides <= 0.04\ngini = 0.1\nsamples = 23\nvalue = [0, 1, 1, 37, 0, 0, 0]"] ;
288 -> 289 ;
290 [label="fixed acidity <= 6.3\ngini = 0.44\nsamples = 2\nvalue = [0, 0, 1, 2, 0, 0, 0]"] ;
289 -> 290 ;
291 [label="gini = 0.0\nsamples = 1\nvalue = [0, 0, 0, 2, 0, 0, 0]"] ;
290 -> 291 ;
292 [label="gini = 0.0\nsamples = 1\nvalue = [0, 0, 1, 0, 0, 0, 0]"] ;
290 -> 292 ;
293 [label="chlorides <= 0.05\ngini = 0.05\nsamples = 21\nvalue = [0, 1, 0, 35, 0, 0, 0]"] ;
289 -> 293 ;
294 [label="gini = 0.0\nsamples = 16\nvalue = [0, 0, 0, 27, 0, 0, 0]"] ;
293 -> 294 ;
295 [label="volatile acidity <= 0.28\ngini = 0.2\nsamples = 5\nvalue = [0, 1, 0, 8, 0, 0, 0]"] ;
293 -> 295 ;
296 [label="gini = 0.0\nsamples = 3\nvalue = [0, 0, 0, 7, 0, 0, 0]"] ;
295 -> 296 ;
297 [label="sulphates <= 0.44\ngini = 0.5\nsamples = 2\nvalue = [0, 1, 0, 1, 0, 0, 0]"] ;
295 -> 297 ;
298 [label="gini = 0.0\nsamples = 1\nvalue = [0, 0, 0, 1, 0, 0, 0]"] ;
297 -> 298 ;
299 [label="gini = 0.0\nsamples = 1\nvalue = [0, 1, 0, 0, 0, 0, 0]"] ;
297 -> 299 ;
300 [label="fixed acidity <= 6.1\ngini = 0.44\nsamples = 2\nvalue = [0, 0, 1, 2, 0, 0, 0]"] ;
288 -> 300 ;
301 [label="gini = 0.0\nsamples = 1\nvalue = [0, 0, 1, 0, 0, 0, 0]"] ;
300 -> 301 ;
302 [label="gini = 0.0\nsamples = 1\nvalue = [0, 0, 0, 2, 0, 0, 0]"] ;
300 -> 302 ;
303 [label="gini = 0.0\nsamples = 14\nvalue = [0, 0, 0, 23, 0, 0, 0]"] ;
277 -> 303 ;
304 [label="fixed acidity <= 6.85\ngini = 0.41\nsamples = 28\nvalue = [0, 0, 11, 36, 2, 0, 0]"] ;
276 -> 304 ;
305 [label="alcohol <= 11.15\ngini = 0.21\nsamples = 14\nvalue = [0, 0, 2, 23, 1, 0, 0]"] ;
304 -> 305 ;
306 [label="total sulfur dioxide <= 119.5\ngini = 0.5\nsamples = 2\nvalue = [0, 0, 2, 2, 0, 0, 0]"] ;
305 -> 306 ;
307 [label="gini = 0.0\nsamples = 1\nvalue = [0, 0, 2, 0, 0, 0, 0]"] ;
306 -> 307 ;
308 [label="gini = 0.0\nsamples = 1\nvalue = [0, 0, 0, 2, 0, 0, 0]"] ;
306 -> 308 ;
309 [label="residual sugar <= 1.95\ngini = 0.09\nsamples = 12\nvalue = [0, 0, 0, 21, 1, 0, 0]"] ;
305 -> 309 ;
310 [label="gini = 0.0\nsamples = 7\nvalue = [0, 0, 0, 13, 0, 0, 0]"] ;
309 -> 310 ;
311 [label="free sulfur dioxide <= 37.5\ngini = 0.2\nsamples = 5\nvalue = [0, 0, 0, 8, 1, 0, 0]"] ;
309 -> 311 ;
312 [label="gini = 0.0\nsamples = 1\nvalue = [0, 0, 0, 0, 1, 0, 0]"] ;
311 -> 312 ;
313 [label="gini = 0.0\nsamples = 4\nvalue = [0, 0, 0, 8, 0, 0, 0]"] ;
311 -> 313 ;
314 [label="density <= 0.99\ngini = 0.53\nsamples = 14\nvalue = [0, 0, 9, 13, 1, 0, 0]"] ;
304 -> 314 ;
315 [label="fixed acidity <= 7.3\ngini = 0.55\nsamples = 10\nvalue = [0, 0, 9, 7, 1, 0, 0]"] ;
314 -> 315 ;
316 [label="gini = 0.0\nsamples = 2\nvalue = [0, 0, 6, 0, 0, 0, 0]"] ;
315 -> 316 ;
317 [label="alcohol <= 11.25\ngini = 0.51\nsamples = 8\nvalue = [0, 0, 3, 7, 1, 0, 0]"] ;
315 -> 317 ;
318 [label="gini = 0.0\nsamples = 2\nvalue = [0, 0, 3, 0, 0, 0, 0]"] ;
317 -> 318 ;
319 [label="residual sugar <= 1.95\ngini = 0.22\nsamples = 6\nvalue = [0, 0, 0, 7, 1, 0, 0]"] ;
317 -> 319 ;
320 [label="gini = 0.0\nsamples = 5\nvalue = [0, 0, 0, 7, 0, 0, 0]"] ;
319 -> 320 ;
321 [label="gini = 0.0\nsamples = 1\nvalue = [0, 0, 0, 0, 1, 0, 0]"] ;
319 -> 321 ;
322 [label="gini = 0.0\nsamples = 4\nvalue = [0, 0, 0, 6, 0, 0, 0]"] ;
314 -> 322 ;
323 [label="gini = 0.0\nsamples = 1\nvalue = [0, 1, 0, 0, 0, 0, 0]"] ;
275 -> 323 ;
324 [label="gini = 0.0\nsamples = 1\nvalue = [0, 0, 0, 0, 2, 0, 0]"] ;
274 -> 324 ;
325 [label="pH <= 3.39\ngini = 0.69\nsamples = 19\nvalue = [0, 0, 5, 8, 10, 2, 0]"] ;
223 -> 325 ;
326 [label="citric acid <= 0.26\ngini = 0.46\nsamples = 8\nvalue = [0, 0, 2, 1, 7, 0, 0]"] ;
325 -> 326 ;
327 [label="citric acid <= 0.24\ngini = 0.44\nsamples = 2\nvalue = [0, 0, 2, 1, 0, 0, 0]"] ;
326 -> 327 ;
328 [label="gini = 0.0\nsamples = 1\nvalue = [0, 0, 2, 0, 0, 0, 0]"] ;
327 -> 328 ;
329 [label="gini = 0.0\nsamples = 1\nvalue = [0, 0, 0, 1, 0, 0, 0]"] ;
327 -> 329 ;
330 [label="gini = 0.0\nsamples = 6\nvalue = [0, 0, 0, 0, 7, 0, 0]"] ;
326 -> 330 ;
331 [label="free sulfur dioxide <= 44.0\ngini = 0.68\nsamples = 11\nvalue = [0, 0, 3, 7, 3, 2, 0]"] ;
325 -> 331 ;
332 [label="volatile acidity <= 0.31\ngini = 0.57\nsamples = 8\nvalue = [0, 0, 0, 7, 3, 2, 0]"] ;
331 -> 332 ;
333 [label="alcohol <= 10.45\ngini = 0.66\nsamples = 5\nvalue = [0, 0, 0, 3, 3, 2, 0]"] ;
332 -> 333 ;
334 [label="gini = 0.0\nsamples = 2\nvalue = [0, 0, 0, 0, 3, 0, 0]"] ;
333 -> 334 ;
335 [label="density <= 0.99\ngini = 0.48\nsamples = 3\nvalue = [0, 0, 0, 3, 0, 2, 0]"] ;
333 -> 335 ;
336 [label="gini = 0.0\nsamples = 2\nvalue = [0, 0, 0, 3, 0, 0, 0]"] ;
335 -> 336 ;
337 [label="gini = 0.0\nsamples = 1\nvalue = [0, 0, 0, 0, 0, 2, 0]"] ;
335 -> 337 ;
338 [label="gini = 0.0\nsamples = 3\nvalue = [0, 0, 0, 4, 0, 0, 0]"] ;
332 -> 338 ;
339 [label="gini = 0.0\nsamples = 3\nvalue = [0, 0, 3, 0, 0, 0, 0]"] ;
331 -> 339 ;
340 [label="alcohol <= 10.1\ngini = 0.61\nsamples = 25\nvalue = [1, 0, 15, 12, 1, 2, 0]"] ;
222 -> 340 ;
341 [label="gini = 0.0\nsamples = 3\nvalue = [0, 0, 0, 5, 0, 0, 0]"] ;
340 -> 341 ;
342 [label="density <= 0.99\ngini = 0.59\nsamples = 22\nvalue = [1, 0, 15, 7, 1, 2, 0]"] ;
340 -> 342 ;
343 [label="total sulfur dioxide <= 188.5\ngini = 0.42\nsamples = 15\nvalue = [0, 0, 14, 3, 0, 2, 0]"] ;
342 -> 343 ;
344 [label="volatile acidity <= 0.25\ngini = 0.32\nsamples = 12\nvalue = [0, 0, 13, 1, 0, 2, 0]"] ;
343 -> 344 ;
345 [label="gini = 0.0\nsamples = 2\nvalue = [0, 0, 0, 0, 0, 2, 0]"] ;
344 -> 345 ;
346 [label="citric acid <= 0.27\ngini = 0.13\nsamples = 10\nvalue = [0, 0, 13, 1, 0, 0, 0]"] ;
344 -> 346 ;
347 [label="residual sugar <= 1.6\ngini = 0.38\nsamples = 4\nvalue = [0, 0, 3, 1, 0, 0, 0]"] ;
346 -> 347 ;
348 [label="gini = 0.0\nsamples = 1\nvalue = [0, 0, 0, 1, 0, 0, 0]"] ;
347 -> 348 ;
349 [label="gini = 0.0\nsamples = 3\nvalue = [0, 0, 3, 0, 0, 0, 0]"] ;
347 -> 349 ;
350 [label="gini = 0.0\nsamples = 6\nvalue = [0, 0, 10, 0, 0, 0, 0]"] ;
346 -> 350 ;
351 [label="volatile acidity <= 0.31\ngini = 0.44\nsamples = 3\nvalue = [0, 0, 1, 2, 0, 0, 0]"] ;
343 -> 351 ;
352 [label="gini = 0.0\nsamples = 2\nvalue = [0, 0, 0, 2, 0, 0, 0]"] ;
351 -> 352 ;
353 [label="gini = 0.0\nsamples = 1\nvalue = [0, 0, 1, 0, 0, 0, 0]"] ;
351 -> 353 ;
354 [label="citric acid <= 0.26\ngini = 0.61\nsamples = 7\nvalue = [1, 0, 1, 4, 1, 0, 0]"] ;
342 -> 354 ;
355 [label="citric acid <= 0.23\ngini = 0.5\nsamples = 2\nvalue = [1, 0, 0, 0, 1, 0, 0]"] ;
354 -> 355 ;
356 [label="gini = 0.0\nsamples = 1\nvalue = [1, 0, 0, 0, 0, 0, 0]"] ;
355 -> 356 ;
357 [label="gini = 0.0\nsamples = 1\nvalue = [0, 0, 0, 0, 1, 0, 0]"] ;
355 -> 357 ;
358 [label="pH <= 3.26\ngini = 0.32\nsamples = 5\nvalue = [0, 0, 1, 4, 0, 0, 0]"] ;
354 -> 358 ;
359 [label="gini = 0.0\nsamples = 4\nvalue = [0, 0, 0, 4, 0, 0, 0]"] ;
358 -> 359 ;
360 [label="gini = 0.0\nsamples = 1\nvalue = [0, 0, 1, 0, 0, 0, 0]"] ;
358 -> 360 ;
361 [label="free sulfur dioxide <= 18.5\ngini = 0.49\nsamples = 7\nvalue = [0, 0, 3, 1, 8, 0, 0]"] ;
67 -> 361 ;
362 [label="volatile acidity <= 0.3\ngini = 0.62\nsamples = 3\nvalue = [0, 0, 2, 1, 1, 0, 0]"] ;
361 -> 362 ;
363 [label="chlorides <= 0.03\ngini = 0.5\nsamples = 2\nvalue = [0, 0, 0, 1, 1, 0, 0]"] ;
362 -> 363 ;
364 [label="gini = 0.0\nsamples = 1\nvalue = [0, 0, 0, 1, 0, 0, 0]"] ;
363 -> 364 ;
365 [label="gini = 0.0\nsamples = 1\nvalue = [0, 0, 0, 0, 1, 0, 0]"] ;
363 -> 365 ;
366 [label="gini = 0.0\nsamples = 1\nvalue = [0, 0, 2, 0, 0, 0, 0]"] ;
362 -> 366 ;
367 [label="volatile acidity <= 0.21\ngini = 0.22\nsamples = 4\nvalue = [0, 0, 1, 0, 7, 0, 0]"] ;
361 -> 367 ;
368 [label="gini = 0.0\nsamples = 2\nvalue = [0, 0, 0, 0, 5, 0, 0]"] ;
367 -> 368 ;
369 [label="alcohol <= 10.8\ngini = 0.44\nsamples = 2\nvalue = [0, 0, 1, 0, 2, 0, 0]"] ;
367 -> 369 ;
370 [label="gini = 0.0\nsamples = 1\nvalue = [0, 0, 1, 0, 0, 0, 0]"] ;
369 -> 370 ;
371 [label="gini = 0.0\nsamples = 1\nvalue = [0, 0, 0, 0, 2, 0, 0]"] ;
369 -> 371 ;
372 [label="free sulfur dioxide <= 27.5\ngini = 0.62\nsamples = 50\nvalue = [0, 0, 10, 31, 34, 1, 0]"] ;
66 -> 372 ;
373 [label="total sulfur dioxide <= 117.5\ngini = 0.63\nsamples = 18\nvalue = [0, 0, 10, 14, 4, 1, 0]"] ;
372 -> 373 ;
374 [label="alcohol <= 10.85\ngini = 0.64\nsamples = 13\nvalue = [0, 0, 10, 5, 4, 1, 0]"] ;
373 -> 374 ;
375 [label="citric acid <= 0.3\ngini = 0.46\nsamples = 9\nvalue = [0, 0, 9, 3, 0, 1, 0]"] ;
374 -> 375 ;
376 [label="free sulfur dioxide <= 17.5\ngini = 0.44\nsamples = 3\nvalue = [0, 0, 0, 2, 0, 1, 0]"] ;
375 -> 376 ;
377 [label="gini = 0.0\nsamples = 1\nvalue = [0, 0, 0, 0, 0, 1, 0]"] ;
376 -> 377 ;
378 [label="gini = 0.0\nsamples = 2\nvalue = [0, 0, 0, 2, 0, 0, 0]"] ;
376 -> 378 ;
379 [label="residual sugar <= 1.45\ngini = 0.18\nsamples = 6\nvalue = [0, 0, 9, 1, 0, 0, 0]"] ;
375 -> 379 ;
380 [label="gini = 0.0\nsamples = 5\nvalue = [0, 0, 9, 0, 0, 0, 0]"] ;
379 -> 380 ;
381 [label="gini = 0.0\nsamples = 1\nvalue = [0, 0, 0, 1, 0, 0, 0]"] ;
379 -> 381 ;
382 [label="citric acid <= 0.37\ngini = 0.57\nsamples = 4\nvalue = [0, 0, 1, 2, 4, 0, 0]"] ;
374 -> 382 ;
383 [label="gini = 0.0\nsamples = 2\nvalue = [0, 0, 0, 0, 4, 0, 0]"] ;
382 -> 383 ;
384 [label="pH <= 3.12\ngini = 0.44\nsamples = 2\nvalue = [0, 0, 1, 2, 0, 0, 0]"] ;
382 -> 384 ;
385 [label="gini = 0.0\nsamples = 1\nvalue = [0, 0, 0, 2, 0, 0, 0]"] ;
384 -> 385 ;
386 [label="gini = 0.0\nsamples = 1\nvalue = [0, 0, 1, 0, 0, 0, 0]"] ;
384 -> 386 ;
387 [label="gini = 0.0\nsamples = 5\nvalue = [0, 0, 0, 9, 0, 0, 0]"] ;
373 -> 387 ;
388 [label="citric acid <= 0.28\ngini = 0.46\nsamples = 32\nvalue = [0, 0, 0, 17, 30, 0, 0]"] ;
372 -> 388 ;
389 [label="residual sugar <= 3.8\ngini = 0.32\nsamples = 4\nvalue = [0, 0, 0, 4, 1, 0, 0]"] ;
388 -> 389 ;
390 [label="gini = 0.0\nsamples = 3\nvalue = [0, 0, 0, 4, 0, 0, 0]"] ;
389 -> 390 ;
391 [label="gini = 0.0\nsamples = 1\nvalue = [0, 0, 0, 0, 1, 0, 0]"] ;
389 -> 391 ;
392 [label="pH <= 3.25\ngini = 0.43\nsamples = 28\nvalue = [0, 0, 0, 13, 29, 0, 0]"] ;
388 -> 392 ;
393 [label="chlorides <= 0.03\ngini = 0.5\nsamples = 17\nvalue = [0, 0, 0, 12, 14, 0, 0]"] ;
392 -> 393 ;
394 [label="gini = 0.0\nsamples = 3\nvalue = [0, 0, 0, 4, 0, 0, 0]"] ;
393 -> 394 ;
395 [label="pH <= 3.16\ngini = 0.46\nsamples = 14\nvalue = [0, 0, 0, 8, 14, 0, 0]"] ;
393 -> 395 ;
396 [label="fixed acidity <= 6.75\ngini = 0.29\nsamples = 12\nvalue = [0, 0, 0, 3, 14, 0, 0]"] ;
395 -> 396 ;
397 [label="gini = 0.0\nsamples = 4\nvalue = [0, 0, 0, 0, 7, 0, 0]"] ;
396 -> 397 ;
398 [label="density <= 0.99\ngini = 0.42\nsamples = 8\nvalue = [0, 0, 0, 3, 7, 0, 0]"] ;
396 -> 398 ;
399 [label="gini = 0.0\nsamples = 2\nvalue = [0, 0, 0, 2, 0, 0, 0]"] ;
398 -> 399 ;
400 [label="total sulfur dioxide <= 129.0\ngini = 0.22\nsamples = 6\nvalue = [0, 0, 0, 1, 7, 0, 0]"] ;
398 -> 400 ;
401 [label="gini = 0.0\nsamples = 5\nvalue = [0, 0, 0, 0, 7, 0, 0]"] ;
400 -> 401 ;
402 [label="gini = 0.0\nsamples = 1\nvalue = [0, 0, 0, 1, 0, 0, 0]"] ;
400 -> 402 ;
403 [label="gini = 0.0\nsamples = 2\nvalue = [0, 0, 0, 5, 0, 0, 0]"] ;
395 -> 403 ;
404 [label="volatile acidity <= 0.21\ngini = 0.12\nsamples = 11\nvalue = [0, 0, 0, 1, 15, 0, 0]"] ;
392 -> 404 ;
405 [label="alcohol <= 11.2\ngini = 0.44\nsamples = 3\nvalue = [0, 0, 0, 1, 2, 0, 0]"] ;
404 -> 405 ;
406 [label="gini = 0.0\nsamples = 1\nvalue = [0, 0, 0, 1, 0, 0, 0]"] ;
405 -> 406 ;
407 [label="gini = 0.0\nsamples = 2\nvalue = [0, 0, 0, 0, 2, 0, 0]"] ;
405 -> 407 ;
408 [label="gini = 0.0\nsamples = 8\nvalue = [0, 0, 0, 0, 13, 0, 0]"] ;
404 -> 408 ;
409 [label="alcohol <= 12.78\ngini = 0.64\nsamples = 521\nvalue = [5, 19, 32, 385, 316, 80, 4]"] ;
1 -> 409 ;
410 [label="total sulfur dioxide <= 160.0\ngini = 0.61\nsamples = 408\nvalue = [5, 15, 26, 335, 227, 44, 4]"] ;
409 -> 410 ;
411 [label="pH <= 3.07\ngini = 0.62\nsamples = 372\nvalue = [5, 15, 24, 281, 221, 35, 4]"] ;
410 -> 411 ;
412 [label="free sulfur dioxide <= 42.5\ngini = 0.53\nsamples = 84\nvalue = [0, 2, 8, 84, 31, 6, 0]"] ;
411 -> 412 ;
413 [label="density <= 0.99\ngini = 0.46\nsamples = 71\nvalue = [0, 2, 4, 80, 23, 5, 0]"] ;
412 -> 413 ;
414 [label="gini = 0.0\nsamples = 10\nvalue = [0, 0, 0, 20, 0, 0, 0]"] ;
413 -> 414 ;
415 [label="sulphates <= 0.33\ngini = 0.53\nsamples = 61\nvalue = [0, 2, 4, 60, 23, 5, 0]"] ;
413 -> 415 ;
416 [label="chlorides <= 0.03\ngini = 0.62\nsamples = 9\nvalue = [0, 0, 0, 5, 8, 3, 0]"] ;
415 -> 416 ;
417 [label="alcohol <= 11.75\ngini = 0.38\nsamples = 5\nvalue = [0, 0, 0, 0, 6, 2, 0]"] ;
416 -> 417 ;
418 [label="gini = 0.0\nsamples = 1\nvalue = [0, 0, 0, 0, 0, 2, 0]"] ;
417 -> 418 ;
419 [label="gini = 0.0\nsamples = 4\nvalue = [0, 0, 0, 0, 6, 0, 0]"] ;
417 -> 419 ;
420 [label="chlorides <= 0.04\ngini = 0.53\nsamples = 4\nvalue = [0, 0, 0, 5, 2, 1, 0]"] ;
416 -> 420 ;
421 [label="gini = 0.0\nsamples = 2\nvalue = [0, 0, 0, 5, 0, 0, 0]"] ;
420 -> 421 ;
422 [label="density <= 0.99\ngini = 0.44\nsamples = 2\nvalue = [0, 0, 0, 0, 2, 1, 0]"] ;
420 -> 422 ;
423 [label="gini = 0.0\nsamples = 1\nvalue = [0, 0, 0, 0, 0, 1, 0]"] ;
422 -> 423 ;
424 [label="gini = 0.0\nsamples = 1\nvalue = [0, 0, 0, 0, 2, 0, 0]"] ;
422 -> 424 ;
425 [label="total sulfur dioxide <= 49.0\ngini = 0.46\nsamples = 52\nvalue = [0, 2, 4, 55, 15, 2, 0]"] ;
415 -> 425 ;
426 [label="gini = 0.0\nsamples = 1\nvalue = [0, 0, 0, 0, 2, 0, 0]"] ;
425 -> 426 ;
427 [label="total sulfur dioxide <= 141.5\ngini = 0.44\nsamples = 51\nvalue = [0, 2, 4, 55, 13, 2, 0]"] ;
425 -> 427 ;
428 [label="density <= 0.99\ngini = 0.39\nsamples = 47\nvalue = [0, 0, 4, 54, 11, 2, 0]"] ;
427 -> 428 ;
429 [label="chlorides <= 0.03\ngini = 0.32\nsamples = 4\nvalue = [0, 0, 0, 1, 4, 0, 0]"] ;
428 -> 429 ;
430 [label="gini = 0.0\nsamples = 1\nvalue = [0, 0, 0, 0, 2, 0, 0]"] ;
429 -> 430 ;
431 [label="volatile acidity <= 0.33\ngini = 0.44\nsamples = 3\nvalue = [0, 0, 0, 1, 2, 0, 0]"] ;
429 -> 431 ;
432 [label="gini = 0.0\nsamples = 1\nvalue = [0, 0, 0, 1, 0, 0, 0]"] ;
431 -> 432 ;
433 [label="gini = 0.0\nsamples = 2\nvalue = [0, 0, 0, 0, 2, 0, 0]"] ;
431 -> 433 ;
434 [label="alcohol <= 12.05\ngini = 0.34\nsamples = 43\nvalue = [0, 0, 4, 53, 7, 2, 0]"] ;
428 -> 434 ;
435 [label="free sulfur dioxide <= 13.5\ngini = 0.07\nsamples = 18\nvalue = [0, 0, 1, 25, 0, 0, 0]"] ;
434 -> 435 ;
436 [label="fixed acidity <= 8.3\ngini = 0.38\nsamples = 2\nvalue = [0, 0, 1, 3, 0, 0, 0]"] ;
435 -> 436 ;
437 [label="gini = 0.0\nsamples = 1\nvalue = [0, 0, 1, 0, 0, 0, 0]"] ;
436 -> 437 ;
438 [label="gini = 0.0\nsamples = 1\nvalue = [0, 0, 0, 3, 0, 0, 0]"] ;
436 -> 438 ;
439 [label="gini = 0.0\nsamples = 16\nvalue = [0, 0, 0, 22, 0, 0, 0]"] ;
435 -> 439 ;
440 [label="chlorides <= 0.03\ngini = 0.47\nsamples = 25\nvalue = [0, 0, 3, 28, 7, 2, 0]"] ;
434 -> 440 ;
441 [label="fixed acidity <= 7.65\ngini = 0.72\nsamples = 9\nvalue = [0, 0, 2, 4, 4, 2, 0]"] ;
440 -> 441 ;
442 [label="sulphates <= 0.38\ngini = 0.48\nsamples = 3\nvalue = [0, 0, 0, 3, 0, 2, 0]"] ;
441 -> 442 ;
443 [label="gini = 0.0\nsamples = 1\nvalue = [0, 0, 0, 3, 0, 0, 0]"] ;
442 -> 443 ;
444 [label="gini = 0.0\nsamples = 2\nvalue = [0, 0, 0, 0, 0, 2, 0]"] ;
442 -> 444 ;
445 [label="citric acid <= 0.31\ngini = 0.57\nsamples = 6\nvalue = [0, 0, 2, 1, 4, 0, 0]"] ;
441 -> 445 ;
446 [label="fixed acidity <= 8.75\ngini = 0.44\nsamples = 3\nvalue = [0, 0, 2, 1, 0, 0, 0]"] ;
445 -> 446 ;
447 [label="gini = 0.0\nsamples = 2\nvalue = [0, 0, 2, 0, 0, 0, 0]"] ;
446 -> 447 ;
448 [label="gini = 0.0\nsamples = 1\nvalue = [0, 0, 0, 1, 0, 0, 0]"] ;
446 -> 448 ;
449 [label="gini = 0.0\nsamples = 3\nvalue = [0, 0, 0, 0, 4, 0, 0]"] ;
445 -> 449 ;
450 [label="citric acid <= 0.27\ngini = 0.25\nsamples = 16\nvalue = [0, 0, 1, 24, 3, 0, 0]"] ;
440 -> 450 ;
451 [label="citric acid <= 0.21\ngini = 0.44\nsamples = 3\nvalue = [0, 0, 0, 1, 2, 0, 0]"] ;
450 -> 451 ;
452 [label="gini = 0.0\nsamples = 1\nvalue = [0, 0, 0, 1, 0, 0, 0]"] ;
451 -> 452 ;
453 [label="gini = 0.0\nsamples = 2\nvalue = [0, 0, 0, 0, 2, 0, 0]"] ;
451 -> 453 ;
454 [label="total sulfur dioxide <= 123.5\ngini = 0.15\nsamples = 13\nvalue = [0, 0, 1, 23, 1, 0, 0]"] ;
450 -> 454 ;
455 [label="chlorides <= 0.03\ngini = 0.08\nsamples = 12\nvalue = [0, 0, 0, 23, 1, 0, 0]"] ;
454 -> 455 ;
456 [label="density <= 0.99\ngini = 0.44\nsamples = 2\nvalue = [0, 0, 0, 2, 1, 0, 0]"] ;
455 -> 456 ;
457 [label="gini = 0.0\nsamples = 1\nvalue = [0, 0, 0, 2, 0, 0, 0]"] ;
456 -> 457 ;
458 [label="gini = 0.0\nsamples = 1\nvalue = [0, 0, 0, 0, 1, 0, 0]"] ;
456 -> 458 ;
459 [label="gini = 0.0\nsamples = 10\nvalue = [0, 0, 0, 21, 0, 0, 0]"] ;
455 -> 459 ;
460 [label="gini = 0.0\nsamples = 1\nvalue = [0, 0, 1, 0, 0, 0, 0]"] ;
454 -> 460 ;
461 [label="fixed acidity <= 7.5\ngini = 0.64\nsamples = 4\nvalue = [0, 2, 0, 1, 2, 0, 0]"] ;
427 -> 461 ;
462 [label="residual sugar <= 4.9\ngini = 0.44\nsamples = 2\nvalue = [0, 2, 0, 1, 0, 0, 0]"] ;
461 -> 462 ;
463 [label="gini = 0.0\nsamples = 1\nvalue = [0, 2, 0, 0, 0, 0, 0]"] ;
462 -> 463 ;
464 [label="gini = 0.0\nsamples = 1\nvalue = [0, 0, 0, 1, 0, 0, 0]"] ;
462 -> 464 ;
465 [label="gini = 0.0\nsamples = 2\nvalue = [0, 0, 0, 0, 2, 0, 0]"] ;
461 -> 465 ;
466 [label="chlorides <= 0.02\ngini = 0.66\nsamples = 13\nvalue = [0, 0, 4, 4, 8, 1, 0]"] ;
412 -> 466 ;
467 [label="gini = 0.0\nsamples = 2\nvalue = [0, 0, 3, 0, 0, 0, 0]"] ;
466 -> 467 ;
468 [label="fixed acidity <= 7.1\ngini = 0.58\nsamples = 11\nvalue = [0, 0, 1, 4, 8, 1, 0]"] ;
466 -> 468 ;
469 [label="gini = 0.0\nsamples = 5\nvalue = [0, 0, 0, 0, 8, 0, 0]"] ;
468 -> 469 ;
470 [label="sulphates <= 0.31\ngini = 0.5\nsamples = 6\nvalue = [0, 0, 1, 4, 0, 1, 0]"] ;
468 -> 470 ;
471 [label="gini = 0.0\nsamples = 1\nvalue = [0, 0, 0, 0, 0, 1, 0]"] ;
470 -> 471 ;
472 [label="alcohol <= 12.1\ngini = 0.32\nsamples = 5\nvalue = [0, 0, 1, 4, 0, 0, 0]"] ;
470 -> 472 ;
473 [label="gini = 0.0\nsamples = 1\nvalue = [0, 0, 1, 0, 0, 0, 0]"] ;
472 -> 473 ;
474 [label="gini = 0.0\nsamples = 4\nvalue = [0, 0, 0, 4, 0, 0, 0]"] ;
472 -> 474 ;
475 [label="free sulfur dioxide <= 21.5\ngini = 0.63\nsamples = 288\nvalue = [5, 13, 16, 197, 190, 29, 4]"] ;
411 -> 475 ;
476 [label="sulphates <= 0.81\ngini = 0.64\nsamples = 79\nvalue = [5, 12, 5, 69, 26, 9, 0]"] ;
475 -> 476 ;
477 [label="total sulfur dioxide <= 69.5\ngini = 0.61\nsamples = 76\nvalue = [5, 12, 5, 69, 26, 3, 0]"] ;
476 -> 477 ;
478 [label="sulphates <= 0.64\ngini = 0.72\nsamples = 11\nvalue = [3, 8, 0, 5, 8, 0, 0]"] ;
477 -> 478 ;
479 [label="residual sugar <= 1.58\ngini = 0.7\nsamples = 9\nvalue = [3, 8, 0, 5, 3, 0, 0]"] ;
478 -> 479 ;
480 [label="sulphates <= 0.33\ngini = 0.4\nsamples = 5\nvalue = [0, 8, 0, 3, 0, 0, 0]"] ;
479 -> 480 ;
481 [label="gini = 0.0\nsamples = 1\nvalue = [0, 0, 0, 2, 0, 0, 0]"] ;
480 -> 481 ;
482 [label="chlorides <= 0.03\ngini = 0.2\nsamples = 4\nvalue = [0, 8, 0, 1, 0, 0, 0]"] ;
480 -> 482 ;
483 [label="gini = 0.0\nsamples = 1\nvalue = [0, 0, 0, 1, 0, 0, 0]"] ;
482 -> 483 ;
484 [label="gini = 0.0\nsamples = 3\nvalue = [0, 8, 0, 0, 0, 0, 0]"] ;
482 -> 484 ;
485 [label="total sulfur dioxide <= 26.5\ngini = 0.66\nsamples = 4\nvalue = [3, 0, 0, 2, 3, 0, 0]"] ;
479 -> 485 ;
486 [label="gini = 0.0\nsamples = 1\nvalue = [3, 0, 0, 0, 0, 0, 0]"] ;
485 -> 486 ;
487 [label="fixed acidity <= 6.55\ngini = 0.48\nsamples = 3\nvalue = [0, 0, 0, 2, 3, 0, 0]"] ;
485 -> 487 ;
488 [label="gini = 0.0\nsamples = 2\nvalue = [0, 0, 0, 0, 3, 0, 0]"] ;
487 -> 488 ;
489 [label="gini = 0.0\nsamples = 1\nvalue = [0, 0, 0, 2, 0, 0, 0]"] ;
487 -> 489 ;
490 [label="gini = 0.0\nsamples = 2\nvalue = [0, 0, 0, 0, 5, 0, 0]"] ;
478 -> 490 ;
491 [label="density <= 0.99\ngini = 0.51\nsamples = 65\nvalue = [2, 4, 5, 64, 18, 3, 0]"] ;
477 -> 491 ;
492 [label="gini = 0.0\nsamples = 2\nvalue = [0, 0, 0, 0, 3, 0, 0]"] ;
491 -> 492 ;
493 [label="alcohol <= 11.75\ngini = 0.49\nsamples = 63\nvalue = [2, 4, 5, 64, 15, 3, 0]"] ;
491 -> 493 ;
494 [label="citric acid <= 0.23\ngini = 0.68\nsamples = 15\nvalue = [1, 3, 3, 12, 6, 0, 0]"] ;
493 -> 494 ;
495 [label="gini = 0.0\nsamples = 1\nvalue = [0, 3, 0, 0, 0, 0, 0]"] ;
494 -> 495 ;
496 [label="chlorides <= 0.05\ngini = 0.61\nsamples = 14\nvalue = [1, 0, 3, 12, 6, 0, 0]"] ;
494 -> 496 ;
497 [label="sulphates <= 0.58\ngini = 0.68\nsamples = 11\nvalue = [1, 0, 3, 6, 6, 0, 0]"] ;
496 -> 497 ;
498 [label="total sulfur dioxide <= 119.5\ngini = 0.58\nsamples = 8\nvalue = [1, 0, 2, 6, 1, 0, 0]"] ;
497 -> 498 ;
499 [label="free sulfur dioxide <= 12.5\ngini = 0.41\nsamples = 6\nvalue = [1, 0, 1, 6, 0, 0, 0]"] ;
498 -> 499 ;
500 [label="residual sugar <= 2.35\ngini = 0.5\nsamples = 2\nvalue = [1, 0, 1, 0, 0, 0, 0]"] ;
499 -> 500 ;
501 [label="gini = 0.0\nsamples = 1\nvalue = [0, 0, 1, 0, 0, 0, 0]"] ;
500 -> 501 ;
502 [label="gini = 0.0\nsamples = 1\nvalue = [1, 0, 0, 0, 0, 0, 0]"] ;
500 -> 502 ;
503 [label="gini = 0.0\nsamples = 4\nvalue = [0, 0, 0, 6, 0, 0, 0]"] ;
499 -> 503 ;
504 [label="density <= 0.99\ngini = 0.5\nsamples = 2\nvalue = [0, 0, 1, 0, 1, 0, 0]"] ;
498 -> 504 ;
505 [label="gini = 0.0\nsamples = 1\nvalue = [0, 0, 1, 0, 0, 0, 0]"] ;
504 -> 505 ;
506 [label="gini = 0.0\nsamples = 1\nvalue = [0, 0, 0, 0, 1, 0, 0]"] ;
504 -> 506 ;
507 [label="residual sugar <= 1.75\ngini = 0.28\nsamples = 3\nvalue = [0, 0, 1, 0, 5, 0, 0]"] ;
497 -> 507 ;
508 [label="gini = 0.0\nsamples = 1\nvalue = [0, 0, 1, 0, 0, 0, 0]"] ;
507 -> 508 ;
509 [label="gini = 0.0\nsamples = 2\nvalue = [0, 0, 0, 0, 5, 0, 0]"] ;
507 -> 509 ;
510 [label="gini = 0.0\nsamples = 3\nvalue = [0, 0, 0, 6, 0, 0, 0]"] ;
496 -> 510 ;
511 [label="sulphates <= 0.34\ngini = 0.39\nsamples = 48\nvalue = [1, 1, 2, 52, 9, 3, 0]"] ;
493 -> 511 ;
512 [label="citric acid <= 0.34\ngini = 0.5\nsamples = 2\nvalue = [1, 0, 0, 0, 1, 0, 0]"] ;
511 -> 512 ;
513 [label="gini = 0.0\nsamples = 1\nvalue = [0, 0, 0, 0, 1, 0, 0]"] ;
512 -> 513 ;
514 [label="gini = 0.0\nsamples = 1\nvalue = [1, 0, 0, 0, 0, 0, 0]"] ;
512 -> 514 ;
515 [label="chlorides <= 0.02\ngini = 0.36\nsamples = 46\nvalue = [0, 1, 2, 52, 8, 3, 0]"] ;
511 -> 515 ;
516 [label="alcohol <= 12.15\ngini = 0.44\nsamples = 2\nvalue = [0, 0, 1, 0, 2, 0, 0]"] ;
515 -> 516 ;
517 [label="gini = 0.0\nsamples = 1\nvalue = [0, 0, 1, 0, 0, 0, 0]"] ;
516 -> 517 ;
518 [label="gini = 0.0\nsamples = 1\nvalue = [0, 0, 0, 0, 2, 0, 0]"] ;
516 -> 518 ;
519 [label="volatile acidity <= 0.48\ngini = 0.31\nsamples = 44\nvalue = [0, 1, 1, 52, 6, 3, 0]"] ;
515 -> 519 ;
520 [label="sulphates <= 0.75\ngini = 0.29\nsamples = 43\nvalue = [0, 1, 1, 52, 6, 2, 0]"] ;
519 -> 520 ;
521 [label="sulphates <= 0.62\ngini = 0.26\nsamples = 42\nvalue = [0, 0, 1, 52, 6, 2, 0]"] ;
520 -> 521 ;
522 [label="chlorides <= 0.04\ngini = 0.19\nsamples = 34\nvalue = [0, 0, 1, 44, 2, 2, 0]"] ;
521 -> 522 ;
523 [label="pH <= 3.35\ngini = 0.09\nsamples = 28\nvalue = [0, 0, 1, 40, 0, 1, 0]"] ;
522 -> 523 ;
524 [label="gini = 0.0\nsamples = 20\nvalue = [0, 0, 0, 31, 0, 0, 0]"] ;
523 -> 524 ;
525 [label="residual sugar <= 2.5\ngini = 0.31\nsamples = 8\nvalue = [0, 0, 1, 9, 0, 1, 0]"] ;
523 -> 525 ;
526 [label="residual sugar <= 1.8\ngini = 0.62\nsamples = 4\nvalue = [0, 0, 1, 2, 0, 1, 0]"] ;
525 -> 526 ;
527 [label="sulphates <= 0.41\ngini = 0.44\nsamples = 3\nvalue = [0, 0, 0, 2, 0, 1, 0]"] ;
526 -> 527 ;
528 [label="gini = 0.0\nsamples = 1\nvalue = [0, 0, 0, 0, 0, 1, 0]"] ;
527 -> 528 ;
529 [label="gini = 0.0\nsamples = 2\nvalue = [0, 0, 0, 2, 0, 0, 0]"] ;
527 -> 529 ;
530 [label="gini = 0.0\nsamples = 1\nvalue = [0, 0, 1, 0, 0, 0, 0]"] ;
526 -> 530 ;
531 [label="gini = 0.0\nsamples = 4\nvalue = [0, 0, 0, 7, 0, 0, 0]"] ;
525 -> 531 ;
532 [label="residual sugar <= 1.75\ngini = 0.57\nsamples = 6\nvalue = [0, 0, 0, 4, 2, 1, 0]"] ;
522 -> 532 ;
533 [label="gini = 0.0\nsamples = 3\nvalue = [0, 0, 0, 4, 0, 0, 0]"] ;
532 -> 533 ;
534 [label="fixed acidity <= 6.25\ngini = 0.44\nsamples = 3\nvalue = [0, 0, 0, 0, 2, 1, 0]"] ;
532 -> 534 ;
535 [label="gini = 0.0\nsamples = 2\nvalue = [0, 0, 0, 0, 2, 0, 0]"] ;
534 -> 535 ;
536 [label="gini = 0.0\nsamples = 1\nvalue = [0, 0, 0, 0, 0, 1, 0]"] ;
534 -> 536 ;
537 [label="pH <= 3.38\ngini = 0.44\nsamples = 8\nvalue = [0, 0, 0, 8, 4, 0, 0]"] ;
521 -> 537 ;
538 [label="residual sugar <= 4.75\ngini = 0.32\nsamples = 7\nvalue = [0, 0, 0, 8, 2, 0, 0]"] ;
537 -> 538 ;
539 [label="fixed acidity <= 6.7\ngini = 0.5\nsamples = 3\nvalue = [0, 0, 0, 2, 2, 0, 0]"] ;
538 -> 539 ;
540 [label="gini = 0.0\nsamples = 1\nvalue = [0, 0, 0, 2, 0, 0, 0]"] ;
539 -> 540 ;
541 [label="gini = 0.0\nsamples = 2\nvalue = [0, 0, 0, 0, 2, 0, 0]"] ;
539 -> 541 ;
542 [label="gini = 0.0\nsamples = 4\nvalue = [0, 0, 0, 6, 0, 0, 0]"] ;
538 -> 542 ;
543 [label="gini = 0.0\nsamples = 1\nvalue = [0, 0, 0, 0, 2, 0, 0]"] ;
537 -> 543 ;
544 [label="gini = 0.0\nsamples = 1\nvalue = [0, 1, 0, 0, 0, 0, 0]"] ;
520 -> 544 ;
545 [label="gini = 0.0\nsamples = 1\nvalue = [0, 0, 0, 0, 0, 1, 0]"] ;
519 -> 545 ;
546 [label="gini = 0.0\nsamples = 3\nvalue = [0, 0, 0, 0, 0, 6, 0]"] ;
476 -> 546 ;
547 [label="volatile acidity <= 0.3\ngini = 0.59\nsamples = 209\nvalue = [0, 1, 11, 128, 164, 20, 4]"] ;
475 -> 547 ;
548 [label="pH <= 3.37\ngini = 0.59\nsamples = 136\nvalue = [0, 1, 8, 102, 87, 11, 2]"] ;
547 -> 548 ;
549 [label="density <= 0.99\ngini = 0.58\nsamples = 128\nvalue = [0, 1, 6, 102, 75, 10, 2]"] ;
548 -> 549 ;
550 [label="gini = 0.0\nsamples = 13\nvalue = [0, 0, 0, 19, 0, 0, 0]"] ;
549 -> 550 ;
551 [label="citric acid <= 0.45\ngini = 0.6\nsamples = 115\nvalue = [0, 1, 6, 83, 75, 10, 2]"] ;
549 -> 551 ;
552 [label="total sulfur dioxide <= 117.5\ngini = 0.61\nsamples = 105\nvalue = [0, 1, 6, 64, 74, 10, 2]"] ;
551 -> 552 ;
553 [label="free sulfur dioxide <= 37.5\ngini = 0.55\nsamples = 55\nvalue = [0, 0, 3, 48, 28, 4, 0]"] ;
552 -> 553 ;
554 [label="pH <= 3.35\ngini = 0.58\nsamples = 43\nvalue = [0, 0, 3, 34, 27, 3, 0]"] ;
553 -> 554 ;
555 [label="alcohol <= 12.25\ngini = 0.59\nsamples = 39\nvalue = [0, 0, 3, 26, 27, 3, 0]"] ;
554 -> 555 ;
556 [label="density <= 0.99\ngini = 0.58\nsamples = 29\nvalue = [0, 0, 3, 24, 16, 2, 0]"] ;
555 -> 556 ;
557 [label="density <= 0.99\ngini = 0.14\nsamples = 6\nvalue = [0, 0, 0, 12, 1, 0, 0]"] ;
556 -> 557 ;
558 [label="gini = 0.0\nsamples = 4\nvalue = [0, 0, 0, 9, 0, 0, 0]"] ;
557 -> 558 ;
559 [label="density <= 0.99\ngini = 0.38\nsamples = 2\nvalue = [0, 0, 0, 3, 1, 0, 0]"] ;
557 -> 559 ;
560 [label="gini = 0.0\nsamples = 1\nvalue = [0, 0, 0, 0, 1, 0, 0]"] ;
559 -> 560 ;
561 [label="gini = 0.0\nsamples = 1\nvalue = [0, 0, 0, 3, 0, 0, 0]"] ;
559 -> 561 ;
562 [label="volatile acidity <= 0.28\ngini = 0.63\nsamples = 23\nvalue = [0, 0, 3, 12, 15, 2, 0]"] ;
556 -> 562 ;
563 [label="chlorides <= 0.04\ngini = 0.63\nsamples = 17\nvalue = [0, 0, 3, 11, 8, 1, 0]"] ;
562 -> 563 ;
564 [label="free sulfur dioxide <= 33.0\ngini = 0.61\nsamples = 14\nvalue = [0, 0, 3, 11, 5, 1, 0]"] ;
563 -> 564 ;
565 [label="sulphates <= 0.4\ngini = 0.57\nsamples = 12\nvalue = [0, 0, 3, 11, 3, 1, 0]"] ;
564 -> 565 ;
566 [label="gini = 0.0\nsamples = 1\nvalue = [0, 0, 0, 0, 2, 0, 0]"] ;
565 -> 566 ;
567 [label="fixed acidity <= 6.55\ngini = 0.48\nsamples = 11\nvalue = [0, 0, 3, 11, 1, 1, 0]"] ;
565 -> 567 ;
568 [label="chlorides <= 0.03\ngini = 0.62\nsamples = 3\nvalue = [0, 0, 2, 1, 1, 0, 0]"] ;
567 -> 568 ;
569 [label="pH <= 3.32\ngini = 0.5\nsamples = 2\nvalue = [0, 0, 0, 1, 1, 0, 0]"] ;
568 -> 569 ;
570 [label="gini = 0.0\nsamples = 1\nvalue = [0, 0, 0, 1, 0, 0, 0]"] ;
569 -> 570 ;
571 [label="gini = 0.0\nsamples = 1\nvalue = [0, 0, 0, 0, 1, 0, 0]"] ;
569 -> 571 ;
572 [label="gini = 0.0\nsamples = 1\nvalue = [0, 0, 2, 0, 0, 0, 0]"] ;
568 -> 572 ;
573 [label="pH <= 3.32\ngini = 0.29\nsamples = 8\nvalue = [0, 0, 1, 10, 0, 1, 0]"] ;
567 -> 573 ;
574 [label="alcohol <= 11.9\ngini = 0.17\nsamples = 7\nvalue = [0, 0, 1, 10, 0, 0, 0]"] ;
573 -> 574 ;
575 [label="gini = 0.0\nsamples = 5\nvalue = [0, 0, 0, 9, 0, 0, 0]"] ;
574 -> 575 ;
576 [label="fixed acidity <= 7.15\ngini = 0.5\nsamples = 2\nvalue = [0, 0, 1, 1, 0, 0, 0]"] ;
574 -> 576 ;
577 [label="gini = 0.0\nsamples = 1\nvalue = [0, 0, 1, 0, 0, 0, 0]"] ;
576 -> 577 ;
578 [label="gini = 0.0\nsamples = 1\nvalue = [0, 0, 0, 1, 0, 0, 0]"] ;
576 -> 578 ;
579 [label="gini = 0.0\nsamples = 1\nvalue = [0, 0, 0, 0, 0, 1, 0]"] ;
573 -> 579 ;
580 [label="gini = 0.0\nsamples = 2\nvalue = [0, 0, 0, 0, 2, 0, 0]"] ;
564 -> 580 ;
581 [label="gini = 0.0\nsamples = 3\nvalue = [0, 0, 0, 0, 3, 0, 0]"] ;
563 -> 581 ;
582 [label="citric acid <= 0.22\ngini = 0.37\nsamples = 6\nvalue = [0, 0, 0, 1, 7, 1, 0]"] ;
562 -> 582 ;
583 [label="gini = 0.0\nsamples = 1\nvalue = [0, 0, 0, 0, 0, 1, 0]"] ;
582 -> 583 ;
584 [label="free sulfur dioxide <= 25.5\ngini = 0.22\nsamples = 5\nvalue = [0, 0, 0, 1, 7, 0, 0]"] ;
582 -> 584 ;
585 [label="gini = 0.0\nsamples = 1\nvalue = [0, 0, 0, 1, 0, 0, 0]"] ;
584 -> 585 ;
586 [label="gini = 0.0\nsamples = 4\nvalue = [0, 0, 0, 0, 7, 0, 0]"] ;
584 -> 586 ;
587 [label="residual sugar <= 3.4\ngini = 0.36\nsamples = 10\nvalue = [0, 0, 0, 2, 11, 1, 0]"] ;
555 -> 587 ;
588 [label="gini = 0.0\nsamples = 6\nvalue = [0, 0, 0, 0, 10, 0, 0]"] ;
587 -> 588 ;
589 [label="citric acid <= 0.32\ngini = 0.62\nsamples = 4\nvalue = [0, 0, 0, 2, 1, 1, 0]"] ;
587 -> 589 ;
590 [label="gini = 0.0\nsamples = 2\nvalue = [0, 0, 0, 2, 0, 0, 0]"] ;
589 -> 590 ;
591 [label="total sulfur dioxide <= 100.5\ngini = 0.5\nsamples = 2\nvalue = [0, 0, 0, 0, 1, 1, 0]"] ;
589 -> 591 ;
592 [label="gini = 0.0\nsamples = 1\nvalue = [0, 0, 0, 0, 1, 0, 0]"] ;
591 -> 592 ;
593 [label="gini = 0.0\nsamples = 1\nvalue = [0, 0, 0, 0, 0, 1, 0]"] ;
591 -> 593 ;
594 [label="gini = 0.0\nsamples = 4\nvalue = [0, 0, 0, 8, 0, 0, 0]"] ;
554 -> 594 ;
595 [label="fixed acidity <= 5.85\ngini = 0.23\nsamples = 12\nvalue = [0, 0, 0, 14, 1, 1, 0]"] ;
553 -> 595 ;
596 [label="gini = 0.0\nsamples = 1\nvalue = [0, 0, 0, 0, 0, 1, 0]"] ;
595 -> 596 ;
597 [label="volatile acidity <= 0.23\ngini = 0.12\nsamples = 11\nvalue = [0, 0, 0, 14, 1, 0, 0]"] ;
595 -> 597 ;
598 [label="gini = 0.0\nsamples = 7\nvalue = [0, 0, 0, 10, 0, 0, 0]"] ;
597 -> 598 ;
599 [label="volatile acidity <= 0.23\ngini = 0.32\nsamples = 4\nvalue = [0, 0, 0, 4, 1, 0, 0]"] ;
597 -> 599 ;
600 [label="gini = 0.0\nsamples = 1\nvalue = [0, 0, 0, 0, 1, 0, 0]"] ;
599 -> 600 ;
601 [label="gini = 0.0\nsamples = 3\nvalue = [0, 0, 0, 4, 0, 0, 0]"] ;
599 -> 601 ;
602 [label="fixed acidity <= 6.45\ngini = 0.56\nsamples = 50\nvalue = [0, 1, 3, 16, 46, 6, 2]"] ;
552 -> 602 ;
603 [label="volatile acidity <= 0.25\ngini = 0.68\nsamples = 22\nvalue = [0, 1, 3, 11, 15, 4, 0]"] ;
602 -> 603 ;
604 [label="residual sugar <= 1.03\ngini = 0.55\nsamples = 13\nvalue = [0, 0, 3, 5, 12, 0, 0]"] ;
603 -> 604 ;
605 [label="gini = 0.0\nsamples = 1\nvalue = [0, 0, 2, 0, 0, 0, 0]"] ;
604 -> 605 ;
606 [label="residual sugar <= 6.0\ngini = 0.48\nsamples = 12\nvalue = [0, 0, 1, 5, 12, 0, 0]"] ;
604 -> 606 ;
607 [label="citric acid <= 0.38\ngini = 0.4\nsamples = 11\nvalue = [0, 0, 1, 3, 12, 0, 0]"] ;
606 -> 607 ;
608 [label="density <= 0.99\ngini = 0.24\nsamples = 9\nvalue = [0, 0, 0, 2, 12, 0, 0]"] ;
607 -> 608 ;
609 [label="chlorides <= 0.03\ngini = 0.44\nsamples = 2\nvalue = [0, 0, 0, 2, 1, 0, 0]"] ;
608 -> 609 ;
610 [label="gini = 0.0\nsamples = 1\nvalue = [0, 0, 0, 0, 1, 0, 0]"] ;
609 -> 610 ;
611 [label="gini = 0.0\nsamples = 1\nvalue = [0, 0, 0, 2, 0, 0, 0]"] ;
609 -> 611 ;
612 [label="gini = 0.0\nsamples = 7\nvalue = [0, 0, 0, 0, 11, 0, 0]"] ;
608 -> 612 ;
613 [label="residual sugar <= 1.85\ngini = 0.5\nsamples = 2\nvalue = [0, 0, 1, 1, 0, 0, 0]"] ;
607 -> 613 ;
614 [label="gini = 0.0\nsamples = 1\nvalue = [0, 0, 0, 1, 0, 0, 0]"] ;
613 -> 614 ;
615 [label="gini = 0.0\nsamples = 1\nvalue = [0, 0, 1, 0, 0, 0, 0]"] ;
613 -> 615 ;
616 [label="gini = 0.0\nsamples = 1\nvalue = [0, 0, 0, 2, 0, 0, 0]"] ;
606 -> 616 ;
617 [label="alcohol <= 12.6\ngini = 0.68\nsamples = 9\nvalue = [0, 1, 0, 6, 3, 4, 0]"] ;
603 -> 617 ;
618 [label="chlorides <= 0.04\ngini = 0.56\nsamples = 8\nvalue = [0, 1, 0, 6, 0, 4, 0]"] ;
617 -> 618 ;
619 [label="alcohol <= 11.95\ngini = 0.5\nsamples = 5\nvalue = [0, 1, 0, 1, 0, 4, 0]"] ;
618 -> 619 ;
620 [label="gini = 0.0\nsamples = 1\nvalue = [0, 1, 0, 0, 0, 0, 0]"] ;
619 -> 620 ;
621 [label="chlorides <= 0.03\ngini = 0.32\nsamples = 4\nvalue = [0, 0, 0, 1, 0, 4, 0]"] ;
619 -> 621 ;
622 [label="gini = 0.0\nsamples = 1\nvalue = [0, 0, 0, 1, 0, 0, 0]"] ;
621 -> 622 ;
623 [label="gini = 0.0\nsamples = 3\nvalue = [0, 0, 0, 0, 0, 4, 0]"] ;
621 -> 623 ;
624 [label="gini = 0.0\nsamples = 3\nvalue = [0, 0, 0, 5, 0, 0, 0]"] ;
618 -> 624 ;
625 [label="gini = 0.0\nsamples = 1\nvalue = [0, 0, 0, 0, 3, 0, 0]"] ;
617 -> 625 ;
626 [label="sulphates <= 0.47\ngini = 0.38\nsamples = 28\nvalue = [0, 0, 0, 5, 31, 2, 2]"] ;
602 -> 626 ;
627 [label="sulphates <= 0.37\ngini = 0.16\nsamples = 15\nvalue = [0, 0, 0, 1, 22, 1, 0]"] ;
626 -> 627 ;
628 [label="chlorides <= 0.04\ngini = 0.28\nsamples = 3\nvalue = [0, 0, 0, 1, 5, 0, 0]"] ;
627 -> 628 ;
629 [label="gini = 0.0\nsamples = 2\nvalue = [0, 0, 0, 0, 5, 0, 0]"] ;
628 -> 629 ;
630 [label="gini = 0.0\nsamples = 1\nvalue = [0, 0, 0, 1, 0, 0, 0]"] ;
628 -> 630 ;
631 [label="citric acid <= 0.36\ngini = 0.1\nsamples = 12\nvalue = [0, 0, 0, 0, 17, 1, 0]"] ;
627 -> 631 ;
632 [label="gini = 0.0\nsamples = 11\nvalue = [0, 0, 0, 0, 17, 0, 0]"] ;
631 -> 632 ;
633 [label="gini = 0.0\nsamples = 1\nvalue = [0, 0, 0, 0, 0, 1, 0]"] ;
631 -> 633 ;
634 [label="sulphates <= 0.47\ngini = 0.6\nsamples = 13\nvalue = [0, 0, 0, 4, 9, 1, 2]"] ;
626 -> 634 ;
635 [label="gini = 0.0\nsamples = 2\nvalue = [0, 0, 0, 2, 0, 0, 0]"] ;
634 -> 635 ;
636 [label="fixed acidity <= 6.85\ngini = 0.54\nsamples = 11\nvalue = [0, 0, 0, 2, 9, 1, 2]"] ;
634 -> 636 ;
637 [label="gini = 0.0\nsamples = 5\nvalue = [0, 0, 0, 0, 6, 0, 0]"] ;
636 -> 637 ;
638 [label="free sulfur dioxide <= 28.5\ngini = 0.72\nsamples = 6\nvalue = [0, 0, 0, 2, 3, 1, 2]"] ;
636 -> 638 ;
639 [label="fixed acidity <= 7.15\ngini = 0.44\nsamples = 2\nvalue = [0, 0, 0, 0, 0, 1, 2]"] ;
638 -> 639 ;
640 [label="gini = 0.0\nsamples = 1\nvalue = [0, 0, 0, 0, 0, 1, 0]"] ;
639 -> 640 ;
641 [label="gini = 0.0\nsamples = 1\nvalue = [0, 0, 0, 0, 0, 0, 2]"] ;
639 -> 641 ;
642 [label="density <= 0.99\ngini = 0.48\nsamples = 4\nvalue = [0, 0, 0, 2, 3, 0, 0]"] ;
638 -> 642 ;
643 [label="pH <= 3.13\ngini = 0.44\nsamples = 3\nvalue = [0, 0, 0, 2, 1, 0, 0]"] ;
642 -> 643 ;
644 [label="gini = 0.0\nsamples = 2\nvalue = [0, 0, 0, 2, 0, 0, 0]"] ;
643 -> 644 ;
645 [label="gini = 0.0\nsamples = 1\nvalue = [0, 0, 0, 0, 1, 0, 0]"] ;
643 -> 645 ;
646 [label="gini = 0.0\nsamples = 1\nvalue = [0, 0, 0, 0, 2, 0, 0]"] ;
642 -> 646 ;
647 [label="fixed acidity <= 6.2\ngini = 0.09\nsamples = 10\nvalue = [0, 0, 0, 19, 1, 0, 0]"] ;
551 -> 647 ;
648 [label="gini = 0.0\nsamples = 1\nvalue = [0, 0, 0, 0, 1, 0, 0]"] ;
647 -> 648 ;
649 [label="gini = 0.0\nsamples = 9\nvalue = [0, 0, 0, 19, 0, 0, 0]"] ;
647 -> 649 ;
650 [label="residual sugar <= 1.1\ngini = 0.34\nsamples = 8\nvalue = [0, 0, 2, 0, 12, 1, 0]"] ;
548 -> 650 ;
651 [label="pH <= 3.46\ngini = 0.44\nsamples = 2\nvalue = [0, 0, 2, 0, 0, 1, 0]"] ;
650 -> 651 ;
652 [label="gini = 0.0\nsamples = 1\nvalue = [0, 0, 0, 0, 0, 1, 0]"] ;
651 -> 652 ;
653 [label="gini = 0.0\nsamples = 1\nvalue = [0, 0, 2, 0, 0, 0, 0]"] ;
651 -> 653 ;
654 [label="gini = 0.0\nsamples = 6\nvalue = [0, 0, 0, 0, 12, 0, 0]"] ;
650 -> 654 ;
655 [label="sulphates <= 0.38\ngini = 0.51\nsamples = 73\nvalue = [0, 0, 3, 26, 77, 9, 2]"] ;
547 -> 655 ;
656 [label="sulphates <= 0.31\ngini = 0.63\nsamples = 18\nvalue = [0, 0, 2, 12, 10, 1, 1]"] ;
655 -> 656 ;
657 [label="gini = 0.0\nsamples = 2\nvalue = [0, 0, 0, 0, 4, 0, 0]"] ;
656 -> 657 ;
658 [label="total sulfur dioxide <= 116.5\ngini = 0.62\nsamples = 16\nvalue = [0, 0, 2, 12, 6, 1, 1]"] ;
656 -> 658 ;
659 [label="sulphates <= 0.36\ngini = 0.38\nsamples = 8\nvalue = [0, 0, 2, 10, 1, 0, 0]"] ;
658 -> 659 ;
660 [label="gini = 0.0\nsamples = 4\nvalue = [0, 0, 0, 8, 0, 0, 0]"] ;
659 -> 660 ;
661 [label="alcohol <= 12.65\ngini = 0.64\nsamples = 4\nvalue = [0, 0, 2, 2, 1, 0, 0]"] ;
659 -> 661 ;
662 [label="density <= 0.99\ngini = 0.44\nsamples = 3\nvalue = [0, 0, 0, 2, 1, 0, 0]"] ;
661 -> 662 ;
663 [label="gini = 0.0\nsamples = 1\nvalue = [0, 0, 0, 0, 1, 0, 0]"] ;
662 -> 663 ;
664 [label="gini = 0.0\nsamples = 2\nvalue = [0, 0, 0, 2, 0, 0, 0]"] ;
662 -> 664 ;
665 [label="gini = 0.0\nsamples = 1\nvalue = [0, 0, 2, 0, 0, 0, 0]"] ;
661 -> 665 ;
666 [label="total sulfur dioxide <= 120.5\ngini = 0.62\nsamples = 8\nvalue = [0, 0, 0, 2, 5, 1, 1]"] ;
658 -> 666 ;
667 [label="pH <= 3.32\ngini = 0.5\nsamples = 2\nvalue = [0, 0, 0, 0, 0, 1, 1]"] ;
666 -> 667 ;
668 [label="gini = 0.0\nsamples = 1\nvalue = [0, 0, 0, 0, 0, 0, 1]"] ;
667 -> 668 ;
669 [label="gini = 0.0\nsamples = 1\nvalue = [0, 0, 0, 0, 0, 1, 0]"] ;
667 -> 669 ;
670 [label="fixed acidity <= 6.9\ngini = 0.41\nsamples = 6\nvalue = [0, 0, 0, 2, 5, 0, 0]"] ;
666 -> 670 ;
671 [label="citric acid <= 0.26\ngini = 0.44\nsamples = 3\nvalue = [0, 0, 0, 2, 1, 0, 0]"] ;
670 -> 671 ;
672 [label="gini = 0.0\nsamples = 1\nvalue = [0, 0, 0, 0, 1, 0, 0]"] ;
671 -> 672 ;
673 [label="gini = 0.0\nsamples = 2\nvalue = [0, 0, 0, 2, 0, 0, 0]"] ;
671 -> 673 ;
674 [label="gini = 0.0\nsamples = 3\nvalue = [0, 0, 0, 0, 4, 0, 0]"] ;
670 -> 674 ;
675 [label="free sulfur dioxide <= 36.5\ngini = 0.43\nsamples = 55\nvalue = [0, 0, 1, 14, 67, 8, 1]"] ;
655 -> 675 ;
676 [label="chlorides <= 0.03\ngini = 0.53\nsamples = 39\nvalue = [0, 0, 1, 13, 42, 8, 1]"] ;
675 -> 676 ;
677 [label="sulphates <= 0.62\ngini = 0.63\nsamples = 21\nvalue = [0, 0, 0, 9, 18, 7, 1]"] ;
676 -> 677 ;
678 [label="residual sugar <= 1.45\ngini = 0.68\nsamples = 18\nvalue = [0, 0, 0, 9, 10, 7, 1]"] ;
677 -> 678 ;
679 [label="gini = 0.0\nsamples = 2\nvalue = [0, 0, 0, 0, 0, 4, 0]"] ;
678 -> 679 ;
680 [label="total sulfur dioxide <= 99.5\ngini = 0.64\nsamples = 16\nvalue = [0, 0, 0, 9, 10, 3, 1]"] ;
678 -> 680 ;
681 [label="residual sugar <= 2.0\ngini = 0.54\nsamples = 9\nvalue = [0, 0, 0, 2, 9, 2, 1]"] ;
680 -> 681 ;
682 [label="total sulfur dioxide <= 89.0\ngini = 0.44\nsamples = 2\nvalue = [0, 0, 0, 2, 0, 0, 1]"] ;
681 -> 682 ;
683 [label="gini = 0.0\nsamples = 1\nvalue = [0, 0, 0, 0, 0, 0, 1]"] ;
682 -> 683 ;
684 [label="gini = 0.0\nsamples = 1\nvalue = [0, 0, 0, 2, 0, 0, 0]"] ;
682 -> 684 ;
685 [label="sulphates <= 0.56\ngini = 0.3\nsamples = 7\nvalue = [0, 0, 0, 0, 9, 2, 0]"] ;
681 -> 685 ;
686 [label="gini = 0.0\nsamples = 6\nvalue = [0, 0, 0, 0, 9, 0, 0]"] ;
685 -> 686 ;
687 [label="gini = 0.0\nsamples = 1\nvalue = [0, 0, 0, 0, 0, 2, 0]"] ;
685 -> 687 ;
688 [label="sulphates <= 0.56\ngini = 0.37\nsamples = 7\nvalue = [0, 0, 0, 7, 1, 1, 0]"] ;
680 -> 688 ;
689 [label="total sulfur dioxide <= 143.0\ngini = 0.22\nsamples = 6\nvalue = [0, 0, 0, 7, 1, 0, 0]"] ;
688 -> 689 ;
690 [label="gini = 0.0\nsamples = 5\nvalue = [0, 0, 0, 7, 0, 0, 0]"] ;
689 -> 690 ;
691 [label="gini = 0.0\nsamples = 1\nvalue = [0, 0, 0, 0, 1, 0, 0]"] ;
689 -> 691 ;
692 [label="gini = 0.0\nsamples = 1\nvalue = [0, 0, 0, 0, 0, 1, 0]"] ;
688 -> 692 ;
693 [label="gini = 0.0\nsamples = 3\nvalue = [0, 0, 0, 0, 8, 0, 0]"] ;
677 -> 693 ;
694 [label="citric acid <= 0.34\ngini = 0.34\nsamples = 18\nvalue = [0, 0, 1, 4, 24, 1, 0]"] ;
676 -> 694 ;
695 [label="total sulfur dioxide <= 80.0\ngini = 0.16\nsamples = 13\nvalue = [0, 0, 1, 1, 22, 0, 0]"] ;
694 -> 695 ;
696 [label="gini = 0.0\nsamples = 1\nvalue = [0, 0, 0, 1, 0, 0, 0]"] ;
695 -> 696 ;
697 [label="chlorides <= 0.04\ngini = 0.08\nsamples = 12\nvalue = [0, 0, 1, 0, 22, 0, 0]"] ;
695 -> 697 ;
698 [label="gini = 0.0\nsamples = 8\nvalue = [0, 0, 0, 0, 18, 0, 0]"] ;
697 -> 698 ;
699 [label="fixed acidity <= 6.7\ngini = 0.32\nsamples = 4\nvalue = [0, 0, 1, 0, 4, 0, 0]"] ;
697 -> 699 ;
700 [label="gini = 0.0\nsamples = 3\nvalue = [0, 0, 0, 0, 4, 0, 0]"] ;
699 -> 700 ;
701 [label="gini = 0.0\nsamples = 1\nvalue = [0, 0, 1, 0, 0, 0, 0]"] ;
699 -> 701 ;
702 [label="total sulfur dioxide <= 115.0\ngini = 0.61\nsamples = 5\nvalue = [0, 0, 0, 3, 2, 1, 0]"] ;
694 -> 702 ;
703 [label="pH <= 3.26\ngini = 0.44\nsamples = 3\nvalue = [0, 0, 0, 0, 2, 1, 0]"] ;
702 -> 703 ;
704 [label="gini = 0.0\nsamples = 2\nvalue = [0, 0, 0, 0, 2, 0, 0]"] ;
703 -> 704 ;
705 [label="gini = 0.0\nsamples = 1\nvalue = [0, 0, 0, 0, 0, 1, 0]"] ;
703 -> 705 ;
706 [label="gini = 0.0\nsamples = 2\nvalue = [0, 0, 0, 3, 0, 0, 0]"] ;
702 -> 706 ;
707 [label="volatile acidity <= 0.58\ngini = 0.07\nsamples = 16\nvalue = [0, 0, 0, 1, 25, 0, 0]"] ;
675 -> 707 ;
708 [label="gini = 0.0\nsamples = 15\nvalue = [0, 0, 0, 0, 25, 0, 0]"] ;
707 -> 708 ;
709 [label="gini = 0.0\nsamples = 1\nvalue = [0, 0, 0, 1, 0, 0, 0]"] ;
707 -> 709 ;
710 [label="chlorides <= 0.03\ngini = 0.4\nsamples = 36\nvalue = [0, 0, 2, 54, 6, 9, 0]"] ;
410 -> 710 ;
711 [label="chlorides <= 0.03\ngini = 0.62\nsamples = 16\nvalue = [0, 0, 0, 13, 6, 7, 0]"] ;
710 -> 711 ;
712 [label="total sulfur dioxide <= 173.5\ngini = 0.43\nsamples = 11\nvalue = [0, 0, 0, 13, 4, 1, 0]"] ;
711 -> 712 ;
713 [label="gini = 0.0\nsamples = 3\nvalue = [0, 0, 0, 8, 0, 0, 0]"] ;
712 -> 713 ;
714 [label="fixed acidity <= 5.8\ngini = 0.58\nsamples = 8\nvalue = [0, 0, 0, 5, 4, 1, 0]"] ;
712 -> 714 ;
715 [label="gini = 0.0\nsamples = 2\nvalue = [0, 0, 0, 0, 3, 0, 0]"] ;
714 -> 715 ;
716 [label="sulphates <= 0.7\ngini = 0.45\nsamples = 6\nvalue = [0, 0, 0, 5, 1, 1, 0]"] ;
714 -> 716 ;
717 [label="pH <= 3.28\ngini = 0.28\nsamples = 5\nvalue = [0, 0, 0, 5, 0, 1, 0]"] ;
716 -> 717 ;
718 [label="gini = 0.0\nsamples = 4\nvalue = [0, 0, 0, 5, 0, 0, 0]"] ;
717 -> 718 ;
719 [label="gini = 0.0\nsamples = 1\nvalue = [0, 0, 0, 0, 0, 1, 0]"] ;
717 -> 719 ;
720 [label="gini = 0.0\nsamples = 1\nvalue = [0, 0, 0, 0, 1, 0, 0]"] ;
716 -> 720 ;
721 [label="alcohol <= 12.1\ngini = 0.38\nsamples = 5\nvalue = [0, 0, 0, 0, 2, 6, 0]"] ;
711 -> 721 ;
722 [label="gini = 0.0\nsamples = 2\nvalue = [0, 0, 0, 0, 0, 5, 0]"] ;
721 -> 722 ;
723 [label="citric acid <= 0.19\ngini = 0.44\nsamples = 3\nvalue = [0, 0, 0, 0, 2, 1, 0]"] ;
721 -> 723 ;
724 [label="gini = 0.0\nsamples = 1\nvalue = [0, 0, 0, 0, 0, 1, 0]"] ;
723 -> 724 ;
725 [label="gini = 0.0\nsamples = 2\nvalue = [0, 0, 0, 0, 2, 0, 0]"] ;
723 -> 725 ;
726 [label="pH <= 3.03\ngini = 0.17\nsamples = 20\nvalue = [0, 0, 2, 41, 0, 2, 0]"] ;
710 -> 726 ;
727 [label="total sulfur dioxide <= 173.0\ngini = 0.48\nsamples = 2\nvalue = [0, 0, 2, 3, 0, 0, 0]"] ;
726 -> 727 ;
728 [label="gini = 0.0\nsamples = 1\nvalue = [0, 0, 2, 0, 0, 0, 0]"] ;
727 -> 728 ;
729 [label="gini = 0.0\nsamples = 1\nvalue = [0, 0, 0, 3, 0, 0, 0]"] ;
727 -> 729 ;
730 [label="free sulfur dioxide <= 76.0\ngini = 0.09\nsamples = 18\nvalue = [0, 0, 0, 38, 0, 2, 0]"] ;
726 -> 730 ;
731 [label="volatile acidity <= 0.17\ngini = 0.05\nsamples = 17\nvalue = [0, 0, 0, 38, 0, 1, 0]"] ;
730 -> 731 ;
732 [label="gini = 0.0\nsamples = 1\nvalue = [0, 0, 0, 0, 0, 1, 0]"] ;
731 -> 732 ;
733 [label="gini = 0.0\nsamples = 16\nvalue = [0, 0, 0, 38, 0, 0, 0]"] ;
731 -> 733 ;
734 [label="gini = 0.0\nsamples = 1\nvalue = [0, 0, 0, 0, 0, 1, 0]"] ;
730 -> 734 ;
735 [label="volatile acidity <= 0.52\ngini = 0.66\nsamples = 113\nvalue = [0, 4, 6, 50, 89, 36, 0]"] ;
409 -> 735 ;
736 [label="chlorides <= 0.04\ngini = 0.61\nsamples = 104\nvalue = [0, 0, 5, 45, 87, 25, 0]"] ;
735 -> 736 ;
737 [label="fixed acidity <= 6.05\ngini = 0.57\nsamples = 91\nvalue = [0, 0, 1, 33, 82, 24, 0]"] ;
736 -> 737 ;
738 [label="sulphates <= 0.29\ngini = 0.42\nsamples = 31\nvalue = [0, 0, 0, 2, 32, 10, 0]"] ;
737 -> 738 ;
739 [label="gini = 0.0\nsamples = 1\nvalue = [0, 0, 0, 0, 0, 2, 0]"] ;
738 -> 739 ;
740 [label="total sulfur dioxide <= 113.0\ngini = 0.38\nsamples = 30\nvalue = [0, 0, 0, 2, 32, 8, 0]"] ;
738 -> 740 ;
741 [label="fixed acidity <= 4.7\ngini = 0.19\nsamples = 12\nvalue = [0, 0, 0, 2, 17, 0, 0]"] ;
740 -> 741 ;
742 [label="gini = 0.0\nsamples = 1\nvalue = [0, 0, 0, 1, 0, 0, 0]"] ;
741 -> 742 ;
743 [label="free sulfur dioxide <= 20.0\ngini = 0.1\nsamples = 11\nvalue = [0, 0, 0, 1, 17, 0, 0]"] ;
741 -> 743 ;
744 [label="free sulfur dioxide <= 15.0\ngini = 0.44\nsamples = 2\nvalue = [0, 0, 0, 1, 2, 0, 0]"] ;
743 -> 744 ;
745 [label="gini = 0.0\nsamples = 1\nvalue = [0, 0, 0, 0, 2, 0, 0]"] ;
744 -> 745 ;
746 [label="gini = 0.0\nsamples = 1\nvalue = [0, 0, 0, 1, 0, 0, 0]"] ;
744 -> 746 ;
747 [label="gini = 0.0\nsamples = 9\nvalue = [0, 0, 0, 0, 15, 0, 0]"] ;
743 -> 747 ;
748 [label="chlorides <= 0.03\ngini = 0.45\nsamples = 18\nvalue = [0, 0, 0, 0, 15, 8, 0]"] ;
740 -> 748 ;
749 [label="gini = 0.0\nsamples = 4\nvalue = [0, 0, 0, 0, 0, 5, 0]"] ;
748 -> 749 ;
750 [label="residual sugar <= 4.0\ngini = 0.28\nsamples = 14\nvalue = [0, 0, 0, 0, 15, 3, 0]"] ;
748 -> 750 ;
751 [label="gini = 0.0\nsamples = 10\nvalue = [0, 0, 0, 0, 14, 0, 0]"] ;
750 -> 751 ;
752 [label="volatile acidity <= 0.41\ngini = 0.38\nsamples = 4\nvalue = [0, 0, 0, 0, 1, 3, 0]"] ;
750 -> 752 ;
753 [label="gini = 0.0\nsamples = 3\nvalue = [0, 0, 0, 0, 0, 3, 0]"] ;
752 -> 753 ;
754 [label="gini = 0.0\nsamples = 1\nvalue = [0, 0, 0, 0, 1, 0, 0]"] ;
752 -> 754 ;
755 [label="volatile acidity <= 0.18\ngini = 0.6\nsamples = 60\nvalue = [0, 0, 1, 31, 50, 14, 0]"] ;
737 -> 755 ;
756 [label="sulphates <= 0.42\ngini = 0.5\nsamples = 6\nvalue = [0, 0, 0, 6, 0, 6, 0]"] ;
755 -> 756 ;
757 [label="residual sugar <= 1.75\ngini = 0.24\nsamples = 3\nvalue = [0, 0, 0, 1, 0, 6, 0]"] ;
756 -> 757 ;
758 [label="gini = 0.0\nsamples = 2\nvalue = [0, 0, 0, 0, 0, 6, 0]"] ;
757 -> 758 ;
759 [label="gini = 0.0\nsamples = 1\nvalue = [0, 0, 0, 1, 0, 0, 0]"] ;
757 -> 759 ;
760 [label="gini = 0.0\nsamples = 3\nvalue = [0, 0, 0, 5, 0, 0, 0]"] ;
756 -> 760 ;
761 [label="pH <= 3.0\ngini = 0.55\nsamples = 54\nvalue = [0, 0, 1, 25, 50, 8, 0]"] ;
755 -> 761 ;
762 [label="density <= 0.99\ngini = 0.41\nsamples = 4\nvalue = [0, 0, 0, 0, 2, 5, 0]"] ;
761 -> 762 ;
763 [label="gini = 0.0\nsamples = 2\nvalue = [0, 0, 0, 0, 0, 5, 0]"] ;
762 -> 763 ;
764 [label="gini = 0.0\nsamples = 2\nvalue = [0, 0, 0, 0, 2, 0, 0]"] ;
762 -> 764 ;
765 [label="chlorides <= 0.02\ngini = 0.5\nsamples = 50\nvalue = [0, 0, 1, 25, 48, 3, 0]"] ;
761 -> 765 ;
766 [label="gini = 0.0\nsamples = 5\nvalue = [0, 0, 0, 0, 7, 0, 0]"] ;
765 -> 766 ;
767 [label="density <= 0.99\ngini = 0.53\nsamples = 45\nvalue = [0, 0, 1, 25, 41, 3, 0]"] ;
765 -> 767 ;
768 [label="total sulfur dioxide <= 116.0\ngini = 0.55\nsamples = 40\nvalue = [0, 0, 1, 25, 35, 3, 0]"] ;
767 -> 768 ;
769 [label="free sulfur dioxide <= 16.0\ngini = 0.52\nsamples = 25\nvalue = [0, 0, 1, 11, 26, 3, 0]"] ;
768 -> 769 ;
770 [label="pH <= 3.29\ngini = 0.35\nsamples = 6\nvalue = [0, 0, 0, 7, 2, 0, 0]"] ;
769 -> 770 ;
771 [label="gini = 0.0\nsamples = 5\nvalue = [0, 0, 0, 7, 0, 0, 0]"] ;
770 -> 771 ;
772 [label="gini = 0.0\nsamples = 1\nvalue = [0, 0, 0, 0, 2, 0, 0]"] ;
770 -> 772 ;
773 [label="citric acid <= 0.26\ngini = 0.41\nsamples = 19\nvalue = [0, 0, 1, 4, 24, 3, 0]"] ;
769 -> 773 ;
774 [label="density <= 0.99\ngini = 0.64\nsamples = 6\nvalue = [0, 0, 0, 4, 4, 2, 0]"] ;
773 -> 774 ;
775 [label="fixed acidity <= 6.45\ngini = 0.62\nsamples = 5\nvalue = [0, 0, 0, 2, 4, 2, 0]"] ;
774 -> 775 ;
776 [label="gini = 0.0\nsamples = 2\nvalue = [0, 0, 0, 0, 0, 2, 0]"] ;
775 -> 776 ;
777 [label="density <= 0.99\ngini = 0.44\nsamples = 3\nvalue = [0, 0, 0, 2, 4, 0, 0]"] ;
775 -> 777 ;
778 [label="gini = 0.0\nsamples = 1\nvalue = [0, 0, 0, 2, 0, 0, 0]"] ;
777 -> 778 ;
779 [label="gini = 0.0\nsamples = 2\nvalue = [0, 0, 0, 0, 4, 0, 0]"] ;
777 -> 779 ;
780 [label="gini = 0.0\nsamples = 1\nvalue = [0, 0, 0, 2, 0, 0, 0]"] ;
774 -> 780 ;
781 [label="fixed acidity <= 6.35\ngini = 0.17\nsamples = 13\nvalue = [0, 0, 1, 0, 20, 1, 0]"] ;
773 -> 781 ;
782 [label="sulphates <= 0.41\ngini = 0.38\nsamples = 3\nvalue = [0, 0, 1, 0, 3, 0, 0]"] ;
781 -> 782 ;
783 [label="gini = 0.0\nsamples = 2\nvalue = [0, 0, 0, 0, 3, 0, 0]"] ;
782 -> 783 ;
784 [label="gini = 0.0\nsamples = 1\nvalue = [0, 0, 1, 0, 0, 0, 0]"] ;
782 -> 784 ;
785 [label="volatile acidity <= 0.39\ngini = 0.1\nsamples = 10\nvalue = [0, 0, 0, 0, 17, 1, 0]"] ;
781 -> 785 ;
786 [label="gini = 0.0\nsamples = 9\nvalue = [0, 0, 0, 0, 17, 0, 0]"] ;
785 -> 786 ;
787 [label="gini = 0.0\nsamples = 1\nvalue = [0, 0, 0, 0, 0, 1, 0]"] ;
785 -> 787 ;
788 [label="pH <= 3.21\ngini = 0.48\nsamples = 15\nvalue = [0, 0, 0, 14, 9, 0, 0]"] ;
768 -> 788 ;
789 [label="sulphates <= 0.42\ngini = 0.35\nsamples = 12\nvalue = [0, 0, 0, 14, 4, 0, 0]"] ;
788 -> 789 ;
790 [label="pH <= 3.11\ngini = 0.15\nsamples = 8\nvalue = [0, 0, 0, 11, 1, 0, 0]"] ;
789 -> 790 ;
791 [label="density <= 0.99\ngini = 0.44\nsamples = 3\nvalue = [0, 0, 0, 2, 1, 0, 0]"] ;
790 -> 791 ;
792 [label="gini = 0.0\nsamples = 1\nvalue = [0, 0, 0, 0, 1, 0, 0]"] ;
791 -> 792 ;
793 [label="gini = 0.0\nsamples = 2\nvalue = [0, 0, 0, 2, 0, 0, 0]"] ;
791 -> 793 ;
794 [label="gini = 0.0\nsamples = 5\nvalue = [0, 0, 0, 9, 0, 0, 0]"] ;
790 -> 794 ;
795 [label="pH <= 3.04\ngini = 0.5\nsamples = 4\nvalue = [0, 0, 0, 3, 3, 0, 0]"] ;
789 -> 795 ;
796 [label="gini = 0.0\nsamples = 2\nvalue = [0, 0, 0, 3, 0, 0, 0]"] ;
795 -> 796 ;
797 [label="gini = 0.0\nsamples = 2\nvalue = [0, 0, 0, 0, 3, 0, 0]"] ;
795 -> 797 ;
798 [label="gini = 0.0\nsamples = 3\nvalue = [0, 0, 0, 0, 5, 0, 0]"] ;
788 -> 798 ;
799 [label="gini = 0.0\nsamples = 5\nvalue = [0, 0, 0, 0, 6, 0, 0]"] ;
767 -> 799 ;
800 [label="alcohol <= 13.35\ngini = 0.62\nsamples = 13\nvalue = [0, 0, 4, 12, 5, 1, 0]"] ;
736 -> 800 ;
801 [label="pH <= 3.21\ngini = 0.7\nsamples = 10\nvalue = [0, 0, 4, 5, 5, 1, 0]"] ;
800 -> 801 ;
802 [label="citric acid <= 0.42\ngini = 0.59\nsamples = 6\nvalue = [0, 0, 4, 4, 0, 1, 0]"] ;
801 -> 802 ;
803 [label="free sulfur dioxide <= 20.5\ngini = 0.32\nsamples = 4\nvalue = [0, 0, 0, 4, 0, 1, 0]"] ;
802 -> 803 ;
804 [label="gini = 0.0\nsamples = 2\nvalue = [0, 0, 0, 3, 0, 0, 0]"] ;
803 -> 804 ;
805 [label="residual sugar <= 2.5\ngini = 0.5\nsamples = 2\nvalue = [0, 0, 0, 1, 0, 1, 0]"] ;
803 -> 805 ;
806 [label="gini = 0.0\nsamples = 1\nvalue = [0, 0, 0, 1, 0, 0, 0]"] ;
805 -> 806 ;
807 [label="gini = 0.0\nsamples = 1\nvalue = [0, 0, 0, 0, 0, 1, 0]"] ;
805 -> 807 ;
808 [label="gini = 0.0\nsamples = 2\nvalue = [0, 0, 4, 0, 0, 0, 0]"] ;
802 -> 808 ;
809 [label="citric acid <= 0.25\ngini = 0.28\nsamples = 4\nvalue = [0, 0, 0, 1, 5, 0, 0]"] ;
801 -> 809 ;
810 [label="gini = 0.0\nsamples = 1\nvalue = [0, 0, 0, 1, 0, 0, 0]"] ;
809 -> 810 ;
811 [label="gini = 0.0\nsamples = 3\nvalue = [0, 0, 0, 0, 5, 0, 0]"] ;
809 -> 811 ;
812 [label="gini = 0.0\nsamples = 3\nvalue = [0, 0, 0, 7, 0, 0, 0]"] ;
800 -> 812 ;
813 [label="free sulfur dioxide <= 26.0\ngini = 0.68\nsamples = 9\nvalue = [0, 4, 1, 5, 2, 11, 0]"] ;
735 -> 813 ;
814 [label="residual sugar <= 2.25\ngini = 0.58\nsamples = 4\nvalue = [0, 4, 1, 5, 0, 0, 0]"] ;
813 -> 814 ;
815 [label="sulphates <= 0.35\ngini = 0.32\nsamples = 2\nvalue = [0, 4, 1, 0, 0, 0, 0]"] ;
814 -> 815 ;
816 [label="gini = 0.0\nsamples = 1\nvalue = [0, 0, 1, 0, 0, 0, 0]"] ;
815 -> 816 ;
817 [label="gini = 0.0\nsamples = 1\nvalue = [0, 4, 0, 0, 0, 0, 0]"] ;
815 -> 817 ;
818 [label="gini = 0.0\nsamples = 2\nvalue = [0, 0, 0, 5, 0, 0, 0]"] ;
814 -> 818 ;
819 [label="sulphates <= 0.62\ngini = 0.26\nsamples = 5\nvalue = [0, 0, 0, 0, 2, 11, 0]"] ;
813 -> 819 ;
820 [label="gini = 0.0\nsamples = 4\nvalue = [0, 0, 0, 0, 0, 11, 0]"] ;
819 -> 820 ;
821 [label="gini = 0.0\nsamples = 1\nvalue = [0, 0, 0, 0, 2, 0, 0]"] ;
819 -> 821 ;
822 [label="pH <= 3.35\ngini = 0.63\nsamples = 1457\nvalue = [5, 81, 951, 1006, 237, 37, 0]"] ;
0 -> 822 [labeldistance=2.5, labelangle=-45, headlabel="False"] ;
823 [label="chlorides <= 0.05\ngini = 0.62\nsamples = 1268\nvalue = [3, 67, 873, 862, 182, 34, 0]"] ;
822 -> 823 ;
824 [label="citric acid <= 0.23\ngini = 0.62\nsamples = 719\nvalue = [0, 28, 435, 542, 118, 16, 0]"] ;
823 -> 824 ;
825 [label="total sulfur dioxide <= 182.5\ngini = 0.47\nsamples = 93\nvalue = [0, 8, 93, 38, 0, 0, 0]"] ;
824 -> 825 ;
826 [label="sulphates <= 0.37\ngini = 0.55\nsamples = 67\nvalue = [0, 8, 58, 36, 0, 0, 0]"] ;
825 -> 826 ;
827 [label="pH <= 3.18\ngini = 0.54\nsamples = 11\nvalue = [0, 3, 3, 10, 0, 0, 0]"] ;
826 -> 827 ;
828 [label="gini = 0.0\nsamples = 5\nvalue = [0, 0, 0, 8, 0, 0, 0]"] ;
827 -> 828 ;
829 [label="residual sugar <= 2.95\ngini = 0.66\nsamples = 6\nvalue = [0, 3, 3, 2, 0, 0, 0]"] ;
827 -> 829 ;
830 [label="gini = 0.0\nsamples = 2\nvalue = [0, 3, 0, 0, 0, 0, 0]"] ;
829 -> 830 ;
831 [label="fixed acidity <= 6.45\ngini = 0.48\nsamples = 4\nvalue = [0, 0, 3, 2, 0, 0, 0]"] ;
829 -> 831 ;
832 [label="gini = 0.0\nsamples = 2\nvalue = [0, 0, 0, 2, 0, 0, 0]"] ;
831 -> 832 ;
833 [label="gini = 0.0\nsamples = 2\nvalue = [0, 0, 3, 0, 0, 0, 0]"] ;
831 -> 833 ;
834 [label="pH <= 3.0\ngini = 0.5\nsamples = 56\nvalue = [0, 5, 55, 26, 0, 0, 0]"] ;
826 -> 834 ;
835 [label="pH <= 2.97\ngini = 0.61\nsamples = 5\nvalue = [0, 3, 1, 3, 0, 0, 0]"] ;
834 -> 835 ;
836 [label="pH <= 2.95\ngini = 0.44\nsamples = 2\nvalue = [0, 2, 1, 0, 0, 0, 0]"] ;
835 -> 836 ;
837 [label="gini = 0.0\nsamples = 1\nvalue = [0, 0, 1, 0, 0, 0, 0]"] ;
836 -> 837 ;
838 [label="gini = 0.0\nsamples = 1\nvalue = [0, 2, 0, 0, 0, 0, 0]"] ;
836 -> 838 ;
839 [label="fixed acidity <= 6.65\ngini = 0.38\nsamples = 3\nvalue = [0, 1, 0, 3, 0, 0, 0]"] ;
835 -> 839 ;
840 [label="gini = 0.0\nsamples = 2\nvalue = [0, 0, 0, 3, 0, 0, 0]"] ;
839 -> 840 ;
841 [label="gini = 0.0\nsamples = 1\nvalue = [0, 1, 0, 0, 0, 0, 0]"] ;
839 -> 841 ;
842 [label="free sulfur dioxide <= 29.0\ngini = 0.45\nsamples = 51\nvalue = [0, 2, 54, 23, 0, 0, 0]"] ;
834 -> 842 ;
843 [label="chlorides <= 0.03\ngini = 0.24\nsamples = 26\nvalue = [0, 2, 38, 4, 0, 0, 0]"] ;
842 -> 843 ;
844 [label="total sulfur dioxide <= 75.5\ngini = 0.44\nsamples = 2\nvalue = [0, 1, 0, 2, 0, 0, 0]"] ;
843 -> 844 ;
845 [label="gini = 0.0\nsamples = 1\nvalue = [0, 1, 0, 0, 0, 0, 0]"] ;
844 -> 845 ;
846 [label="gini = 0.0\nsamples = 1\nvalue = [0, 0, 0, 2, 0, 0, 0]"] ;
844 -> 846 ;
847 [label="citric acid <= 0.0\ngini = 0.14\nsamples = 24\nvalue = [0, 1, 38, 2, 0, 0, 0]"] ;
843 -> 847 ;
848 [label="gini = 0.0\nsamples = 1\nvalue = [0, 1, 0, 0, 0, 0, 0]"] ;
847 -> 848 ;
849 [label="citric acid <= 0.2\ngini = 0.09\nsamples = 23\nvalue = [0, 0, 38, 2, 0, 0, 0]"] ;
847 -> 849 ;
850 [label="gini = 0.0\nsamples = 18\nvalue = [0, 0, 32, 0, 0, 0, 0]"] ;
849 -> 850 ;
851 [label="citric acid <= 0.21\ngini = 0.38\nsamples = 5\nvalue = [0, 0, 6, 2, 0, 0, 0]"] ;
849 -> 851 ;
852 [label="gini = 0.0\nsamples = 2\nvalue = [0, 0, 0, 2, 0, 0, 0]"] ;
851 -> 852 ;
853 [label="gini = 0.0\nsamples = 3\nvalue = [0, 0, 6, 0, 0, 0, 0]"] ;
851 -> 853 ;
854 [label="density <= 1.0\ngini = 0.5\nsamples = 25\nvalue = [0, 0, 16, 19, 0, 0, 0]"] ;
842 -> 854 ;
855 [label="volatile acidity <= 0.33\ngini = 0.5\nsamples = 22\nvalue = [0, 0, 16, 15, 0, 0, 0]"] ;
854 -> 855 ;
856 [label="free sulfur dioxide <= 43.5\ngini = 0.42\nsamples = 15\nvalue = [0, 0, 6, 14, 0, 0, 0]"] ;
855 -> 856 ;
857 [label="gini = 0.0\nsamples = 7\nvalue = [0, 0, 0, 10, 0, 0, 0]"] ;
856 -> 857 ;
858 [label="free sulfur dioxide <= 59.0\ngini = 0.48\nsamples = 8\nvalue = [0, 0, 6, 4, 0, 0, 0]"] ;
856 -> 858 ;
859 [label="alcohol <= 10.25\ngini = 0.24\nsamples = 7\nvalue = [0, 0, 6, 1, 0, 0, 0]"] ;
858 -> 859 ;
860 [label="gini = 0.0\nsamples = 6\nvalue = [0, 0, 6, 0, 0, 0, 0]"] ;
859 -> 860 ;
861 [label="gini = 0.0\nsamples = 1\nvalue = [0, 0, 0, 1, 0, 0, 0]"] ;
859 -> 861 ;
862 [label="gini = 0.0\nsamples = 1\nvalue = [0, 0, 0, 3, 0, 0, 0]"] ;
858 -> 862 ;
863 [label="volatile acidity <= 0.65\ngini = 0.17\nsamples = 7\nvalue = [0, 0, 10, 1, 0, 0, 0]"] ;
855 -> 863 ;
864 [label="gini = 0.0\nsamples = 6\nvalue = [0, 0, 10, 0, 0, 0, 0]"] ;
863 -> 864 ;
865 [label="gini = 0.0\nsamples = 1\nvalue = [0, 0, 0, 1, 0, 0, 0]"] ;
863 -> 865 ;
866 [label="gini = 0.0\nsamples = 3\nvalue = [0, 0, 0, 4, 0, 0, 0]"] ;
854 -> 866 ;
867 [label="fixed acidity <= 6.2\ngini = 0.1\nsamples = 26\nvalue = [0, 0, 35, 2, 0, 0, 0]"] ;
825 -> 867 ;
868 [label="density <= 0.99\ngini = 0.44\nsamples = 6\nvalue = [0, 0, 4, 2, 0, 0, 0]"] ;
867 -> 868 ;
869 [label="gini = 0.0\nsamples = 2\nvalue = [0, 0, 0, 2, 0, 0, 0]"] ;
868 -> 869 ;
870 [label="gini = 0.0\nsamples = 4\nvalue = [0, 0, 4, 0, 0, 0, 0]"] ;
868 -> 870 ;
871 [label="gini = 0.0\nsamples = 20\nvalue = [0, 0, 31, 0, 0, 0, 0]"] ;
867 -> 871 ;
872 [label="total sulfur dioxide <= 135.5\ngini = 0.61\nsamples = 626\nvalue = [0, 20, 342, 504, 118, 16, 0]"] ;
824 -> 872 ;
873 [label="alcohol <= 10.85\ngini = 0.66\nsamples = 218\nvalue = [0, 12, 99, 164, 72, 7, 0]"] ;
872 -> 873 ;
874 [label="density <= 0.99\ngini = 0.62\nsamples = 156\nvalue = [0, 10, 87, 124, 31, 1, 0]"] ;
873 -> 874 ;
875 [label="citric acid <= 0.35\ngini = 0.28\nsamples = 10\nvalue = [0, 3, 15, 0, 0, 0, 0]"] ;
874 -> 875 ;
876 [label="gini = 0.0\nsamples = 5\nvalue = [0, 0, 10, 0, 0, 0, 0]"] ;
875 -> 876 ;
877 [label="density <= 0.99\ngini = 0.47\nsamples = 5\nvalue = [0, 3, 5, 0, 0, 0, 0]"] ;
875 -> 877 ;
878 [label="gini = 0.0\nsamples = 3\nvalue = [0, 0, 4, 0, 0, 0, 0]"] ;
877 -> 878 ;
879 [label="residual sugar <= 2.7\ngini = 0.38\nsamples = 2\nvalue = [0, 3, 1, 0, 0, 0, 0]"] ;
877 -> 879 ;
880 [label="gini = 0.0\nsamples = 1\nvalue = [0, 3, 0, 0, 0, 0, 0]"] ;
879 -> 880 ;
881 [label="gini = 0.0\nsamples = 1\nvalue = [0, 0, 1, 0, 0, 0, 0]"] ;
879 -> 881 ;
882 [label="sulphates <= 0.48\ngini = 0.61\nsamples = 146\nvalue = [0, 7, 72, 124, 31, 1, 0]"] ;
874 -> 882 ;
883 [label="citric acid <= 0.3\ngini = 0.58\nsamples = 87\nvalue = [0, 2, 61, 62, 9, 1, 0]"] ;
882 -> 883 ;
884 [label="density <= 1.0\ngini = 0.54\nsamples = 36\nvalue = [0, 0, 12, 33, 7, 1, 0]"] ;
883 -> 884 ;
885 [label="alcohol <= 9.85\ngini = 0.65\nsamples = 19\nvalue = [0, 0, 12, 8, 7, 0, 0]"] ;
884 -> 885 ;
886 [label="gini = 0.0\nsamples = 5\nvalue = [0, 0, 8, 0, 0, 0, 0]"] ;
885 -> 886 ;
887 [label="density <= 0.99\ngini = 0.64\nsamples = 14\nvalue = [0, 0, 4, 8, 7, 0, 0]"] ;
885 -> 887 ;
888 [label="free sulfur dioxide <= 16.5\ngini = 0.46\nsamples = 9\nvalue = [0, 0, 4, 7, 0, 0, 0]"] ;
887 -> 888 ;
889 [label="gini = 0.0\nsamples = 1\nvalue = [0, 0, 2, 0, 0, 0, 0]"] ;
888 -> 889 ;
890 [label="volatile acidity <= 0.18\ngini = 0.35\nsamples = 8\nvalue = [0, 0, 2, 7, 0, 0, 0]"] ;
888 -> 890 ;
891 [label="gini = 0.0\nsamples = 1\nvalue = [0, 0, 1, 0, 0, 0, 0]"] ;
890 -> 891 ;
892 [label="total sulfur dioxide <= 125.0\ngini = 0.22\nsamples = 7\nvalue = [0, 0, 1, 7, 0, 0, 0]"] ;
890 -> 892 ;
893 [label="gini = 0.0\nsamples = 6\nvalue = [0, 0, 0, 7, 0, 0, 0]"] ;
892 -> 893 ;
894 [label="gini = 0.0\nsamples = 1\nvalue = [0, 0, 1, 0, 0, 0, 0]"] ;
892 -> 894 ;
895 [label="free sulfur dioxide <= 37.0\ngini = 0.22\nsamples = 5\nvalue = [0, 0, 0, 1, 7, 0, 0]"] ;
887 -> 895 ;
896 [label="gini = 0.0\nsamples = 4\nvalue = [0, 0, 0, 0, 7, 0, 0]"] ;
895 -> 896 ;
897 [label="gini = 0.0\nsamples = 1\nvalue = [0, 0, 0, 1, 0, 0, 0]"] ;
895 -> 897 ;
898 [label="chlorides <= 0.04\ngini = 0.07\nsamples = 17\nvalue = [0, 0, 0, 25, 0, 1, 0]"] ;
884 -> 898 ;
899 [label="density <= 1.0\ngini = 0.18\nsamples = 6\nvalue = [0, 0, 0, 9, 0, 1, 0]"] ;
898 -> 899 ;
900 [label="chlorides <= 0.04\ngini = 0.5\nsamples = 2\nvalue = [0, 0, 0, 1, 0, 1, 0]"] ;
899 -> 900 ;
901 [label="gini = 0.0\nsamples = 1\nvalue = [0, 0, 0, 1, 0, 0, 0]"] ;
900 -> 901 ;
902 [label="gini = 0.0\nsamples = 1\nvalue = [0, 0, 0, 0, 0, 1, 0]"] ;
900 -> 902 ;
903 [label="gini = 0.0\nsamples = 4\nvalue = [0, 0, 0, 8, 0, 0, 0]"] ;
899 -> 903 ;
904 [label="gini = 0.0\nsamples = 11\nvalue = [0, 0, 0, 16, 0, 0, 0]"] ;
898 -> 904 ;
905 [label="pH <= 3.11\ngini = 0.52\nsamples = 51\nvalue = [0, 2, 49, 29, 2, 0, 0]"] ;
883 -> 905 ;
906 [label="total sulfur dioxide <= 106.5\ngini = 0.22\nsamples = 14\nvalue = [0, 1, 22, 2, 0, 0, 0]"] ;
905 -> 906 ;
907 [label="sulphates <= 0.4\ngini = 0.64\nsamples = 3\nvalue = [0, 1, 2, 2, 0, 0, 0]"] ;
906 -> 907 ;
908 [label="gini = 0.0\nsamples = 1\nvalue = [0, 0, 0, 2, 0, 0, 0]"] ;
907 -> 908 ;
909 [label="citric acid <= 0.39\ngini = 0.44\nsamples = 2\nvalue = [0, 1, 2, 0, 0, 0, 0]"] ;
907 -> 909 ;
910 [label="gini = 0.0\nsamples = 1\nvalue = [0, 0, 2, 0, 0, 0, 0]"] ;
909 -> 910 ;
911 [label="gini = 0.0\nsamples = 1\nvalue = [0, 1, 0, 0, 0, 0, 0]"] ;
909 -> 911 ;
912 [label="gini = 0.0\nsamples = 11\nvalue = [0, 0, 20, 0, 0, 0, 0]"] ;
906 -> 912 ;
913 [label="chlorides <= 0.04\ngini = 0.55\nsamples = 37\nvalue = [0, 1, 27, 27, 2, 0, 0]"] ;
905 -> 913 ;
914 [label="total sulfur dioxide <= 130.5\ngini = 0.54\nsamples = 24\nvalue = [0, 1, 12, 22, 2, 0, 0]"] ;
913 -> 914 ;
915 [label="pH <= 3.24\ngini = 0.4\nsamples = 20\nvalue = [0, 1, 4, 22, 2, 0, 0]"] ;
914 -> 915 ;
916 [label="volatile acidity <= 0.19\ngini = 0.31\nsamples = 18\nvalue = [0, 0, 4, 22, 1, 0, 0]"] ;
915 -> 916 ;
917 [label="gini = 0.0\nsamples = 1\nvalue = [0, 0, 0, 0, 1, 0, 0]"] ;
916 -> 917 ;
918 [label="free sulfur dioxide <= 17.0\ngini = 0.26\nsamples = 17\nvalue = [0, 0, 4, 22, 0, 0, 0]"] ;
916 -> 918 ;
919 [label="fixed acidity <= 8.5\ngini = 0.38\nsamples = 3\nvalue = [0, 0, 3, 1, 0, 0, 0]"] ;
918 -> 919 ;
920 [label="gini = 0.0\nsamples = 2\nvalue = [0, 0, 3, 0, 0, 0, 0]"] ;
919 -> 920 ;
921 [label="gini = 0.0\nsamples = 1\nvalue = [0, 0, 0, 1, 0, 0, 0]"] ;
919 -> 921 ;
922 [label="volatile acidity <= 0.22\ngini = 0.09\nsamples = 14\nvalue = [0, 0, 1, 21, 0, 0, 0]"] ;
918 -> 922 ;
923 [label="chlorides <= 0.04\ngini = 0.44\nsamples = 3\nvalue = [0, 0, 1, 2, 0, 0, 0]"] ;
922 -> 923 ;
924 [label="gini = 0.0\nsamples = 1\nvalue = [0, 0, 0, 1, 0, 0, 0]"] ;
923 -> 924 ;
925 [label="pH <= 3.16\ngini = 0.5\nsamples = 2\nvalue = [0, 0, 1, 1, 0, 0, 0]"] ;
923 -> 925 ;
926 [label="gini = 0.0\nsamples = 1\nvalue = [0, 0, 0, 1, 0, 0, 0]"] ;
925 -> 926 ;
927 [label="gini = 0.0\nsamples = 1\nvalue = [0, 0, 1, 0, 0, 0, 0]"] ;
925 -> 927 ;
928 [label="gini = 0.0\nsamples = 11\nvalue = [0, 0, 0, 19, 0, 0, 0]"] ;
922 -> 928 ;
929 [label="chlorides <= 0.04\ngini = 0.5\nsamples = 2\nvalue = [0, 1, 0, 0, 1, 0, 0]"] ;
915 -> 929 ;
930 [label="gini = 0.0\nsamples = 1\nvalue = [0, 0, 0, 0, 1, 0, 0]"] ;
929 -> 930 ;
931 [label="gini = 0.0\nsamples = 1\nvalue = [0, 1, 0, 0, 0, 0, 0]"] ;
929 -> 931 ;
932 [label="gini = 0.0\nsamples = 4\nvalue = [0, 0, 8, 0, 0, 0, 0]"] ;
914 -> 932 ;
933 [label="total sulfur dioxide <= 125.5\ngini = 0.38\nsamples = 13\nvalue = [0, 0, 15, 5, 0, 0, 0]"] ;
913 -> 933 ;
934 [label="alcohol <= 9.05\ngini = 0.5\nsamples = 7\nvalue = [0, 0, 4, 4, 0, 0, 0]"] ;
933 -> 934 ;
935 [label="gini = 0.0\nsamples = 1\nvalue = [0, 0, 0, 2, 0, 0, 0]"] ;
934 -> 935 ;
936 [label="chlorides <= 0.05\ngini = 0.44\nsamples = 6\nvalue = [0, 0, 4, 2, 0, 0, 0]"] ;
934 -> 936 ;
937 [label="gini = 0.0\nsamples = 3\nvalue = [0, 0, 3, 0, 0, 0, 0]"] ;
936 -> 937 ;
938 [label="pH <= 3.23\ngini = 0.44\nsamples = 3\nvalue = [0, 0, 1, 2, 0, 0, 0]"] ;
936 -> 938 ;
939 [label="gini = 0.0\nsamples = 1\nvalue = [0, 0, 0, 1, 0, 0, 0]"] ;
938 -> 939 ;
940 [label="density <= 0.99\ngini = 0.5\nsamples = 2\nvalue = [0, 0, 1, 1, 0, 0, 0]"] ;
938 -> 940 ;
941 [label="gini = 0.0\nsamples = 1\nvalue = [0, 0, 1, 0, 0, 0, 0]"] ;
940 -> 941 ;
942 [label="gini = 0.0\nsamples = 1\nvalue = [0, 0, 0, 1, 0, 0, 0]"] ;
940 -> 942 ;
943 [label="volatile acidity <= 0.13\ngini = 0.15\nsamples = 6\nvalue = [0, 0, 11, 1, 0, 0, 0]"] ;
933 -> 943 ;
944 [label="gini = 0.0\nsamples = 1\nvalue = [0, 0, 0, 1, 0, 0, 0]"] ;
943 -> 944 ;
945 [label="gini = 0.0\nsamples = 5\nvalue = [0, 0, 11, 0, 0, 0, 0]"] ;
943 -> 945 ;
946 [label="volatile acidity <= 0.29\ngini = 0.55\nsamples = 59\nvalue = [0, 5, 11, 62, 22, 0, 0]"] ;
882 -> 946 ;
947 [label="pH <= 3.26\ngini = 0.5\nsamples = 48\nvalue = [0, 5, 3, 55, 20, 0, 0]"] ;
946 -> 947 ;
948 [label="free sulfur dioxide <= 42.0\ngini = 0.32\nsamples = 35\nvalue = [0, 2, 3, 48, 6, 0, 0]"] ;
947 -> 948 ;
949 [label="alcohol <= 9.95\ngini = 0.27\nsamples = 31\nvalue = [0, 2, 3, 45, 3, 0, 0]"] ;
948 -> 949 ;
950 [label="gini = 0.0\nsamples = 13\nvalue = [0, 0, 0, 27, 0, 0, 0]"] ;
949 -> 950 ;
951 [label="citric acid <= 0.28\ngini = 0.49\nsamples = 18\nvalue = [0, 2, 3, 18, 3, 0, 0]"] ;
949 -> 951 ;
952 [label="gini = 0.0\nsamples = 2\nvalue = [0, 0, 0, 0, 3, 0, 0]"] ;
951 -> 952 ;
953 [label="chlorides <= 0.05\ngini = 0.36\nsamples = 16\nvalue = [0, 2, 3, 18, 0, 0, 0]"] ;
951 -> 953 ;
954 [label="residual sugar <= 1.35\ngini = 0.19\nsamples = 12\nvalue = [0, 0, 2, 17, 0, 0, 0]"] ;
953 -> 954 ;
955 [label="pH <= 3.15\ngini = 0.5\nsamples = 2\nvalue = [0, 0, 1, 1, 0, 0, 0]"] ;
954 -> 955 ;
956 [label="gini = 0.0\nsamples = 1\nvalue = [0, 0, 1, 0, 0, 0, 0]"] ;
955 -> 956 ;
957 [label="gini = 0.0\nsamples = 1\nvalue = [0, 0, 0, 1, 0, 0, 0]"] ;
955 -> 957 ;
958 [label="fixed acidity <= 6.85\ngini = 0.11\nsamples = 10\nvalue = [0, 0, 1, 16, 0, 0, 0]"] ;
954 -> 958 ;
959 [label="gini = 0.0\nsamples = 1\nvalue = [0, 0, 1, 0, 0, 0, 0]"] ;
958 -> 959 ;
960 [label="gini = 0.0\nsamples = 9\nvalue = [0, 0, 0, 16, 0, 0, 0]"] ;
958 -> 960 ;
961 [label="total sulfur dioxide <= 116.5\ngini = 0.62\nsamples = 4\nvalue = [0, 2, 1, 1, 0, 0, 0]"] ;
953 -> 961 ;
962 [label="gini = 0.0\nsamples = 2\nvalue = [0, 2, 0, 0, 0, 0, 0]"] ;
961 -> 962 ;
963 [label="total sulfur dioxide <= 131.5\ngini = 0.5\nsamples = 2\nvalue = [0, 0, 1, 1, 0, 0, 0]"] ;
961 -> 963 ;
964 [label="gini = 0.0\nsamples = 1\nvalue = [0, 0, 0, 1, 0, 0, 0]"] ;
963 -> 964 ;
965 [label="gini = 0.0\nsamples = 1\nvalue = [0, 0, 1, 0, 0, 0, 0]"] ;
963 -> 965 ;
966 [label="sulphates <= 0.61\ngini = 0.5\nsamples = 4\nvalue = [0, 0, 0, 3, 3, 0, 0]"] ;
948 -> 966 ;
967 [label="gini = 0.0\nsamples = 2\nvalue = [0, 0, 0, 0, 3, 0, 0]"] ;
966 -> 967 ;
968 [label="gini = 0.0\nsamples = 2\nvalue = [0, 0, 0, 3, 0, 0, 0]"] ;
966 -> 968 ;
969 [label="citric acid <= 0.32\ngini = 0.56\nsamples = 13\nvalue = [0, 3, 0, 7, 14, 0, 0]"] ;
947 -> 969 ;
970 [label="fixed acidity <= 6.85\ngini = 0.49\nsamples = 4\nvalue = [0, 3, 0, 4, 0, 0, 0]"] ;
969 -> 970 ;
971 [label="gini = 0.0\nsamples = 3\nvalue = [0, 0, 0, 4, 0, 0, 0]"] ;
970 -> 971 ;
972 [label="gini = 0.0\nsamples = 1\nvalue = [0, 3, 0, 0, 0, 0, 0]"] ;
970 -> 972 ;
973 [label="chlorides <= 0.03\ngini = 0.29\nsamples = 9\nvalue = [0, 0, 0, 3, 14, 0, 0]"] ;
969 -> 973 ;
974 [label="gini = 0.0\nsamples = 2\nvalue = [0, 0, 0, 3, 0, 0, 0]"] ;
973 -> 974 ;
975 [label="gini = 0.0\nsamples = 7\nvalue = [0, 0, 0, 0, 14, 0, 0]"] ;
973 -> 975 ;
976 [label="density <= 1.0\ngini = 0.6\nsamples = 11\nvalue = [0, 0, 8, 7, 2, 0, 0]"] ;
946 -> 976 ;
977 [label="citric acid <= 0.25\ngini = 0.54\nsamples = 9\nvalue = [0, 0, 8, 3, 2, 0, 0]"] ;
976 -> 977 ;
978 [label="density <= 0.99\ngini = 0.44\nsamples = 2\nvalue = [0, 0, 1, 0, 2, 0, 0]"] ;
977 -> 978 ;
979 [label="gini = 0.0\nsamples = 1\nvalue = [0, 0, 1, 0, 0, 0, 0]"] ;
978 -> 979 ;
980 [label="gini = 0.0\nsamples = 1\nvalue = [0, 0, 0, 0, 2, 0, 0]"] ;
978 -> 980 ;
981 [label="volatile acidity <= 0.34\ngini = 0.42\nsamples = 7\nvalue = [0, 0, 7, 3, 0, 0, 0]"] ;
977 -> 981 ;
982 [label="volatile acidity <= 0.31\ngini = 0.5\nsamples = 4\nvalue = [0, 0, 3, 3, 0, 0, 0]"] ;
981 -> 982 ;
983 [label="gini = 0.0\nsamples = 2\nvalue = [0, 0, 3, 0, 0, 0, 0]"] ;
982 -> 983 ;
984 [label="gini = 0.0\nsamples = 2\nvalue = [0, 0, 0, 3, 0, 0, 0]"] ;
982 -> 984 ;
985 [label="gini = 0.0\nsamples = 3\nvalue = [0, 0, 4, 0, 0, 0, 0]"] ;
981 -> 985 ;
986 [label="gini = 0.0\nsamples = 2\nvalue = [0, 0, 0, 4, 0, 0, 0]"] ;
976 -> 986 ;
987 [label="fixed acidity <= 7.45\ngini = 0.66\nsamples = 62\nvalue = [0, 2, 12, 40, 41, 6, 0]"] ;
873 -> 987 ;
988 [label="volatile acidity <= 0.23\ngini = 0.56\nsamples = 39\nvalue = [0, 0, 2, 18, 38, 6, 0]"] ;
987 -> 988 ;
989 [label="residual sugar <= 6.05\ngini = 0.21\nsamples = 19\nvalue = [0, 0, 0, 4, 30, 0, 0]"] ;
988 -> 989 ;
990 [label="gini = 0.0\nsamples = 1\nvalue = [0, 0, 0, 2, 0, 0, 0]"] ;
989 -> 990 ;
991 [label="residual sugar <= 11.25\ngini = 0.12\nsamples = 18\nvalue = [0, 0, 0, 2, 30, 0, 0]"] ;
989 -> 991 ;
992 [label="total sulfur dioxide <= 68.5\ngini = 0.06\nsamples = 16\nvalue = [0, 0, 0, 1, 29, 0, 0]"] ;
991 -> 992 ;
993 [label="gini = 0.0\nsamples = 1\nvalue = [0, 0, 0, 1, 0, 0, 0]"] ;
992 -> 993 ;
994 [label="gini = 0.0\nsamples = 15\nvalue = [0, 0, 0, 0, 29, 0, 0]"] ;
992 -> 994 ;
995 [label="volatile acidity <= 0.21\ngini = 0.5\nsamples = 2\nvalue = [0, 0, 0, 1, 1, 0, 0]"] ;
991 -> 995 ;
996 [label="gini = 0.0\nsamples = 1\nvalue = [0, 0, 0, 1, 0, 0, 0]"] ;
995 -> 996 ;
997 [label="gini = 0.0\nsamples = 1\nvalue = [0, 0, 0, 0, 1, 0, 0]"] ;
995 -> 997 ;
998 [label="citric acid <= 0.28\ngini = 0.67\nsamples = 20\nvalue = [0, 0, 2, 14, 8, 6, 0]"] ;
988 -> 998 ;
999 [label="sulphates <= 0.39\ngini = 0.44\nsamples = 7\nvalue = [0, 0, 0, 0, 6, 3, 0]"] ;
998 -> 999 ;
1000 [label="gini = 0.0\nsamples = 2\nvalue = [0, 0, 0, 0, 0, 2, 0]"] ;
999 -> 1000 ;
1001 [label="citric acid <= 0.27\ngini = 0.24\nsamples = 5\nvalue = [0, 0, 0, 0, 6, 1, 0]"] ;
999 -> 1001 ;
1002 [label="gini = 0.0\nsamples = 1\nvalue = [0, 0, 0, 0, 0, 1, 0]"] ;
1001 -> 1002 ;
1003 [label="gini = 0.0\nsamples = 4\nvalue = [0, 0, 0, 0, 6, 0, 0]"] ;
1001 -> 1003 ;
1004 [label="free sulfur dioxide <= 25.5\ngini = 0.52\nsamples = 13\nvalue = [0, 0, 2, 14, 2, 3, 0]"] ;
998 -> 1004 ;
1005 [label="alcohol <= 12.1\ngini = 0.14\nsamples = 7\nvalue = [0, 0, 0, 12, 1, 0, 0]"] ;
1004 -> 1005 ;
1006 [label="gini = 0.0\nsamples = 6\nvalue = [0, 0, 0, 12, 0, 0, 0]"] ;
1005 -> 1006 ;
1007 [label="gini = 0.0\nsamples = 1\nvalue = [0, 0, 0, 0, 1, 0, 0]"] ;
1005 -> 1007 ;
1008 [label="volatile acidity <= 0.38\ngini = 0.72\nsamples = 6\nvalue = [0, 0, 2, 2, 1, 3, 0]"] ;
1004 -> 1008 ;
1009 [label="total sulfur dioxide <= 125.5\ngini = 0.61\nsamples = 5\nvalue = [0, 0, 0, 2, 1, 3, 0]"] ;
1008 -> 1009 ;
1010 [label="chlorides <= 0.04\ngini = 0.44\nsamples = 3\nvalue = [0, 0, 0, 2, 1, 0, 0]"] ;
1009 -> 1010 ;
1011 [label="gini = 0.0\nsamples = 2\nvalue = [0, 0, 0, 2, 0, 0, 0]"] ;
1010 -> 1011 ;
1012 [label="gini = 0.0\nsamples = 1\nvalue = [0, 0, 0, 0, 1, 0, 0]"] ;
1010 -> 1012 ;
1013 [label="gini = 0.0\nsamples = 2\nvalue = [0, 0, 0, 0, 0, 3, 0]"] ;
1009 -> 1013 ;
1014 [label="gini = 0.0\nsamples = 1\nvalue = [0, 0, 2, 0, 0, 0, 0]"] ;
1008 -> 1014 ;
1015 [label="density <= 0.99\ngini = 0.56\nsamples = 23\nvalue = [0, 2, 10, 22, 3, 0, 0]"] ;
987 -> 1015 ;
1016 [label="gini = 0.0\nsamples = 3\nvalue = [0, 0, 4, 0, 0, 0, 0]"] ;
1015 -> 1016 ;
1017 [label="free sulfur dioxide <= 48.5\ngini = 0.51\nsamples = 20\nvalue = [0, 2, 6, 22, 3, 0, 0]"] ;
1015 -> 1017 ;
1018 [label="chlorides <= 0.05\ngini = 0.47\nsamples = 19\nvalue = [0, 2, 4, 22, 3, 0, 0]"] ;
1017 -> 1018 ;
1019 [label="residual sugar <= 7.05\ngini = 0.39\nsamples = 18\nvalue = [0, 0, 4, 22, 3, 0, 0]"] ;
1018 -> 1019 ;
1020 [label="pH <= 3.19\ngini = 0.57\nsamples = 5\nvalue = [0, 0, 4, 2, 1, 0, 0]"] ;
1019 -> 1020 ;
1021 [label="residual sugar <= 4.95\ngini = 0.32\nsamples = 4\nvalue = [0, 0, 4, 0, 1, 0, 0]"] ;
1020 -> 1021 ;
1022 [label="gini = 0.0\nsamples = 1\nvalue = [0, 0, 0, 0, 1, 0, 0]"] ;
1021 -> 1022 ;
1023 [label="gini = 0.0\nsamples = 3\nvalue = [0, 0, 4, 0, 0, 0, 0]"] ;
1021 -> 1023 ;
1024 [label="gini = 0.0\nsamples = 1\nvalue = [0, 0, 0, 2, 0, 0, 0]"] ;
1020 -> 1024 ;
1025 [label="alcohol <= 11.05\ngini = 0.17\nsamples = 13\nvalue = [0, 0, 0, 20, 2, 0, 0]"] ;
1019 -> 1025 ;
1026 [label="gini = 0.0\nsamples = 1\nvalue = [0, 0, 0, 0, 1, 0, 0]"] ;
1025 -> 1026 ;
1027 [label="residual sugar <= 7.8\ngini = 0.09\nsamples = 12\nvalue = [0, 0, 0, 20, 1, 0, 0]"] ;
1025 -> 1027 ;
1028 [label="residual sugar <= 7.45\ngini = 0.5\nsamples = 2\nvalue = [0, 0, 0, 1, 1, 0, 0]"] ;
1027 -> 1028 ;
1029 [label="gini = 0.0\nsamples = 1\nvalue = [0, 0, 0, 1, 0, 0, 0]"] ;
1028 -> 1029 ;
1030 [label="gini = 0.0\nsamples = 1\nvalue = [0, 0, 0, 0, 1, 0, 0]"] ;
1028 -> 1030 ;
1031 [label="gini = 0.0\nsamples = 10\nvalue = [0, 0, 0, 19, 0, 0, 0]"] ;
1027 -> 1031 ;
1032 [label="gini = 0.0\nsamples = 1\nvalue = [0, 2, 0, 0, 0, 0, 0]"] ;
1018 -> 1032 ;
1033 [label="gini = 0.0\nsamples = 1\nvalue = [0, 0, 2, 0, 0, 0, 0]"] ;
1017 -> 1033 ;
1034 [label="volatile acidity <= 0.23\ngini = 0.58\nsamples = 408\nvalue = [0, 8, 243, 340, 46, 9, 0]"] ;
872 -> 1034 ;
1035 [label="pH <= 3.22\ngini = 0.5\nsamples = 119\nvalue = [0, 2, 33, 132, 26, 2, 0]"] ;
1034 -> 1035 ;
1036 [label="alcohol <= 8.85\ngini = 0.48\nsamples = 72\nvalue = [0, 2, 12, 84, 25, 0, 0]"] ;
1035 -> 1036 ;
1037 [label="fixed acidity <= 7.2\ngini = 0.42\nsamples = 4\nvalue = [0, 0, 3, 0, 7, 0, 0]"] ;
1036 -> 1037 ;
1038 [label="gini = 0.0\nsamples = 1\nvalue = [0, 0, 3, 0, 0, 0, 0]"] ;
1037 -> 1038 ;
1039 [label="gini = 0.0\nsamples = 3\nvalue = [0, 0, 0, 0, 7, 0, 0]"] ;
1037 -> 1039 ;
1040 [label="chlorides <= 0.03\ngini = 0.42\nsamples = 68\nvalue = [0, 2, 9, 84, 18, 0, 0]"] ;
1036 -> 1040 ;
1041 [label="gini = 0.0\nsamples = 1\nvalue = [0, 0, 0, 0, 2, 0, 0]"] ;
1040 -> 1041 ;
