digraph Tree {
node [shape=box, style="rounded", color="black", fontname=helvetica] ;
edge [fontname=helvetica] ;
0 [label="alcohol <= 10.85\ngini = 0.68\nsamples = 2321\nvalue = [11, 155, 1067, 1634, 665, 137, 3]"] ;
1 [label="citric acid <= 0.19\ngini = 0.64\nsamples = 1446\nvalue = [6, 119, 949, 961, 207, 28, 1]"] ;
0 -> 1 [labeldistance=2.5, labelangle=45, headlabel="True"] ;
2 [label="sulphates <= 0.56\ngini = 0.53\nsamples = 117\nvalue = [0, 34, 121, 35, 1, 0, 0]"] ;
1 -> 2 ;
3 [label="free sulfur dioxide <= 37.5\ngini = 0.48\nsamples = 101\nvalue = [0, 29, 116, 23, 1, 0, 0]"] ;
2 -> 3 ;
4 [label="chlorides <= 0.06\ngini = 0.59\nsamples = 60\nvalue = [0, 27, 58, 17, 1, 0, 0]"] ;
3 -> 4 ;
5 [label="sulphates <= 0.39\ngini = 0.51\nsamples = 45\nvalue = [0, 8, 46, 15, 1, 0, 0]"] ;
4 -> 5 ;
6 [label="free sulfur dioxide <= 24.5\ngini = 0.62\nsamples = 16\nvalue = [0, 4, 10, 11, 0, 0, 0]"] ;
5 -> 6 ;
7 [label="alcohol <= 9.3\ngini = 0.53\nsamples = 10\nvalue = [0, 4, 10, 2, 0, 0, 0]"] ;
6 -> 7 ;
8 [label="gini = 0.0\nsamples = 3\nvalue = [0, 0, 8, 0, 0, 0, 0]"] ;
7 -> 8 ;
9 [label="citric acid <= 0.16\ngini = 0.62\nsamples = 7\nvalue = [0, 4, 2, 2, 0, 0, 0]"] ;
7 -> 9 ;
10 [label="total sulfur dioxide <= 82.5\ngini = 0.48\nsamples = 5\nvalue = [0, 3, 2, 0, 0, 0, 0]"] ;
9 -> 10 ;
11 [label="gini = 0.0\nsamples = 2\nvalue = [0, 2, 0, 0, 0, 0, 0]"] ;
10 -> 11 ;
12 [label="volatile acidity <= 0.33\ngini = 0.44\nsamples = 3\nvalue = [0, 1, 2, 0, 0, 0, 0]"] ;
10 -> 12 ;
13 [label="gini = 0.0\nsamples = 1\nvalue = [0, 1, 0, 0, 0, 0, 0]"] ;
12 -> 13 ;
14 [label="gini = 0.0\nsamples = 2\nvalue = [0, 0, 2, 0, 0, 0, 0]"] ;
12 -> 14 ;
15 [label="chlorides <= 0.04\ngini = 0.44\nsamples = 2\nvalue = [0, 1, 0, 2, 0, 0, 0]"] ;
9 -> 15 ;
16 [label="gini = 0.0\nsamples = 1\nvalue = [0, 1, 0, 0, 0, 0, 0]"] ;
15 -> 16 ;
17 [label="gini = 0.0\nsamples = 1\nvalue = [0, 0, 0, 2, 0, 0, 0]"] ;
15 -> 17 ;
18 [label="gini = 0.0\nsamples = 6\nvalue = [0, 0, 0, 9, 0, 0, 0]"] ;
6 -> 18 ;
19 [label="volatile acidity <= 0.47\ngini = 0.34\nsamples = 29\nvalue = [0, 4, 36, 4, 1, 0, 0]"] ;
5 -> 19 ;
20 [label="sulphates <= 0.45\ngini = 0.19\nsamples = 25\nvalue = [0, 2, 35, 1, 1, 0, 0]"] ;
19 -> 20 ;
21 [label="total sulfur dioxide <= 152.0\ngini = 0.49\nsamples = 10\nvalue = [0, 2, 9, 1, 1, 0, 0]"] ;
20 -> 21 ;
22 [label="density <= 0.99\ngini = 0.4\nsamples = 9\nvalue = [0, 2, 9, 0, 1, 0, 0]"] ;
21 -> 22 ;
23 [label="gini = 0.0\nsamples = 1\nvalue = [0, 2, 0, 0, 0, 0, 0]"] ;
22 -> 23 ;
24 [label="density <= 0.99\ngini = 0.18\nsamples = 8\nvalue = [0, 0, 9, 0, 1, 0, 0]"] ;
22 -> 24 ;
25 [label="gini = 0.0\nsamples = 7\nvalue = [0, 0, 9, 0, 0, 0, 0]"] ;
24 -> 25 ;
26 [label="gini = 0.0\nsamples = 1\nvalue = [0, 0, 0, 0, 1, 0, 0]"] ;
24 -> 26 ;
27 [label="gini = 0.0\nsamples = 1\nvalue = [0, 0, 0, 1, 0, 0, 0]"] ;
21 -> 27 ;
28 [label="gini = 0.0\nsamples = 15\nvalue = [0, 0, 26, 0, 0, 0, 0]"] ;
20 -> 28 ;
29 [label="pH <= 3.15\ngini = 0.61\nsamples = 4\nvalue = [0, 2, 1, 3, 0, 0, 0]"] ;
19 -> 29 ;
30 [label="gini = 0.0\nsamples = 1\nvalue = [0, 2, 0, 0, 0, 0, 0]"] ;
29 -> 30 ;
31 [label="sulphates <= 0.47\ngini = 0.38\nsamples = 3\nvalue = [0, 0, 1, 3, 0, 0, 0]"] ;
29 -> 31 ;
32 [label="gini = 0.0\nsamples = 1\nvalue = [0, 0, 1, 0, 0, 0, 0]"] ;
31 -> 32 ;
33 [label="gini = 0.0\nsamples = 2\nvalue = [0, 0, 0, 3, 0, 0, 0]"] ;
31 -> 33 ;
34 [label="free sulfur dioxide <= 28.0\ngini = 0.53\nsamples = 15\nvalue = [0, 19, 12, 2, 0, 0, 0]"] ;
4 -> 34 ;
35 [label="volatile acidity <= 0.37\ngini = 0.39\nsamples = 12\nvalue = [0, 19, 7, 0, 0, 0, 0]"] ;
34 -> 35 ;
36 [label="gini = 0.0\nsamples = 4\nvalue = [0, 0, 7, 0, 0, 0, 0]"] ;
35 -> 36 ;
37 [label="gini = 0.0\nsamples = 8\nvalue = [0, 19, 0, 0, 0, 0, 0]"] ;
35 -> 37 ;
38 [label="sulphates <= 0.46\ngini = 0.41\nsamples = 3\nvalue = [0, 0, 5, 2, 0, 0, 0]"] ;
34 -> 38 ;
39 [label="gini = 0.0\nsamples = 1\nvalue = [0, 0, 0, 2, 0, 0, 0]"] ;
38 -> 39 ;
40 [label="gini = 0.0\nsamples = 2\nvalue = [0, 0, 5, 0, 0, 0, 0]"] ;
38 -> 40 ;
41 [label="chlorides <= 0.04\ngini = 0.22\nsamples = 41\nvalue = [0, 2, 58, 6, 0, 0, 0]"] ;
3 -> 41 ;
42 [label="chlorides <= 0.03\ngini = 0.49\nsamples = 6\nvalue = [0, 2, 6, 1, 0, 0, 0]"] ;
41 -> 42 ;
43 [label="gini = 0.0\nsamples = 4\nvalue = [0, 0, 6, 0, 0, 0, 0]"] ;
42 -> 43 ;
44 [label="sulphates <= 0.39\ngini = 0.44\nsamples = 2\nvalue = [0, 2, 0, 1, 0, 0, 0]"] ;
42 -> 44 ;
45 [label="gini = 0.0\nsamples = 1\nvalue = [0, 2, 0, 0, 0, 0, 0]"] ;
44 -> 45 ;
46 [label="gini = 0.0\nsamples = 1\nvalue = [0, 0, 0, 1, 0, 0, 0]"] ;
44 -> 46 ;
47 [label="alcohol <= 8.85\ngini = 0.16\nsamples = 35\nvalue = [0, 0, 52, 5, 0, 0, 0]"] ;
41 -> 47 ;
48 [label="citric acid <= 0.16\ngini = 0.5\nsamples = 2\nvalue = [0, 0, 1, 1, 0, 0, 0]"] ;
47 -> 48 ;
49 [label="gini = 0.0\nsamples = 1\nvalue = [0, 0, 1, 0, 0, 0, 0]"] ;
48 -> 49 ;
50 [label="gini = 0.0\nsamples = 1\nvalue = [0, 0, 0, 1, 0, 0, 0]"] ;
48 -> 50 ;
51 [label="sulphates <= 0.5\ngini = 0.13\nsamples = 33\nvalue = [0, 0, 51, 4, 0, 0, 0]"] ;
47 -> 51 ;
52 [label="sulphates <= 0.41\ngini = 0.08\nsamples = 29\nvalue = [0, 0, 48, 2, 0, 0, 0]"] ;
51 -> 52 ;
53 [label="gini = 0.0\nsamples = 11\nvalue = [0, 0, 23, 0, 0, 0, 0]"] ;
52 -> 53 ;
54 [label="fixed acidity <= 6.65\ngini = 0.14\nsamples = 18\nvalue = [0, 0, 25, 2, 0, 0, 0]"] ;
52 -> 54 ;
55 [label="gini = 0.0\nsamples = 10\nvalue = [0, 0, 19, 0, 0, 0, 0]"] ;
54 -> 55 ;
56 [label="total sulfur dioxide <= 139.5\ngini = 0.38\nsamples = 8\nvalue = [0, 0, 6, 2, 0, 0, 0]"] ;
54 -> 56 ;
57 [label="gini = 0.0\nsamples = 1\nvalue = [0, 0, 0, 1, 0, 0, 0]"] ;
56 -> 57 ;
58 [label="chlorides <= 0.04\ngini = 0.24\nsamples = 7\nvalue = [0, 0, 6, 1, 0, 0, 0]"] ;
56 -> 58 ;
59 [label="gini = 0.0\nsamples = 4\nvalue = [0, 0, 4, 0, 0, 0, 0]"] ;
58 -> 59 ;
60 [label="alcohol <= 9.3\ngini = 0.44\nsamples = 3\nvalue = [0, 0, 2, 1, 0, 0, 0]"] ;
58 -> 60 ;
61 [label="gini = 0.0\nsamples = 2\nvalue = [0, 0, 2, 0, 0, 0, 0]"] ;
60 -> 61 ;
62 [label="gini = 0.0\nsamples = 1\nvalue = [0, 0, 0, 1, 0, 0, 0]"] ;
60 -> 62 ;
63 [label="citric acid <= 0.16\ngini = 0.48\nsamples = 4\nvalue = [0, 0, 3, 2, 0, 0, 0]"] ;
51 -> 63 ;
64 [label="gini = 0.0\nsamples = 2\nvalue = [0, 0, 3, 0, 0, 0, 0]"] ;
63 -> 64 ;
65 [label="gini = 0.0\nsamples = 2\nvalue = [0, 0, 0, 2, 0, 0, 0]"] ;
63 -> 65 ;
66 [label="chlorides <= 0.07\ngini = 0.6\nsamples = 16\nvalue = [0, 5, 5, 12, 0, 0, 0]"] ;
2 -> 66 ;
67 [label="free sulfur dioxide <= 21.0\ngini = 0.48\nsamples = 14\nvalue = [0, 1, 5, 12, 0, 0, 0]"] ;
66 -> 67 ;
68 [label="chlorides <= 0.05\ngini = 0.44\nsamples = 2\nvalue = [0, 1, 2, 0, 0, 0, 0]"] ;
67 -> 68 ;
69 [label="gini = 0.0\nsamples = 1\nvalue = [0, 0, 2, 0, 0, 0, 0]"] ;
68 -> 69 ;
70 [label="gini = 0.0\nsamples = 1\nvalue = [0, 1, 0, 0, 0, 0, 0]"] ;
68 -> 70 ;
71 [label="residual sugar <= 6.95\ngini = 0.32\nsamples = 12\nvalue = [0, 0, 3, 12, 0, 0, 0]"] ;
67 -> 71 ;
72 [label="total sulfur dioxide <= 145.0\ngini = 0.42\nsamples = 9\nvalue = [0, 0, 3, 7, 0, 0, 0]"] ;
71 -> 72 ;
73 [label="gini = 0.0\nsamples = 3\nvalue = [0, 0, 0, 4, 0, 0, 0]"] ;
72 -> 73 ;
74 [label="density <= 0.99\ngini = 0.5\nsamples = 6\nvalue = [0, 0, 3, 3, 0, 0, 0]"] ;
72 -> 74 ;
75 [label="gini = 0.0\nsamples = 2\nvalue = [0, 0, 2, 0, 0, 0, 0]"] ;
74 -> 75 ;
76 [label="volatile acidity <= 0.47\ngini = 0.38\nsamples = 4\nvalue = [0, 0, 1, 3, 0, 0, 0]"] ;
74 -> 76 ;
77 [label="gini = 0.0\nsamples = 3\nvalue = [0, 0, 0, 3, 0, 0, 0]"] ;
76 -> 77 ;
78 [label="gini = 0.0\nsamples = 1\nvalue = [0, 0, 1, 0, 0, 0, 0]"] ;
76 -> 78 ;
79 [label="gini = 0.0\nsamples = 3\nvalue = [0, 0, 0, 5, 0, 0, 0]"] ;
71 -> 79 ;
80 [label="gini = 0.0\nsamples = 2\nvalue = [0, 4, 0, 0, 0, 0, 0]"] ;
66 -> 80 ;
81 [label="volatile acidity <= 0.25\ngini = 0.63\nsamples = 1329\nvalue = [6, 85, 828, 926, 206, 28, 1]"] ;
1 -> 81 ;
82 [label="fixed acidity <= 9.1\ngini = 0.62\nsamples = 659\nvalue = [4, 19, 293, 573, 160, 22, 0]"] ;
81 -> 82 ;
83 [label="free sulfur dioxide <= 15.5\ngini = 0.61\nsamples = 648\nvalue = [3, 11, 281, 570, 160, 22, 0]"] ;
82 -> 83 ;
84 [label="total sulfur dioxide <= 133.5\ngini = 0.63\nsamples = 45\nvalue = [0, 6, 33, 21, 1, 4, 0]"] ;
83 -> 84 ;
85 [label="residual sugar <= 1.35\ngini = 0.66\nsamples = 40\nvalue = [0, 6, 25, 21, 1, 4, 0]"] ;
84 -> 85 ;
86 [label="volatile acidity <= 0.11\ngini = 0.21\nsamples = 11\nvalue = [0, 0, 15, 1, 1, 0, 0]"] ;
85 -> 86 ;
87 [label="gini = 0.0\nsamples = 1\nvalue = [0, 0, 0, 0, 1, 0, 0]"] ;
86 -> 87 ;
88 [label="residual sugar <= 0.95\ngini = 0.12\nsamples = 10\nvalue = [0, 0, 15, 1, 0, 0, 0]"] ;
86 -> 88 ;
89 [label="total sulfur dioxide <= 51.0\ngini = 0.28\nsamples = 3\nvalue = [0, 0, 5, 1, 0, 0, 0]"] ;
88 -> 89 ;
90 [label="gini = 0.0\nsamples = 2\nvalue = [0, 0, 5, 0, 0, 0, 0]"] ;
89 -> 90 ;
91 [label="gini = 0.0\nsamples = 1\nvalue = [0, 0, 0, 1, 0, 0, 0]"] ;
89 -> 91 ;
92 [label="gini = 0.0\nsamples = 7\nvalue = [0, 0, 10, 0, 0, 0, 0]"] ;
88 -> 92 ;
93 [label="residual sugar <= 5.25\ngini = 0.66\nsamples = 29\nvalue = [0, 6, 10, 20, 0, 4, 0]"] ;
85 -> 93 ;
94 [label="alcohol <= 9.75\ngini = 0.7\nsamples = 17\nvalue = [0, 6, 8, 9, 0, 2, 0]"] ;
93 -> 94 ;
95 [label="fixed acidity <= 7.25\ngini = 0.47\nsamples = 4\nvalue = [0, 3, 5, 0, 0, 0, 0]"] ;
94 -> 95 ;
96 [label="gini = 0.0\nsamples = 1\nvalue = [0, 3, 0, 0, 0, 0, 0]"] ;
95 -> 96 ;
97 [label="gini = 0.0\nsamples = 3\nvalue = [0, 0, 5, 0, 0, 0, 0]"] ;
95 -> 97 ;
98 [label="sulphates <= 0.63\ngini = 0.64\nsamples = 13\nvalue = [0, 3, 3, 9, 0, 2, 0]"] ;
94 -> 98 ;
99 [label="free sulfur dioxide <= 8.0\ngini = 0.56\nsamples = 12\nvalue = [0, 3, 3, 9, 0, 0, 0]"] ;
98 -> 99 ;
100 [label="gini = 0.0\nsamples = 2\nvalue = [0, 2, 0, 0, 0, 0, 0]"] ;
99 -> 100 ;
101 [label="citric acid <= 0.27\ngini = 0.46\nsamples = 10\nvalue = [0, 1, 3, 9, 0, 0, 0]"] ;
99 -> 101 ;
102 [label="pH <= 3.07\ngini = 0.38\nsamples = 3\nvalue = [0, 0, 3, 1, 0, 0, 0]"] ;
101 -> 102 ;
103 [label="gini = 0.0\nsamples = 1\nvalue = [0, 0, 0, 1, 0, 0, 0]"] ;
102 -> 103 ;
104 [label="gini = 0.0\nsamples = 2\nvalue = [0, 0, 3, 0, 0, 0, 0]"] ;
102 -> 104 ;
105 [label="sulphates <= 0.41\ngini = 0.2\nsamples = 7\nvalue = [0, 1, 0, 8, 0, 0, 0]"] ;
101 -> 105 ;
106 [label="volatile acidity <= 0.18\ngini = 0.38\nsamples = 3\nvalue = [0, 1, 0, 3, 0, 0, 0]"] ;
105 -> 106 ;
107 [label="gini = 0.0\nsamples = 1\nvalue = [0, 1, 0, 0, 0, 0, 0]"] ;
106 -> 107 ;
108 [label="gini = 0.0\nsamples = 2\nvalue = [0, 0, 0, 3, 0, 0, 0]"] ;
106 -> 108 ;
109 [label="gini = 0.0\nsamples = 4\nvalue = [0, 0, 0, 5, 0, 0, 0]"] ;
105 -> 109 ;
110 [label="gini = 0.0\nsamples = 1\nvalue = [0, 0, 0, 0, 0, 2, 0]"] ;
98 -> 110 ;
111 [label="chlorides <= 0.04\ngini = 0.43\nsamples = 12\nvalue = [0, 0, 2, 11, 0, 2, 0]"] ;
93 -> 111 ;
112 [label="citric acid <= 0.35\ngini = 0.67\nsamples = 5\nvalue = [0, 0, 2, 2, 0, 2, 0]"] ;
111 -> 112 ;
113 [label="free sulfur dioxide <= 10.0\ngini = 0.5\nsamples = 4\nvalue = [0, 0, 2, 2, 0, 0, 0]"] ;
112 -> 113 ;
114 [label="gini = 0.0\nsamples = 1\nvalue = [0, 0, 0, 1, 0, 0, 0]"] ;
113 -> 114 ;
115 [label="total sulfur dioxide <= 96.5\ngini = 0.44\nsamples = 3\nvalue = [0, 0, 2, 1, 0, 0, 0]"] ;
113 -> 115 ;
116 [label="gini = 0.0\nsamples = 2\nvalue = [0, 0, 2, 0, 0, 0, 0]"] ;
115 -> 116 ;
117 [label="gini = 0.0\nsamples = 1\nvalue = [0, 0, 0, 1, 0, 0, 0]"] ;
115 -> 117 ;
118 [label="gini = 0.0\nsamples = 1\nvalue = [0, 0, 0, 0, 0, 2, 0]"] ;
112 -> 118 ;
119 [label="gini = 0.0\nsamples = 7\nvalue = [0, 0, 0, 9, 0, 0, 0]"] ;
111 -> 119 ;
120 [label="gini = 0.0\nsamples = 5\nvalue = [0, 0, 8, 0, 0, 0, 0]"] ;
84 -> 120 ;
121 [label="volatile acidity <= 0.21\ngini = 0.6\nsamples = 603\nvalue = [3, 5, 248, 549, 159, 18, 0]"] ;
83 -> 121 ;
122 [label="total sulfur dioxide <= 172.5\ngini = 0.61\nsamples = 296\nvalue = [0, 4, 86, 261, 106, 16, 0]"] ;
121 -> 122 ;
123 [label="alcohol <= 8.75\ngini = 0.63\nsamples = 252\nvalue = [0, 4, 84, 207, 98, 10, 0]"] ;
122 -> 123 ;
124 [label="fixed acidity <= 5.5\ngini = 0.26\nsamples = 10\nvalue = [0, 0, 1, 0, 12, 1, 0]"] ;
123 -> 124 ;
125 [label="gini = 0.0\nsamples = 1\nvalue = [0, 0, 1, 0, 0, 0, 0]"] ;
124 -> 125 ;
126 [label="sulphates <= 0.6\ngini = 0.14\nsamples = 9\nvalue = [0, 0, 0, 0, 12, 1, 0]"] ;
124 -> 126 ;
127 [label="gini = 0.0\nsamples = 8\nvalue = [0, 0, 0, 0, 12, 0, 0]"] ;
126 -> 127 ;
128 [label="gini = 0.0\nsamples = 1\nvalue = [0, 0, 0, 0, 0, 1, 0]"] ;
126 -> 128 ;
129 [label="citric acid <= 0.24\ngini = 0.62\nsamples = 242\nvalue = [0, 4, 83, 207, 86, 9, 0]"] ;
123 -> 129 ;
130 [label="fixed acidity <= 6.35\ngini = 0.59\nsamples = 16\nvalue = [0, 0, 13, 9, 2, 1, 0]"] ;
129 -> 130 ;
131 [label="sulphates <= 0.42\ngini = 0.34\nsamples = 7\nvalue = [0, 0, 11, 3, 0, 0, 0]"] ;
130 -> 131 ;
132 [label="gini = 0.0\nsamples = 1\nvalue = [0, 0, 0, 2, 0, 0, 0]"] ;
131 -> 132 ;
133 [label="alcohol <= 10.25\ngini = 0.15\nsamples = 6\nvalue = [0, 0, 11, 1, 0, 0, 0]"] ;
131 -> 133 ;
134 [label="gini = 0.0\nsamples = 5\nvalue = [0, 0, 11, 0, 0, 0, 0]"] ;
133 -> 134 ;
135 [label="gini = 0.0\nsamples = 1\nvalue = [0, 0, 0, 1, 0, 0, 0]"] ;
133 -> 135 ;
136 [label="citric acid <= 0.23\ngini = 0.63\nsamples = 9\nvalue = [0, 0, 2, 6, 2, 1, 0]"] ;
130 -> 136 ;
137 [label="volatile acidity <= 0.14\ngini = 0.38\nsamples = 7\nvalue = [0, 0, 2, 6, 0, 0, 0]"] ;
136 -> 137 ;
138 [label="gini = 0.0\nsamples = 1\nvalue = [0, 0, 1, 0, 0, 0, 0]"] ;
137 -> 138 ;
139 [label="volatile acidity <= 0.2\ngini = 0.24\nsamples = 6\nvalue = [0, 0, 1, 6, 0, 0, 0]"] ;
137 -> 139 ;
140 [label="gini = 0.0\nsamples = 5\nvalue = [0, 0, 0, 6, 0, 0, 0]"] ;
139 -> 140 ;
141 [label="gini = 0.0\nsamples = 1\nvalue = [0, 0, 1, 0, 0, 0, 0]"] ;
139 -> 141 ;
142 [label="volatile acidity <= 0.18\ngini = 0.44\nsamples = 2\nvalue = [0, 0, 0, 0, 2, 1, 0]"] ;
136 -> 142 ;
143 [label="gini = 0.0\nsamples = 1\nvalue = [0, 0, 0, 0, 0, 1, 0]"] ;
142 -> 143 ;
144 [label="gini = 0.0\nsamples = 1\nvalue = [0, 0, 0, 0, 2, 0, 0]"] ;
142 -> 144 ;
145 [label="fixed acidity <= 6.85\ngini = 0.61\nsamples = 226\nvalue = [0, 4, 70, 198, 84, 8, 0]"] ;
129 -> 145 ;
146 [label="total sulfur dioxide <= 110.5\ngini = 0.51\nsamples = 102\nvalue = [0, 0, 15, 104, 41, 1, 0]"] ;
145 -> 146 ;
147 [label="residual sugar <= 11.1\ngini = 0.16\nsamples = 34\nvalue = [0, 0, 2, 52, 3, 0, 0]"] ;
146 -> 147 ;
148 [label="free sulfur dioxide <= 16.5\ngini = 0.11\nsamples = 30\nvalue = [0, 0, 0, 47, 3, 0, 0]"] ;
147 -> 148 ;
149 [label="pH <= 3.39\ngini = 0.5\nsamples = 2\nvalue = [0, 0, 0, 1, 1, 0, 0]"] ;
148 -> 149 ;
150 [label="gini = 0.0\nsamples = 1\nvalue = [0, 0, 0, 1, 0, 0, 0]"] ;
149 -> 150 ;
151 [label="gini = 0.0\nsamples = 1\nvalue = [0, 0, 0, 0, 1, 0, 0]"] ;
149 -> 151 ;
152 [label="alcohol <= 10.62\ngini = 0.08\nsamples = 28\nvalue = [0, 0, 0, 46, 2, 0, 0]"] ;
148 -> 152 ;
153 [label="gini = 0.0\nsamples = 24\nvalue = [0, 0, 0, 43, 0, 0, 0]"] ;
152 -> 153 ;
154 [label="pH <= 3.29\ngini = 0.48\nsamples = 4\nvalue = [0, 0, 0, 3, 2, 0, 0]"] ;
152 -> 154 ;
155 [label="gini = 0.0\nsamples = 1\nvalue = [0, 0, 0, 0, 2, 0, 0]"] ;
154 -> 155 ;
156 [label="gini = 0.0\nsamples = 3\nvalue = [0, 0, 0, 3, 0, 0, 0]"] ;
154 -> 156 ;
157 [label="alcohol <= 10.3\ngini = 0.41\nsamples = 4\nvalue = [0, 0, 2, 5, 0, 0, 0]"] ;
147 -> 157 ;
158 [label="gini = 0.0\nsamples = 3\nvalue = [0, 0, 0, 5, 0, 0, 0]"] ;
157 -> 158 ;
159 [label="gini = 0.0\nsamples = 1\nvalue = [0, 0, 2, 0, 0, 0, 0]"] ;
157 -> 159 ;
160 [label="chlorides <= 0.04\ngini = 0.6\nsamples = 68\nvalue = [0, 0, 13, 52, 38, 1, 0]"] ;
146 -> 160 ;
161 [label="free sulfur dioxide <= 20.5\ngini = 0.55\nsamples = 29\nvalue = [0, 0, 3, 16, 27, 1, 0]"] ;
160 -> 161 ;
162 [label="gini = 0.0\nsamples = 1\nvalue = [0, 0, 0, 4, 0, 0, 0]"] ;
161 -> 162 ;
163 [label="fixed acidity <= 6.25\ngini = 0.52\nsamples = 28\nvalue = [0, 0, 3, 12, 27, 1, 0]"] ;
161 -> 163 ;
164 [label="sulphates <= 0.56\ngini = 0.62\nsamples = 13\nvalue = [0, 0, 2, 9, 6, 1, 0]"] ;
163 -> 164 ;
165 [label="residual sugar <= 11.2\ngini = 0.6\nsamples = 11\nvalue = [0, 0, 2, 9, 4, 1, 0]"] ;
164 -> 165 ;
166 [label="sulphates <= 0.45\ngini = 0.5\nsamples = 9\nvalue = [0, 0, 1, 9, 4, 0, 0]"] ;
165 -> 166 ;
167 [label="alcohol <= 9.3\ngini = 0.59\nsamples = 5\nvalue = [0, 0, 1, 3, 4, 0, 0]"] ;
166 -> 167 ;
168 [label="gini = 0.0\nsamples = 1\nvalue = [0, 0, 0, 2, 0, 0, 0]"] ;
167 -> 168 ;
169 [label="density <= 0.99\ngini = 0.5\nsamples = 4\nvalue = [0, 0, 1, 1, 4, 0, 0]"] ;
167 -> 169 ;
170 [label="gini = 0.0\nsamples = 1\nvalue = [0, 0, 1, 0, 0, 0, 0]"] ;
169 -> 170 ;
171 [label="fixed acidity <= 5.85\ngini = 0.32\nsamples = 3\nvalue = [0, 0, 0, 1, 4, 0, 0]"] ;
169 -> 171 ;
172 [label="gini = 0.0\nsamples = 2\nvalue = [0, 0, 0, 0, 4, 0, 0]"] ;
171 -> 172 ;
173 [label="gini = 0.0\nsamples = 1\nvalue = [0, 0, 0, 1, 0, 0, 0]"] ;
171 -> 173 ;
174 [label="gini = 0.0\nsamples = 4\nvalue = [0, 0, 0, 6, 0, 0, 0]"] ;
166 -> 174 ;
175 [label="fixed acidity <= 5.9\ngini = 0.5\nsamples = 2\nvalue = [0, 0, 1, 0, 0, 1, 0]"] ;
165 -> 175 ;
176 [label="gini = 0.0\nsamples = 1\nvalue = [0, 0, 0, 0, 0, 1, 0]"] ;
175 -> 176 ;
177 [label="gini = 0.0\nsamples = 1\nvalue = [0, 0, 1, 0, 0, 0, 0]"] ;
175 -> 177 ;
178 [label="gini = 0.0\nsamples = 2\nvalue = [0, 0, 0, 0, 2, 0, 0]"] ;
164 -> 178 ;
179 [label="sulphates <= 0.53\ngini = 0.28\nsamples = 15\nvalue = [0, 0, 1, 3, 21, 0, 0]"] ;
163 -> 179 ;
180 [label="citric acid <= 0.28\ngini = 0.61\nsamples = 5\nvalue = [0, 0, 1, 3, 2, 0, 0]"] ;
179 -> 180 ;
181 [label="free sulfur dioxide <= 34.0\ngini = 0.44\nsamples = 2\nvalue = [0, 0, 1, 0, 2, 0, 0]"] ;
180 -> 181 ;
182 [label="gini = 0.0\nsamples = 1\nvalue = [0, 0, 0, 0, 2, 0, 0]"] ;
181 -> 182 ;
183 [label="gini = 0.0\nsamples = 1\nvalue = [0, 0, 1, 0, 0, 0, 0]"] ;
181 -> 183 ;
184 [label="gini = 0.0\nsamples = 3\nvalue = [0, 0, 0, 3, 0, 0, 0]"] ;
180 -> 184 ;
185 [label="gini = 0.0\nsamples = 10\nvalue = [0, 0, 0, 0, 19, 0, 0]"] ;
179 -> 185 ;
186 [label="density <= 1.0\ngini = 0.53\nsamples = 39\nvalue = [0, 0, 10, 36, 11, 0, 0]"] ;
160 -> 186 ;
187 [label="volatile acidity <= 0.12\ngini = 0.48\nsamples = 35\nvalue = [0, 0, 9, 35, 7, 0, 0]"] ;
186 -> 187 ;
188 [label="alcohol <= 10.25\ngini = 0.32\nsamples = 4\nvalue = [0, 0, 0, 1, 4, 0, 0]"] ;
187 -> 188 ;
189 [label="gini = 0.0\nsamples = 3\nvalue = [0, 0, 0, 0, 4, 0, 0]"] ;
188 -> 189 ;
190 [label="gini = 0.0\nsamples = 1\nvalue = [0, 0, 0, 1, 0, 0, 0]"] ;
188 -> 190 ;
191 [label="chlorides <= 0.05\ngini = 0.41\nsamples = 31\nvalue = [0, 0, 9, 34, 3, 0, 0]"] ;
187 -> 191 ;
192 [label="citric acid <= 0.72\ngini = 0.31\nsamples = 25\nvalue = [0, 0, 5, 31, 2, 0, 0]"] ;
191 -> 192 ;
193 [label="total sulfur dioxide <= 129.0\ngini = 0.28\nsamples = 24\nvalue = [0, 0, 4, 31, 2, 0, 0]"] ;
192 -> 193 ;
194 [label="gini = 0.0\nsamples = 10\nvalue = [0, 0, 0, 17, 0, 0, 0]"] ;
193 -> 194 ;
195 [label="sulphates <= 0.81\ngini = 0.46\nsamples = 14\nvalue = [0, 0, 4, 14, 2, 0, 0]"] ;
193 -> 195 ;
196 [label="free sulfur dioxide <= 54.5\ngini = 0.35\nsamples = 13\nvalue = [0, 0, 4, 14, 0, 0, 0]"] ;
195 -> 196 ;
197 [label="fixed acidity <= 6.05\ngini = 0.13\nsamples = 9\nvalue = [0, 0, 1, 13, 0, 0, 0]"] ;
196 -> 197 ;
198 [label="density <= 0.99\ngini = 0.44\nsamples = 3\nvalue = [0, 0, 1, 2, 0, 0, 0]"] ;
197 -> 198 ;
199 [label="gini = 0.0\nsamples = 2\nvalue = [0, 0, 0, 2, 0, 0, 0]"] ;
198 -> 199 ;
200 [label="gini = 0.0\nsamples = 1\nvalue = [0, 0, 1, 0, 0, 0, 0]"] ;
198 -> 200 ;
201 [label="gini = 0.0\nsamples = 6\nvalue = [0, 0, 0, 11, 0, 0, 0]"] ;
197 -> 201 ;
202 [label="residual sugar <= 11.1\ngini = 0.38\nsamples = 4\nvalue = [0, 0, 3, 1, 0, 0, 0]"] ;
196 -> 202 ;
203 [label="pH <= 3.09\ngini = 0.5\nsamples = 2\nvalue = [0, 0, 1, 1, 0, 0, 0]"] ;
202 -> 203 ;
204 [label="gini = 0.0\nsamples = 1\nvalue = [0, 0, 1, 0, 0, 0, 0]"] ;
203 -> 204 ;
205 [label="gini = 0.0\nsamples = 1\nvalue = [0, 0, 0, 1, 0, 0, 0]"] ;
203 -> 205 ;
206 [label="gini = 0.0\nsamples = 2\nvalue = [0, 0, 2, 0, 0, 0, 0]"] ;
202 -> 206 ;
207 [label="gini = 0.0\nsamples = 1\nvalue = [0, 0, 0, 0, 2, 0, 0]"] ;
195 -> 207 ;
208 [label="gini = 0.0\nsamples = 1\nvalue = [0, 0, 1, 0, 0, 0, 0]"] ;
192 -> 208 ;
209 [label="total sulfur dioxide <= 128.0\ngini = 0.59\nsamples = 6\nvalue = [0, 0, 4, 3, 1, 0, 0]"] ;
191 -> 209 ;
210 [label="gini = 0.0\nsamples = 1\nvalue = [0, 0, 3, 0, 0, 0, 0]"] ;
209 -> 210 ;
211 [label="volatile acidity <= 0.18\ngini = 0.56\nsamples = 5\nvalue = [0, 0, 1, 3, 1, 0, 0]"] ;
209 -> 211 ;
212 [label="citric acid <= 0.56\ngini = 0.38\nsamples = 4\nvalue = [0, 0, 0, 3, 1, 0, 0]"] ;
211 -> 212 ;
213 [label="gini = 0.0\nsamples = 3\nvalue = [0, 0, 0, 3, 0, 0, 0]"] ;
212 -> 213 ;
214 [label="gini = 0.0\nsamples = 1\nvalue = [0, 0, 0, 0, 1, 0, 0]"] ;
212 -> 214 ;
215 [label="gini = 0.0\nsamples = 1\nvalue = [0, 0, 1, 0, 0, 0, 0]"] ;
211 -> 215 ;
216 [label="fixed acidity <= 6.7\ngini = 0.5\nsamples = 4\nvalue = [0, 0, 1, 1, 4, 0, 0]"] ;
186 -> 216 ;
217 [label="residual sugar <= 14.95\ngini = 0.5\nsamples = 2\nvalue = [0, 0, 1, 1, 0, 0, 0]"] ;
216 -> 217 ;
218 [label="gini = 0.0\nsamples = 1\nvalue = [0, 0, 1, 0, 0, 0, 0]"] ;
217 -> 218 ;
219 [label="gini = 0.0\nsamples = 1\nvalue = [0, 0, 0, 1, 0, 0, 0]"] ;
217 -> 219 ;
220 [label="gini = 0.0\nsamples = 2\nvalue = [0, 0, 0, 0, 4, 0, 0]"] ;
216 -> 220 ;
221 [label="free sulfur dioxide <= 43.0\ngini = 0.67\nsamples = 124\nvalue = [0, 4, 55, 94, 43, 7, 0]"] ;
145 -> 221 ;
222 [label="sulphates <= 0.37\ngini = 0.7\nsamples = 85\nvalue = [0, 4, 44, 54, 36, 5, 0]"] ;
221 -> 222 ;
223 [label="citric acid <= 0.38\ngini = 0.57\nsamples = 9\nvalue = [0, 3, 11, 1, 3, 0, 0]"] ;
222 -> 223 ;
224 [label="alcohol <= 10.5\ngini = 0.37\nsamples = 7\nvalue = [0, 1, 11, 1, 1, 0, 0]"] ;
223 -> 224 ;
225 [label="residual sugar <= 11.35\ngini = 0.27\nsamples = 6\nvalue = [0, 1, 11, 1, 0, 0, 0]"] ;
224 -> 225 ;
226 [label="pH <= 2.89\ngini = 0.15\nsamples = 5\nvalue = [0, 1, 11, 0, 0, 0, 0]"] ;
225 -> 226 ;
227 [label="gini = 0.0\nsamples = 1\nvalue = [0, 1, 0, 0, 0, 0, 0]"] ;
226 -> 227 ;
228 [label="gini = 0.0\nsamples = 4\nvalue = [0, 0, 11, 0, 0, 0, 0]"] ;
226 -> 228 ;
229 [label="gini = 0.0\nsamples = 1\nvalue = [0, 0, 0, 1, 0, 0, 0]"] ;
225 -> 229 ;
230 [label="gini = 0.0\nsamples = 1\nvalue = [0, 0, 0, 0, 1, 0, 0]"] ;
224 -> 230 ;
231 [label="sulphates <= 0.33\ngini = 0.5\nsamples = 2\nvalue = [0, 2, 0, 0, 2, 0, 0]"] ;
223 -> 231 ;
232 [label="gini = 0.0\nsamples = 1\nvalue = [0, 0, 0, 0, 2, 0, 0]"] ;
231 -> 232 ;
233 [label="gini = 0.0\nsamples = 1\nvalue = [0, 2, 0, 0, 0, 0, 0]"] ;
231 -> 233 ;
234 [label="citric acid <= 0.3\ngini = 0.68\nsamples = 76\nvalue = [0, 1, 33, 53, 33, 5, 0]"] ;
222 -> 234 ;
235 [label="total sulfur dioxide <= 100.0\ngini = 0.48\nsamples = 16\nvalue = [0, 0, 0, 8, 17, 1, 0]"] ;
234 -> 235 ;
236 [label="residual sugar <= 6.85\ngini = 0.49\nsamples = 6\nvalue = [0, 0, 0, 6, 2, 1, 0]"] ;
235 -> 236 ;
237 [label="gini = 0.0\nsamples = 4\nvalue = [0, 0, 0, 6, 0, 0, 0]"] ;
236 -> 237 ;
238 [label="residual sugar <= 9.7\ngini = 0.44\nsamples = 2\nvalue = [0, 0, 0, 0, 2, 1, 0]"] ;
236 -> 238 ;
239 [label="gini = 0.0\nsamples = 1\nvalue = [0, 0, 0, 0, 2, 0, 0]"] ;
238 -> 239 ;
240 [label="gini = 0.0\nsamples = 1\nvalue = [0, 0, 0, 0, 0, 1, 0]"] ;
238 -> 240 ;
241 [label="total sulfur dioxide <= 141.5\ngini = 0.21\nsamples = 10\nvalue = [0, 0, 0, 2, 15, 0, 0]"] ;
235 -> 241 ;
242 [label="gini = 0.0\nsamples = 5\nvalue = [0, 0, 0, 0, 10, 0, 0]"] ;
241 -> 242 ;
243 [label="citric acid <= 0.28\ngini = 0.41\nsamples = 5\nvalue = [0, 0, 0, 2, 5, 0, 0]"] ;
241 -> 243 ;
244 [label="gini = 0.0\nsamples = 2\nvalue = [0, 0, 0, 2, 0, 0, 0]"] ;
243 -> 244 ;
245 [label="gini = 0.0\nsamples = 3\nvalue = [0, 0, 0, 0, 5, 0, 0]"] ;
243 -> 245 ;
246 [label="density <= 0.99\ngini = 0.65\nsamples = 60\nvalue = [0, 1, 33, 45, 16, 4, 0]"] ;
234 -> 246 ;
247 [label="citric acid <= 0.44\ngini = 0.42\nsamples = 10\nvalue = [0, 0, 11, 3, 1, 0, 0]"] ;
246 -> 247 ;
248 [label="fixed acidity <= 7.95\ngini = 0.15\nsamples = 8\nvalue = [0, 0, 11, 1, 0, 0, 0]"] ;
247 -> 248 ;
249 [label="gini = 0.0\nsamples = 7\nvalue = [0, 0, 11, 0, 0, 0, 0]"] ;
248 -> 249 ;
250 [label="gini = 0.0\nsamples = 1\nvalue = [0, 0, 0, 1, 0, 0, 0]"] ;
248 -> 250 ;
251 [label="volatile acidity <= 0.16\ngini = 0.44\nsamples = 2\nvalue = [0, 0, 0, 2, 1, 0, 0]"] ;
247 -> 251 ;
252 [label="gini = 0.0\nsamples = 1\nvalue = [0, 0, 0, 0, 1, 0, 0]"] ;
251 -> 252 ;
253 [label="gini = 0.0\nsamples = 1\nvalue = [0, 0, 0, 2, 0, 0, 0]"] ;
251 -> 253 ;
254 [label="pH <= 2.95\ngini = 0.65\nsamples = 50\nvalue = [0, 1, 22, 42, 15, 4, 0]"] ;
246 -> 254 ;
255 [label="alcohol <= 9.2\ngini = 0.2\nsamples = 3\nvalue = [0, 0, 8, 0, 1, 0, 0]"] ;
254 -> 255 ;
256 [label="gini = 0.0\nsamples = 1\nvalue = [0, 0, 0, 0, 1, 0, 0]"] ;
255 -> 256 ;
257 [label="gini = 0.0\nsamples = 2\nvalue = [0, 0, 8, 0, 0, 0, 0]"] ;
255 -> 257 ;
258 [label="sulphates <= 0.48\ngini = 0.61\nsamples = 47\nvalue = [0, 1, 14, 42, 14, 4, 0]"] ;
254 -> 258 ;
259 [label="citric acid <= 0.34\ngini = 0.65\nsamples = 27\nvalue = [0, 1, 13, 19, 3, 4, 0]"] ;
258 -> 259 ;
260 [label="free sulfur dioxide <= 35.0\ngini = 0.35\nsamples = 10\nvalue = [0, 1, 1, 12, 1, 0, 0]"] ;
259 -> 260 ;
261 [label="residual sugar <= 1.15\ngini = 0.14\nsamples = 8\nvalue = [0, 0, 0, 12, 1, 0, 0]"] ;
260 -> 261 ;
262 [label="gini = 0.0\nsamples = 1\nvalue = [0, 0, 0, 0, 1, 0, 0]"] ;
261 -> 262 ;
263 [label="gini = 0.0\nsamples = 7\nvalue = [0, 0, 0, 12, 0, 0, 0]"] ;
261 -> 263 ;
264 [label="alcohol <= 9.3\ngini = 0.5\nsamples = 2\nvalue = [0, 1, 1, 0, 0, 0, 0]"] ;
260 -> 264 ;
265 [label="gini = 0.0\nsamples = 1\nvalue = [0, 1, 0, 0, 0, 0, 0]"] ;
264 -> 265 ;
266 [label="gini = 0.0\nsamples = 1\nvalue = [0, 0, 1, 0, 0, 0, 0]"] ;
264 -> 266 ;
267 [label="density <= 0.99\ngini = 0.66\nsamples = 17\nvalue = [0, 0, 12, 7, 2, 4, 0]"] ;
259 -> 267 ;
268 [label="residual sugar <= 1.85\ngini = 0.44\nsamples = 2\nvalue = [0, 0, 0, 0, 2, 4, 0]"] ;
267 -> 268 ;
269 [label="gini = 0.0\nsamples = 1\nvalue = [0, 0, 0, 0, 2, 0, 0]"] ;
268 -> 269 ;
270 [label="gini = 0.0\nsamples = 1\nvalue = [0, 0, 0, 0, 0, 4, 0]"] ;
268 -> 270 ;
271 [label="alcohol <= 10.15\ngini = 0.47\nsamples = 15\nvalue = [0, 0, 12, 7, 0, 0, 0]"] ;
267 -> 271 ;
272 [label="gini = 0.0\nsamples = 6\nvalue = [0, 0, 7, 0, 0, 0, 0]"] ;
271 -> 272 ;
273 [label="total sulfur dioxide <= 105.0\ngini = 0.49\nsamples = 9\nvalue = [0, 0, 5, 7, 0, 0, 0]"] ;
271 -> 273 ;
274 [label="gini = 0.0\nsamples = 2\nvalue = [0, 0, 4, 0, 0, 0, 0]"] ;
273 -> 274 ;
275 [label="sulphates <= 0.45\ngini = 0.22\nsamples = 7\nvalue = [0, 0, 1, 7, 0, 0, 0]"] ;
273 -> 275 ;
276 [label="gini = 0.0\nsamples = 5\nvalue = [0, 0, 0, 6, 0, 0, 0]"] ;
275 -> 276 ;
277 [label="citric acid <= 0.43\ngini = 0.5\nsamples = 2\nvalue = [0, 0, 1, 1, 0, 0, 0]"] ;
275 -> 277 ;
278 [label="gini = 0.0\nsamples = 1\nvalue = [0, 0, 1, 0, 0, 0, 0]"] ;
277 -> 278 ;
279 [label="gini = 0.0\nsamples = 1\nvalue = [0, 0, 0, 1, 0, 0, 0]"] ;
277 -> 279 ;
280 [label="chlorides <= 0.04\ngini = 0.47\nsamples = 20\nvalue = [0, 0, 1, 23, 11, 0, 0]"] ;
258 -> 280 ;
281 [label="chlorides <= 0.03\ngini = 0.4\nsamples = 6\nvalue = [0, 0, 0, 3, 8, 0, 0]"] ;
280 -> 281 ;
282 [label="gini = 0.0\nsamples = 2\nvalue = [0, 0, 0, 3, 0, 0, 0]"] ;
281 -> 282 ;
283 [label="gini = 0.0\nsamples = 4\nvalue = [0, 0, 0, 0, 8, 0, 0]"] ;
281 -> 283 ;
284 [label="volatile acidity <= 0.15\ngini = 0.29\nsamples = 14\nvalue = [0, 0, 1, 20, 3, 0, 0]"] ;
280 -> 284 ;
285 [label="gini = 0.0\nsamples = 1\nvalue = [0, 0, 0, 0, 2, 0, 0]"] ;
284 -> 285 ;
286 [label="residual sugar <= 1.15\ngini = 0.17\nsamples = 13\nvalue = [0, 0, 1, 20, 1, 0, 0]"] ;
284 -> 286 ;
287 [label="gini = 0.0\nsamples = 1\nvalue = [0, 0, 1, 0, 0, 0, 0]"] ;
286 -> 287 ;
288 [label="density <= 1.0\ngini = 0.09\nsamples = 12\nvalue = [0, 0, 0, 20, 1, 0, 0]"] ;
286 -> 288 ;
289 [label="gini = 0.0\nsamples = 10\nvalue = [0, 0, 0, 18, 0, 0, 0]"] ;
288 -> 289 ;
290 [label="citric acid <= 0.45\ngini = 0.44\nsamples = 2\nvalue = [0, 0, 0, 2, 1, 0, 0]"] ;
288 -> 290 ;
291 [label="gini = 0.0\nsamples = 1\nvalue = [0, 0, 0, 0, 1, 0, 0]"] ;
290 -> 291 ;
292 [label="gini = 0.0\nsamples = 1\nvalue = [0, 0, 0, 2, 0, 0, 0]"] ;
290 -> 292 ;
293 [label="free sulfur dioxide <= 52.0\ngini = 0.51\nsamples = 39\nvalue = [0, 0, 11, 40, 7, 2, 0]"] ;
221 -> 293 ;
294 [label="pH <= 3.34\ngini = 0.33\nsamples = 25\nvalue = [0, 0, 3, 30, 2, 2, 0]"] ;
293 -> 294 ;
295 [label="citric acid <= 0.28\ngini = 0.12\nsamples = 21\nvalue = [0, 0, 0, 29, 0, 2, 0]"] ;
294 -> 295 ;
296 [label="residual sugar <= 12.55\ngini = 0.44\nsamples = 3\nvalue = [0, 0, 0, 1, 0, 2, 0]"] ;
295 -> 296 ;
297 [label="gini = 0.0\nsamples = 1\nvalue = [0, 0, 0, 1, 0, 0, 0]"] ;
296 -> 297 ;
298 [label="gini = 0.0\nsamples = 2\nvalue = [0, 0, 0, 0, 0, 2, 0]"] ;
296 -> 298 ;
299 [label="gini = 0.0\nsamples = 18\nvalue = [0, 0, 0, 28, 0, 0, 0]"] ;
295 -> 299 ;
300 [label="fixed acidity <= 7.5\ngini = 0.61\nsamples = 4\nvalue = [0, 0, 3, 1, 2, 0, 0]"] ;
294 -> 300 ;
301 [label="total sulfur dioxide <= 145.0\ngini = 0.48\nsamples = 3\nvalue = [0, 0, 3, 0, 2, 0, 0]"] ;
300 -> 301 ;
302 [label="gini = 0.0\nsamples = 2\nvalue = [0, 0, 0, 0, 2, 0, 0]"] ;
301 -> 302 ;
303 [label="gini = 0.0\nsamples = 1\nvalue = [0, 0, 3, 0, 0, 0, 0]"] ;
301 -> 303 ;
304 [label="gini = 0.0\nsamples = 1\nvalue = [0, 0, 0, 1, 0, 0, 0]"] ;
300 -> 304 ;
305 [label="volatile acidity <= 0.19\ngini = 0.64\nsamples = 14\nvalue = [0, 0, 8, 10, 5, 0, 0]"] ;
293 -> 305 ;
306 [label="fixed acidity <= 7.25\ngini = 0.6\nsamples = 12\nvalue = [0, 0, 3, 9, 5, 0, 0]"] ;
305 -> 306 ;
307 [label="pH <= 3.12\ngini = 0.62\nsamples = 7\nvalue = [0, 0, 2, 3, 5, 0, 0]"] ;
306 -> 307 ;
308 [label="gini = 0.0\nsamples = 1\nvalue = [0, 0, 1, 0, 0, 0, 0]"] ;
307 -> 308 ;
309 [label="fixed acidity <= 7.05\ngini = 0.57\nsamples = 6\nvalue = [0, 0, 1, 3, 5, 0, 0]"] ;
307 -> 309 ;
310 [label="gini = 0.0\nsamples = 2\nvalue = [0, 0, 0, 3, 0, 0, 0]"] ;
309 -> 310 ;
311 [label="pH <= 3.35\ngini = 0.28\nsamples = 4\nvalue = [0, 0, 1, 0, 5, 0, 0]"] ;
309 -> 311 ;
312 [label="gini = 0.0\nsamples = 3\nvalue = [0, 0, 0, 0, 5, 0, 0]"] ;
311 -> 312 ;
313 [label="gini = 0.0\nsamples = 1\nvalue = [0, 0, 1, 0, 0, 0, 0]"] ;
311 -> 313 ;
314 [label="free sulfur dioxide <= 55.0\ngini = 0.24\nsamples = 5\nvalue = [0, 0, 1, 6, 0, 0, 0]"] ;
306 -> 314 ;
315 [label="gini = 0.0\nsamples = 1\nvalue = [0, 0, 1, 0, 0, 0, 0]"] ;
314 -> 315 ;
316 [label="gini = 0.0\nsamples = 4\nvalue = [0, 0, 0, 6, 0, 0, 0]"] ;
314 -> 316 ;
317 [label="pH <= 3.25\ngini = 0.28\nsamples = 2\nvalue = [0, 0, 5, 1, 0, 0, 0]"] ;
305 -> 317 ;
318 [label="gini = 0.0\nsamples = 1\nvalue = [0, 0, 0, 1, 0, 0, 0]"] ;
317 -> 318 ;
319 [label="gini = 0.0\nsamples = 1\nvalue = [0, 0, 5, 0, 0, 0, 0]"] ;
317 -> 319 ;
320 [label="pH <= 3.2\ngini = 0.38\nsamples = 44\nvalue = [0, 0, 2, 54, 8, 6, 0]"] ;
122 -> 320 ;
321 [label="total sulfur dioxide <= 196.0\ngini = 0.59\nsamples = 23\nvalue = [0, 0, 1, 19, 7, 6, 0]"] ;
320 -> 321 ;
322 [label="gini = 0.0\nsamples = 11\nvalue = [0, 0, 0, 18, 0, 0, 0]"] ;
321 -> 322 ;
323 [label="volatile acidity <= 0.2\ngini = 0.61\nsamples = 12\nvalue = [0, 0, 1, 1, 7, 6, 0]"] ;
321 -> 323 ;
324 [label="sulphates <= 0.44\ngini = 0.24\nsamples = 7\nvalue = [0, 0, 1, 0, 6, 0, 0]"] ;
323 -> 324 ;
325 [label="gini = 0.0\nsamples = 1\nvalue = [0, 0, 1, 0, 0, 0, 0]"] ;
324 -> 325 ;
326 [label="gini = 0.0\nsamples = 6\nvalue = [0, 0, 0, 0, 6, 0, 0]"] ;
324 -> 326 ;
327 [label="free sulfur dioxide <= 51.5\ngini = 0.41\nsamples = 5\nvalue = [0, 0, 0, 1, 1, 6, 0]"] ;
323 -> 327 ;
328 [label="residual sugar <= 14.95\ngini = 0.5\nsamples = 2\nvalue = [0, 0, 0, 1, 1, 0, 0]"] ;
327 -> 328 ;
329 [label="gini = 0.0\nsamples = 1\nvalue = [0, 0, 0, 0, 1, 0, 0]"] ;
328 -> 329 ;
330 [label="gini = 0.0\nsamples = 1\nvalue = [0, 0, 0, 1, 0, 0, 0]"] ;
328 -> 330 ;
331 [label="gini = 0.0\nsamples = 3\nvalue = [0, 0, 0, 0, 0, 6, 0]"] ;
327 -> 331 ;
332 [label="density <= 0.99\ngini = 0.1\nsamples = 21\nvalue = [0, 0, 1, 35, 1, 0, 0]"] ;
320 -> 332 ;
333 [label="chlorides <= 0.04\ngini = 0.5\nsamples = 2\nvalue = [0, 0, 1, 0, 1, 0, 0]"] ;
332 -> 333 ;
334 [label="gini = 0.0\nsamples = 1\nvalue = [0, 0, 1, 0, 0, 0, 0]"] ;
333 -> 334 ;
335 [label="gini = 0.0\nsamples = 1\nvalue = [0, 0, 0, 0, 1, 0, 0]"] ;
333 -> 335 ;
336 [label="gini = 0.0\nsamples = 19\nvalue = [0, 0, 0, 35, 0, 0, 0]"] ;
332 -> 336 ;
337 [label="alcohol <= 9.77\ngini = 0.57\nsamples = 307\nvalue = [3, 1, 162, 288, 53, 2, 0]"] ;
121 -> 337 ;
338 [label="chlorides <= 0.04\ngini = 0.57\nsamples = 163\nvalue = [3, 0, 123, 129, 18, 0, 0]"] ;
337 -> 338 ;
339 [label="sulphates <= 0.5\ngini = 0.13\nsamples = 8\nvalue = [0, 0, 13, 1, 0, 0, 0]"] ;
338 -> 339 ;
340 [label="total sulfur dioxide <= 135.5\ngini = 0.38\nsamples = 3\nvalue = [0, 0, 3, 1, 0, 0, 0]"] ;
339 -> 340 ;
341 [label="gini = 0.0\nsamples = 1\nvalue = [0, 0, 0, 1, 0, 0, 0]"] ;
340 -> 341 ;
342 [label="gini = 0.0\nsamples = 2\nvalue = [0, 0, 3, 0, 0, 0, 0]"] ;
340 -> 342 ;
343 [label="gini = 0.0\nsamples = 5\nvalue = [0, 0, 10, 0, 0, 0, 0]"] ;
339 -> 343 ;
344 [label="chlorides <= 0.04\ngini = 0.57\nsamples = 155\nvalue = [3, 0, 110, 128, 18, 0, 0]"] ;
338 -> 344 ;
345 [label="pH <= 3.25\ngini = 0.48\nsamples = 48\nvalue = [3, 0, 19, 54, 4, 0, 0]"] ;
344 -> 345 ;
346 [label="free sulfur dioxide <= 60.5\ngini = 0.34\nsamples = 38\nvalue = [0, 0, 9, 47, 3, 0, 0]"] ;
345 -> 346 ;
347 [label="total sulfur dioxide <= 159.5\ngini = 0.15\nsamples = 33\nvalue = [0, 0, 1, 45, 3, 0, 0]"] ;
346 -> 347 ;
348 [label="fixed acidity <= 5.5\ngini = 0.05\nsamples = 23\nvalue = [0, 0, 1, 35, 0, 0, 0]"] ;
347 -> 348 ;
349 [label="gini = 0.0\nsamples = 1\nvalue = [0, 0, 1, 0, 0, 0, 0]"] ;
348 -> 349 ;
350 [label="gini = 0.0\nsamples = 22\nvalue = [0, 0, 0, 35, 0, 0, 0]"] ;
348 -> 350 ;
351 [label="alcohol <= 8.65\ngini = 0.36\nsamples = 10\nvalue = [0, 0, 0, 10, 3, 0, 0]"] ;
347 -> 351 ;
352 [label="gini = 0.0\nsamples = 2\nvalue = [0, 0, 0, 0, 2, 0, 0]"] ;
351 -> 352 ;
353 [label="density <= 1.0\ngini = 0.17\nsamples = 8\nvalue = [0, 0, 0, 10, 1, 0, 0]"] ;
351 -> 353 ;
354 [label="gini = 0.0\nsamples = 7\nvalue = [0, 0, 0, 10, 0, 0, 0]"] ;
353 -> 354 ;
355 [label="gini = 0.0\nsamples = 1\nvalue = [0, 0, 0, 0, 1, 0, 0]"] ;
353 -> 355 ;
356 [label="fixed acidity <= 7.45\ngini = 0.32\nsamples = 5\nvalue = [0, 0, 8, 2, 0, 0, 0]"] ;
346 -> 356 ;
357 [label="residual sugar <= 8.75\ngini = 0.5\nsamples = 2\nvalue = [0, 0, 2, 2, 0, 0, 0]"] ;
356 -> 357 ;
358 [label="gini = 0.0\nsamples = 1\nvalue = [0, 0, 2, 0, 0, 0, 0]"] ;
357 -> 358 ;
359 [label="gini = 0.0\nsamples = 1\nvalue = [0, 0, 0, 2, 0, 0, 0]"] ;
357 -> 359 ;
360 [label="gini = 0.0\nsamples = 3\nvalue = [0, 0, 6, 0, 0, 0, 0]"] ;
356 -> 360 ;
361 [label="residual sugar <= 5.25\ngini = 0.64\nsamples = 10\nvalue = [3, 0, 10, 7, 1, 0, 0]"] ;
345 -> 361 ;
362 [label="free sulfur dioxide <= 84.75\ngini = 0.49\nsamples = 3\nvalue = [3, 0, 0, 4, 0, 0, 0]"] ;
361 -> 362 ;
363 [label="gini = 0.0\nsamples = 2\nvalue = [0, 0, 0, 4, 0, 0, 0]"] ;
362 -> 363 ;
364 [label="gini = 0.0\nsamples = 1\nvalue = [3, 0, 0, 0, 0, 0, 0]"] ;
362 -> 364 ;
365 [label="fixed acidity <= 7.05\ngini = 0.44\nsamples = 7\nvalue = [0, 0, 10, 3, 1, 0, 0]"] ;
361 -> 365 ;
366 [label="free sulfur dioxide <= 34.5\ngini = 0.17\nsamples = 5\nvalue = [0, 0, 10, 1, 0, 0, 0]"] ;
365 -> 366 ;
367 [label="gini = 0.0\nsamples = 1\nvalue = [0, 0, 0, 1, 0, 0, 0]"] ;
366 -> 367 ;
368 [label="gini = 0.0\nsamples = 4\nvalue = [0, 0, 10, 0, 0, 0, 0]"] ;
366 -> 368 ;
369 [label="total sulfur dioxide <= 147.0\ngini = 0.44\nsamples = 2\nvalue = [0, 0, 0, 2, 1, 0, 0]"] ;
365 -> 369 ;
370 [label="gini = 0.0\nsamples = 1\nvalue = [0, 0, 0, 2, 0, 0, 0]"] ;
369 -> 370 ;
371 [label="gini = 0.0\nsamples = 1\nvalue = [0, 0, 0, 0, 1, 0, 0]"] ;
369 -> 371 ;
372 [label="citric acid <= 0.3\ngini = 0.56\nsamples = 107\nvalue = [0, 0, 91, 74, 14, 0, 0]"] ;
344 -> 372 ;
373 [label="alcohol <= 8.75\ngini = 0.41\nsamples = 34\nvalue = [0, 0, 42, 12, 3, 0, 0]"] ;
372 -> 373 ;
374 [label="total sulfur dioxide <= 117.0\ngini = 0.32\nsamples = 4\nvalue = [0, 0, 1, 4, 0, 0, 0]"] ;
373 -> 374 ;
375 [label="gini = 0.0\nsamples = 1\nvalue = [0, 0, 1, 0, 0, 0, 0]"] ;
374 -> 375 ;
376 [label="gini = 0.0\nsamples = 3\nvalue = [0, 0, 0, 4, 0, 0, 0]"] ;
374 -> 376 ;
377 [label="pH <= 3.1\ngini = 0.35\nsamples = 30\nvalue = [0, 0, 41, 8, 3, 0, 0]"] ;
373 -> 377 ;
378 [label="residual sugar <= 11.3\ngini = 0.49\nsamples = 7\nvalue = [0, 0, 4, 5, 0, 0, 0]"] ;
377 -> 378 ;
379 [label="gini = 0.0\nsamples = 2\nvalue = [0, 0, 3, 0, 0, 0, 0]"] ;
378 -> 379 ;
380 [label="pH <= 3.04\ngini = 0.28\nsamples = 5\nvalue = [0, 0, 1, 5, 0, 0, 0]"] ;
378 -> 380 ;
381 [label="pH <= 3.01\ngini = 0.5\nsamples = 2\nvalue = [0, 0, 1, 1, 0, 0, 0]"] ;
380 -> 381 ;
382 [label="gini = 0.0\nsamples = 1\nvalue = [0, 0, 0, 1, 0, 0, 0]"] ;
381 -> 382 ;
383 [label="gini = 0.0\nsamples = 1\nvalue = [0, 0, 1, 0, 0, 0, 0]"] ;
381 -> 383 ;
384 [label="gini = 0.0\nsamples = 3\nvalue = [0, 0, 0, 4, 0, 0, 0]"] ;
380 -> 384 ;
385 [label="total sulfur dioxide <= 209.0\ngini = 0.25\nsamples = 23\nvalue = [0, 0, 37, 3, 3, 0, 0]"] ;
377 -> 385 ;
386 [label="sulphates <= 0.54\ngini = 0.18\nsamples = 22\nvalue = [0, 0, 37, 1, 3, 0, 0]"] ;
385 -> 386 ;
387 [label="free sulfur dioxide <= 53.5\ngini = 0.14\nsamples = 21\nvalue = [0, 0, 37, 0, 3, 0, 0]"] ;
386 -> 387 ;
388 [label="gini = 0.0\nsamples = 19\nvalue = [0, 0, 37, 0, 0, 0, 0]"] ;
387 -> 388 ;
389 [label="gini = 0.0\nsamples = 2\nvalue = [0, 0, 0, 0, 3, 0, 0]"] ;
387 -> 389 ;
390 [label="gini = 0.0\nsamples = 1\nvalue = [0, 0, 0, 1, 0, 0, 0]"] ;
386 -> 390 ;
391 [label="gini = 0.0\nsamples = 1\nvalue = [0, 0, 0, 2, 0, 0, 0]"] ;
385 -> 391 ;
392 [label="chlorides <= 0.06\ngini = 0.57\nsamples = 73\nvalue = [0, 0, 49, 62, 11, 0, 0]"] ;
372 -> 392 ;
393 [label="density <= 1.0\ngini = 0.58\nsamples = 63\nvalue = [0, 0, 48, 48, 10, 0, 0]"] ;
392 -> 393 ;
394 [label="citric acid <= 0.34\ngini = 0.45\nsamples = 14\nvalue = [0, 0, 17, 5, 2, 0, 0]"] ;
393 -> 394 ;
395 [label="fixed acidity <= 6.6\ngini = 0.48\nsamples = 2\nvalue = [0, 0, 0, 3, 2, 0, 0]"] ;
394 -> 395 ;
396 [label="gini = 0.0\nsamples = 1\nvalue = [0, 0, 0, 3, 0, 0, 0]"] ;
395 -> 396 ;
397 [label="gini = 0.0\nsamples = 1\nvalue = [0, 0, 0, 0, 2, 0, 0]"] ;
395 -> 397 ;
398 [label="fixed acidity <= 5.95\ngini = 0.19\nsamples = 12\nvalue = [0, 0, 17, 2, 0, 0, 0]"] ;
394 -> 398 ;
399 [label="gini = 0.0\nsamples = 1\nvalue = [0, 0, 0, 1, 0, 0, 0]"] ;
398 -> 399 ;
400 [label="alcohol <= 9.25\ngini = 0.1\nsamples = 11\nvalue = [0, 0, 17, 1, 0, 0, 0]"] ;
398 -> 400 ;
401 [label="total sulfur dioxide <= 199.0\ngini = 0.32\nsamples = 4\nvalue = [0, 0, 4, 1, 0, 0, 0]"] ;
400 -> 401 ;
402 [label="gini = 0.0\nsamples = 3\nvalue = [0, 0, 4, 0, 0, 0, 0]"] ;
401 -> 402 ;
403 [label="gini = 0.0\nsamples = 1\nvalue = [0, 0, 0, 1, 0, 0, 0]"] ;
401 -> 403 ;
404 [label="gini = 0.0\nsamples = 7\nvalue = [0, 0, 13, 0, 0, 0, 0]"] ;
400 -> 404 ;
405 [label="citric acid <= 0.34\ngini = 0.57\nsamples = 49\nvalue = [0, 0, 31, 43, 8, 0, 0]"] ;
393 -> 405 ;
406 [label="fixed acidity <= 7.4\ngini = 0.34\nsamples = 18\nvalue = [0, 0, 7, 25, 0, 0, 0]"] ;
405 -> 406 ;
407 [label="chlorides <= 0.05\ngini = 0.16\nsamples = 13\nvalue = [0, 0, 2, 21, 0, 0, 0]"] ;
406 -> 407 ;
408 [label="fixed acidity <= 6.85\ngini = 0.5\nsamples = 3\nvalue = [0, 0, 2, 2, 0, 0, 0]"] ;
407 -> 408 ;
409 [label="gini = 0.0\nsamples = 2\nvalue = [0, 0, 2, 0, 0, 0, 0]"] ;
408 -> 409 ;
410 [label="gini = 0.0\nsamples = 1\nvalue = [0, 0, 0, 2, 0, 0, 0]"] ;
408 -> 410 ;
411 [label="gini = 0.0\nsamples = 10\nvalue = [0, 0, 0, 19, 0, 0, 0]"] ;
407 -> 411 ;
412 [label="alcohol <= 8.95\ngini = 0.49\nsamples = 5\nvalue = [0, 0, 5, 4, 0, 0, 0]"] ;
406 -> 412 ;
413 [label="gini = 0.0\nsamples = 2\nvalue = [0, 0, 5, 0, 0, 0, 0]"] ;
412 -> 413 ;
414 [label="gini = 0.0\nsamples = 3\nvalue = [0, 0, 0, 4, 0, 0, 0]"] ;
412 -> 414 ;
415 [label="alcohol <= 9.35\ngini = 0.61\nsamples = 31\nvalue = [0, 0, 24, 18, 8, 0, 0]"] ;
405 -> 415 ;
416 [label="residual sugar <= 17.55\ngini = 0.61\nsamples = 22\nvalue = [0, 0, 11, 17, 6, 0, 0]"] ;
415 -> 416 ;
417 [label="density <= 1.0\ngini = 0.57\nsamples = 18\nvalue = [0, 0, 6, 17, 6, 0, 0]"] ;
416 -> 417 ;
418 [label="free sulfur dioxide <= 53.5\ngini = 0.66\nsamples = 11\nvalue = [0, 0, 6, 5, 6, 0, 0]"] ;
417 -> 418 ;
419 [label="alcohol <= 9.05\ngini = 0.61\nsamples = 9\nvalue = [0, 0, 6, 2, 6, 0, 0]"] ;
418 -> 419 ;
420 [label="density <= 1.0\ngini = 0.49\nsamples = 6\nvalue = [0, 0, 1, 2, 6, 0, 0]"] ;
419 -> 420 ;
421 [label="chlorides <= 0.05\ngini = 0.44\nsamples = 2\nvalue = [0, 0, 1, 2, 0, 0, 0]"] ;
420 -> 421 ;
422 [label="gini = 0.0\nsamples = 1\nvalue = [0, 0, 1, 0, 0, 0, 0]"] ;
421 -> 422 ;
423 [label="gini = 0.0\nsamples = 1\nvalue = [0, 0, 0, 2, 0, 0, 0]"] ;
421 -> 423 ;
424 [label="gini = 0.0\nsamples = 4\nvalue = [0, 0, 0, 0, 6, 0, 0]"] ;
420 -> 424 ;
425 [label="gini = 0.0\nsamples = 3\nvalue = [0, 0, 5, 0, 0, 0, 0]"] ;
419 -> 425 ;
426 [label="gini = 0.0\nsamples = 2\nvalue = [0, 0, 0, 3, 0, 0, 0]"] ;
418 -> 426 ;
427 [label="gini = 0.0\nsamples = 7\nvalue = [0, 0, 0, 12, 0, 0, 0]"] ;
417 -> 427 ;
428 [label="gini = 0.0\nsamples = 4\nvalue = [0, 0, 5, 0, 0, 0, 0]"] ;
416 -> 428 ;
429 [label="alcohol <= 9.45\ngini = 0.32\nsamples = 9\nvalue = [0, 0, 13, 1, 2, 0, 0]"] ;
415 -> 429 ;
430 [label="fixed acidity <= 7.25\ngini = 0.18\nsamples = 5\nvalue = [0, 0, 9, 1, 0, 0, 0]"] ;
429 -> 430 ;
431 [label="gini = 0.0\nsamples = 4\nvalue = [0, 0, 9, 0, 0, 0, 0]"] ;
430 -> 431 ;
432 [label="gini = 0.0\nsamples = 1\nvalue = [0, 0, 0, 1, 0, 0, 0]"] ;
430 -> 432 ;
433 [label="alcohol <= 9.55\ngini = 0.44\nsamples = 4\nvalue = [0, 0, 4, 0, 2, 0, 0]"] ;
429 -> 433 ;
434 [label="gini = 0.0\nsamples = 1\nvalue = [0, 0, 0, 0, 2, 0, 0]"] ;
433 -> 434 ;
435 [label="gini = 0.0\nsamples = 3\nvalue = [0, 0, 4, 0, 0, 0, 0]"] ;
433 -> 435 ;
436 [label="fixed acidity <= 6.7\ngini = 0.23\nsamples = 10\nvalue = [0, 0, 1, 14, 1, 0, 0]"] ;
392 -> 436 ;
437 [label="alcohol <= 9.52\ngini = 0.5\nsamples = 2\nvalue = [0, 0, 1, 0, 1, 0, 0]"] ;
436 -> 437 ;
438 [label="gini = 0.0\nsamples = 1\nvalue = [0, 0, 0, 0, 1, 0, 0]"] ;
437 -> 438 ;
439 [label="gini = 0.0\nsamples = 1\nvalue = [0, 0, 1, 0, 0, 0, 0]"] ;
437 -> 439 ;
440 [label="gini = 0.0\nsamples = 8\nvalue = [0, 0, 0, 14, 0, 0, 0]"] ;
436 -> 440 ;
441 [label="density <= 0.99\ngini = 0.5\nsamples = 144\nvalue = [0, 1, 39, 159, 35, 2, 0]"] ;
337 -> 441 ;
442 [label="density <= 0.99\ngini = 0.61\nsamples = 89\nvalue = [0, 1, 34, 79, 28, 2, 0]"] ;
441 -> 442 ;
443 [label="residual sugar <= 2.35\ngini = 0.57\nsamples = 75\nvalue = [0, 0, 22, 74, 27, 2, 0]"] ;
442 -> 443 ;
444 [label="pH <= 3.28\ngini = 0.66\nsamples = 48\nvalue = [0, 0, 19, 34, 21, 2, 0]"] ;
443 -> 444 ;
445 [label="alcohol <= 10.65\ngini = 0.61\nsamples = 32\nvalue = [0, 0, 19, 24, 7, 0, 0]"] ;
444 -> 445 ;
446 [label="sulphates <= 0.46\ngini = 0.58\nsamples = 25\nvalue = [0, 0, 19, 16, 4, 0, 0]"] ;
445 -> 446 ;
447 [label="density <= 0.99\ngini = 0.4\nsamples = 11\nvalue = [0, 0, 13, 5, 0, 0, 0]"] ;
446 -> 447 ;
448 [label="sulphates <= 0.42\ngini = 0.49\nsamples = 8\nvalue = [0, 0, 7, 5, 0, 0, 0]"] ;
447 -> 448 ;
449 [label="citric acid <= 0.56\ngini = 0.35\nsamples = 6\nvalue = [0, 0, 7, 2, 0, 0, 0]"] ;
448 -> 449 ;
450 [label="alcohol <= 10.35\ngini = 0.22\nsamples = 5\nvalue = [0, 0, 7, 1, 0, 0, 0]"] ;
449 -> 450 ;
451 [label="sulphates <= 0.38\ngini = 0.5\nsamples = 2\nvalue = [0, 0, 1, 1, 0, 0, 0]"] ;
450 -> 451 ;
452 [label="gini = 0.0\nsamples = 1\nvalue = [0, 0, 1, 0, 0, 0, 0]"] ;
451 -> 452 ;
453 [label="gini = 0.0\nsamples = 1\nvalue = [0, 0, 0, 1, 0, 0, 0]"] ;
451 -> 453 ;
454 [label="gini = 0.0\nsamples = 3\nvalue = [0, 0, 6, 0, 0, 0, 0]"] ;
450 -> 454 ;
455 [label="gini = 0.0\nsamples = 1\nvalue = [0, 0, 0, 1, 0, 0, 0]"] ;
449 -> 455 ;
456 [label="gini = 0.0\nsamples = 2\nvalue = [0, 0, 0, 3, 0, 0, 0]"] ;
448 -> 456 ;
457 [label="gini = 0.0\nsamples = 3\nvalue = [0, 0, 6, 0, 0, 0, 0]"] ;
447 -> 457 ;
458 [label="density <= 0.99\ngini = 0.61\nsamples = 14\nvalue = [0, 0, 6, 11, 4, 0, 0]"] ;
446 -> 458 ;
459 [label="chlorides <= 0.03\ngini = 0.51\nsamples = 12\nvalue = [0, 0, 6, 11, 1, 0, 0]"] ;
458 -> 459 ;
460 [label="gini = 0.0\nsamples = 1\nvalue = [0, 0, 2, 0, 0, 0, 0]"] ;
459 -> 460 ;
461 [label="fixed acidity <= 5.7\ngini = 0.46\nsamples = 11\nvalue = [0, 0, 4, 11, 1, 0, 0]"] ;
459 -> 461 ;
462 [label="gini = 0.0\nsamples = 1\nvalue = [0, 0, 2, 0, 0, 0, 0]"] ;
461 -> 462 ;
463 [label="total sulfur dioxide <= 87.5\ngini = 0.36\nsamples = 10\nvalue = [0, 0, 2, 11, 1, 0, 0]"] ;
461 -> 463 ;
464 [label="gini = 0.0\nsamples = 1\nvalue = [0, 0, 1, 0, 0, 0, 0]"] ;
463 -> 464 ;
465 [label="density <= 0.99\ngini = 0.27\nsamples = 9\nvalue = [0, 0, 1, 11, 1, 0, 0]"] ;
463 -> 465 ;
466 [label="sulphates <= 0.56\ngini = 0.15\nsamples = 8\nvalue = [0, 0, 0, 11, 1, 0, 0]"] ;
465 -> 466 ;
467 [label="gini = 0.0\nsamples = 6\nvalue = [0, 0, 0, 10, 0, 0, 0]"] ;
466 -> 467 ;
468 [label="free sulfur dioxide <= 38.0\ngini = 0.5\nsamples = 2\nvalue = [0, 0, 0, 1, 1, 0, 0]"] ;
466 -> 468 ;
469 [label="gini = 0.0\nsamples = 1\nvalue = [0, 0, 0, 0, 1, 0, 0]"] ;
468 -> 469 ;
470 [label="gini = 0.0\nsamples = 1\nvalue = [0, 0, 0, 1, 0, 0, 0]"] ;
468 -> 470 ;
471 [label="gini = 0.0\nsamples = 1\nvalue = [0, 0, 1, 0, 0, 0, 0]"] ;
465 -> 471 ;
472 [label="gini = 0.0\nsamples = 2\nvalue = [0, 0, 0, 0, 3, 0, 0]"] ;
458 -> 472 ;
473 [label="density <= 0.99\ngini = 0.4\nsamples = 7\nvalue = [0, 0, 0, 8, 3, 0, 0]"] ;
445 -> 473 ;
474 [label="citric acid <= 0.34\ngini = 0.38\nsamples = 3\nvalue = [0, 0, 0, 1, 3, 0, 0]"] ;
473 -> 474 ;
475 [label="gini = 0.0\nsamples = 1\nvalue = [0, 0, 0, 1, 0, 0, 0]"] ;
474 -> 475 ;
476 [label="gini = 0.0\nsamples = 2\nvalue = [0, 0, 0, 0, 3, 0, 0]"] ;
474 -> 476 ;
477 [label="gini = 0.0\nsamples = 4\nvalue = [0, 0, 0, 7, 0, 0, 0]"] ;
473 -> 477 ;
478 [label="pH <= 3.31\ngini = 0.56\nsamples = 16\nvalue = [0, 0, 0, 10, 14, 2, 0]"] ;
444 -> 478 ;
479 [label="gini = 0.0\nsamples = 3\nvalue = [0, 0, 0, 0, 5, 0, 0]"] ;
478 -> 479 ;
480 [label="fixed acidity <= 6.75\ngini = 0.58\nsamples = 13\nvalue = [0, 0, 0, 10, 9, 2, 0]"] ;
478 -> 480 ;
481 [label="pH <= 3.35\ngini = 0.57\nsamples = 7\nvalue = [0, 0, 0, 4, 8, 2, 0]"] ;
480 -> 481 ;
482 [label="residual sugar <= 1.9\ngini = 0.44\nsamples = 2\nvalue = [0, 0, 0, 1, 0, 2, 0]"] ;
481 -> 482 ;
483 [label="gini = 0.0\nsamples = 1\nvalue = [0, 0, 0, 1, 0, 0, 0]"] ;
482 -> 483 ;
484 [label="gini = 0.0\nsamples = 1\nvalue = [0, 0, 0, 0, 0, 2, 0]"] ;
482 -> 484 ;
485 [label="citric acid <= 0.25\ngini = 0.4\nsamples = 5\nvalue = [0, 0, 0, 3, 8, 0, 0]"] ;
481 -> 485 ;
486 [label="gini = 0.0\nsamples = 1\nvalue = [0, 0, 0, 3, 0, 0, 0]"] ;
485 -> 486 ;
487 [label="gini = 0.0\nsamples = 4\nvalue = [0, 0, 0, 0, 8, 0, 0]"] ;
485 -> 487 ;
488 [label="fixed acidity <= 7.75\ngini = 0.24\nsamples = 6\nvalue = [0, 0, 0, 6, 1, 0, 0]"] ;
480 -> 488 ;
489 [label="gini = 0.0\nsamples = 5\nvalue = [0, 0, 0, 6, 0, 0, 0]"] ;
488 -> 489 ;
490 [label="gini = 0.0\nsamples = 1\nvalue = [0, 0, 0, 0, 1, 0, 0]"] ;
488 -> 490 ;
491 [label="chlorides <= 0.04\ngini = 0.31\nsamples = 27\nvalue = [0, 0, 3, 40, 6, 0, 0]"] ;
443 -> 491 ;
492 [label="fixed acidity <= 6.7\ngini = 0.6\nsamples = 11\nvalue = [0, 0, 3, 9, 5, 0, 0]"] ;
491 -> 492 ;
493 [label="chlorides <= 0.03\ngini = 0.47\nsamples = 6\nvalue = [0, 0, 3, 0, 5, 0, 0]"] ;
492 -> 493 ;
494 [label="gini = 0.0\nsamples = 1\nvalue = [0, 0, 2, 0, 0, 0, 0]"] ;
493 -> 494 ;
495 [label="volatile acidity <= 0.21\ngini = 0.28\nsamples = 5\nvalue = [0, 0, 1, 0, 5, 0, 0]"] ;
493 -> 495 ;
496 [label="gini = 0.0\nsamples = 1\nvalue = [0, 0, 1, 0, 0, 0, 0]"] ;
495 -> 496 ;
497 [label="gini = 0.0\nsamples = 4\nvalue = [0, 0, 0, 0, 5, 0, 0]"] ;
495 -> 497 ;
498 [label="gini = 0.0\nsamples = 5\nvalue = [0, 0, 0, 9, 0, 0, 0]"] ;
492 -> 498 ;
499 [label="volatile acidity <= 0.21\ngini = 0.06\nsamples = 16\nvalue = [0, 0, 0, 31, 1, 0, 0]"] ;
491 -> 499 ;
500 [label="sulphates <= 0.51\ngini = 0.32\nsamples = 3\nvalue = [0, 0, 0, 4, 1, 0, 0]"] ;
499 -> 500 ;
501 [label="gini = 0.0\nsamples = 2\nvalue = [0, 0, 0, 4, 0, 0, 0]"] ;
500 -> 501 ;
502 [label="gini = 0.0\nsamples = 1\nvalue = [0, 0, 0, 0, 1, 0, 0]"] ;
500 -> 502 ;
503 [label="gini = 0.0\nsamples = 13\nvalue = [0, 0, 0, 27, 0, 0, 0]"] ;
499 -> 503 ;
504 [label="residual sugar <= 5.45\ngini = 0.53\nsamples = 14\nvalue = [0, 1, 12, 5, 1, 0, 0]"] ;
442 -> 504 ;
505 [label="sulphates <= 0.63\ngini = 0.62\nsamples = 4\nvalue = [0, 1, 0, 2, 1, 0, 0]"] ;
504 -> 505 ;
506 [label="gini = 0.0\nsamples = 2\nvalue = [0, 0, 0, 2, 0, 0, 0]"] ;
505 -> 506 ;
507 [label="chlorides <= 0.03\ngini = 0.5\nsamples = 2\nvalue = [0, 1, 0, 0, 1, 0, 0]"] ;
505 -> 507 ;
508 [label="gini = 0.0\nsamples = 1\nvalue = [0, 0, 0, 0, 1, 0, 0]"] ;
507 -> 508 ;
509 [label="gini = 0.0\nsamples = 1\nvalue = [0, 1, 0, 0, 0, 0, 0]"] ;
507 -> 509 ;
510 [label="total sulfur dioxide <= 125.5\ngini = 0.32\nsamples = 10\nvalue = [0, 0, 12, 3, 0, 0, 0]"] ;
504 -> 510 ;
511 [label="volatile acidity <= 0.21\ngini = 0.44\nsamples = 3\nvalue = [0, 0, 1, 2, 0, 0, 0]"] ;
510 -> 511 ;
512 [label="gini = 0.0\nsamples = 1\nvalue = [0, 0, 0, 1, 0, 0, 0]"] ;
511 -> 512 ;
513 [label="free sulfur dioxide <= 21.5\ngini = 0.5\nsamples = 2\nvalue = [0, 0, 1, 1, 0, 0, 0]"] ;
511 -> 513 ;
514 [label="gini = 0.0\nsamples = 1\nvalue = [0, 0, 0, 1, 0, 0, 0]"] ;
513 -> 514 ;
515 [label="gini = 0.0\nsamples = 1\nvalue = [0, 0, 1, 0, 0, 0, 0]"] ;
513 -> 515 ;
516 [label="pH <= 3.23\ngini = 0.15\nsamples = 7\nvalue = [0, 0, 11, 1, 0, 0, 0]"] ;
510 -> 516 ;
517 [label="gini = 0.0\nsamples = 5\nvalue = [0, 0, 10, 0, 0, 0, 0]"] ;
516 -> 517 ;
518 [label="pH <= 3.38\ngini = 0.5\nsamples = 2\nvalue = [0, 0, 1, 1, 0, 0, 0]"] ;
516 -> 518 ;
519 [label="gini = 0.0\nsamples = 1\nvalue = [0, 0, 0, 1, 0, 0, 0]"] ;
518 -> 519 ;
520 [label="gini = 0.0\nsamples = 1\nvalue = [0, 0, 1, 0, 0, 0, 0]"] ;
518 -> 520 ;
521 [label="chlorides <= 0.03\ngini = 0.24\nsamples = 55\nvalue = [0, 0, 5, 80, 7, 0, 0]"] ;
441 -> 521 ;
522 [label="gini = 0.0\nsamples = 1\nvalue = [0, 0, 0, 0, 2, 0, 0]"] ;
521 -> 522 ;
523 [label="density <= 1.0\ngini = 0.2\nsamples = 54\nvalue = [0, 0, 5, 80, 5, 0, 0]"] ;
521 -> 523 ;
524 [label="citric acid <= 0.41\ngini = 0.19\nsamples = 53\nvalue = [0, 0, 4, 80, 5, 0, 0]"] ;
523 -> 524 ;
525 [label="alcohol <= 10.05\ngini = 0.11\nsamples = 45\nvalue = [0, 0, 2, 68, 2, 0, 0]"] ;
524 -> 525 ;
526 [label="total sulfur dioxide <= 88.0\ngini = 0.23\nsamples = 19\nvalue = [0, 0, 2, 21, 1, 0, 0]"] ;
525 -> 526 ;
527 [label="gini = 0.0\nsamples = 1\nvalue = [0, 0, 1, 0, 0, 0, 0]"] ;
526 -> 527 ;
528 [label="volatile acidity <= 0.21\ngini = 0.16\nsamples = 18\nvalue = [0, 0, 1, 21, 1, 0, 0]"] ;
526 -> 528 ;
529 [label="fixed acidity <= 6.8\ngini = 0.44\nsamples = 2\nvalue = [0, 0, 0, 2, 1, 0, 0]"] ;
528 -> 529 ;
530 [label="gini = 0.0\nsamples = 1\nvalue = [0, 0, 0, 0, 1, 0, 0]"] ;
529 -> 530 ;
531 [label="gini = 0.0\nsamples = 1\nvalue = [0, 0, 0, 2, 0, 0, 0]"] ;
529 -> 531 ;
532 [label="residual sugar <= 8.1\ngini = 0.09\nsamples = 16\nvalue = [0, 0, 1, 19, 0, 0, 0]"] ;
528 -> 532 ;
533 [label="gini = 0.0\nsamples = 1\nvalue = [0, 0, 1, 0, 0, 0, 0]"] ;
532 -> 533 ;
534 [label="gini = 0.0\nsamples = 15\nvalue = [0, 0, 0, 19, 0, 0, 0]"] ;
532 -> 534 ;
535 [label="chlorides <= 0.04\ngini = 0.04\nsamples = 26\nvalue = [0, 0, 0, 47, 1, 0, 0]"] ;
525 -> 535 ;
536 [label="chlorides <= 0.04\ngini = 0.2\nsamples = 7\nvalue = [0, 0, 0, 8, 1, 0, 0]"] ;
535 -> 536 ;
537 [label="gini = 0.0\nsamples = 5\nvalue = [0, 0, 0, 6, 0, 0, 0]"] ;
536 -> 537 ;
538 [label="fixed acidity <= 6.35\ngini = 0.44\nsamples = 2\nvalue = [0, 0, 0, 2, 1, 0, 0]"] ;
536 -> 538 ;
539 [label="gini = 0.0\nsamples = 1\nvalue = [0, 0, 0, 0, 1, 0, 0]"] ;
538 -> 539 ;
540 [label="gini = 0.0\nsamples = 1\nvalue = [0, 0, 0, 2, 0, 0, 0]"] ;
538 -> 540 ;
541 [label="gini = 0.0\nsamples = 19\nvalue = [0, 0, 0, 39, 0, 0, 0]"] ;
535 -> 541 ;
542 [label="total sulfur dioxide <= 151.5\ngini = 0.46\nsamples = 8\nvalue = [0, 0, 2, 12, 3, 0, 0]"] ;
524 -> 542 ;
543 [label="fixed acidity <= 7.6\ngini = 0.48\nsamples = 2\nvalue = [0, 0, 0, 2, 3, 0, 0]"] ;
542 -> 543 ;
544 [label="gini = 0.0\nsamples = 1\nvalue = [0, 0, 0, 0, 3, 0, 0]"] ;
543 -> 544 ;
545 [label="gini = 0.0\nsamples = 1\nvalue = [0, 0, 0, 2, 0, 0, 0]"] ;
543 -> 545 ;
546 [label="residual sugar <= 10.8\ngini = 0.28\nsamples = 6\nvalue = [0, 0, 2, 10, 0, 0, 0]"] ;
542 -> 546 ;
547 [label="gini = 0.0\nsamples = 5\nvalue = [0, 0, 0, 10, 0, 0, 0]"] ;
546 -> 547 ;
548 [label="gini = 0.0\nsamples = 1\nvalue = [0, 0, 2, 0, 0, 0, 0]"] ;
546 -> 548 ;
549 [label="gini = 0.0\nsamples = 1\nvalue = [0, 0, 1, 0, 0, 0, 0]"] ;
523 -> 549 ;
550 [label="density <= 1.0\ngini = 0.62\nsamples = 11\nvalue = [1, 8, 12, 3, 0, 0, 0]"] ;
82 -> 550 ;
551 [label="density <= 1.0\ngini = 0.54\nsamples = 6\nvalue = [0, 8, 3, 2, 0, 0, 0]"] ;
550 -> 551 ;
552 [label="fixed acidity <= 9.5\ngini = 0.48\nsamples = 3\nvalue = [0, 0, 3, 2, 0, 0, 0]"] ;
551 -> 552 ;
553 [label="gini = 0.0\nsamples = 2\nvalue = [0, 0, 0, 2, 0, 0, 0]"] ;
552 -> 553 ;
554 [label="gini = 0.0\nsamples = 1\nvalue = [0, 0, 3, 0, 0, 0, 0]"] ;
552 -> 554 ;
555 [label="gini = 0.0\nsamples = 3\nvalue = [0, 8, 0, 0, 0, 0, 0]"] ;
551 -> 555 ;
556 [label="density <= 1.0\ngini = 0.31\nsamples = 5\nvalue = [1, 0, 9, 1, 0, 0, 0]"] ;
550 -> 556 ;
557 [label="fixed acidity <= 10.5\ngini = 0.2\nsamples = 3\nvalue = [0, 0, 8, 1, 0, 0, 0]"] ;
556 -> 557 ;
558 [label="gini = 0.0\nsamples = 2\nvalue = [0, 0, 8, 0, 0, 0, 0]"] ;
557 -> 558 ;
559 [label="gini = 0.0\nsamples = 1\nvalue = [0, 0, 0, 1, 0, 0, 0]"] ;
557 -> 559 ;
560 [label="chlorides <= 0.05\ngini = 0.5\nsamples = 2\nvalue = [1, 0, 1, 0, 0, 0, 0]"] ;
556 -> 560 ;
561 [label="gini = 0.0\nsamples = 1\nvalue = [1, 0, 0, 0, 0, 0, 0]"] ;
560 -> 561 ;
562 [label="gini = 0.0\nsamples = 1\nvalue = [0, 0, 1, 0, 0, 0, 0]"] ;
560 -> 562 ;
563 [label="free sulfur dioxide <= 17.5\ngini = 0.59\nsamples = 670\nvalue = [2, 66, 535, 353, 46, 6, 1]"] ;
81 -> 563 ;
564 [label="sulphates <= 0.61\ngini = 0.52\nsamples = 89\nvalue = [0, 28, 89, 21, 0, 0, 0]"] ;
563 -> 564 ;
565 [label="density <= 0.99\ngini = 0.44\nsamples = 76\nvalue = [0, 22, 83, 11, 0, 0, 0]"] ;
564 -> 565 ;
566 [label="free sulfur dioxide <= 10.5\ngini = 0.29\nsamples = 49\nvalue = [0, 7, 64, 6, 0, 0, 0]"] ;
565 -> 566 ;
567 [label="sulphates <= 0.56\ngini = 0.54\nsamples = 12\nvalue = [0, 5, 11, 2, 0, 0, 0]"] ;
566 -> 567 ;
568 [label="fixed acidity <= 7.15\ngini = 0.43\nsamples = 10\nvalue = [0, 2, 11, 2, 0, 0, 0]"] ;
567 -> 568 ;
569 [label="free sulfur dioxide <= 8.5\ngini = 0.65\nsamples = 6\nvalue = [0, 2, 3, 2, 0, 0, 0]"] ;
568 -> 569 ;
570 [label="residual sugar <= 1.4\ngini = 0.48\nsamples = 5\nvalue = [0, 2, 3, 0, 0, 0, 0]"] ;
569 -> 570 ;
571 [label="gini = 0.0\nsamples = 2\nvalue = [0, 2, 0, 0, 0, 0, 0]"] ;
570 -> 571 ;
572 [label="gini = 0.0\nsamples = 3\nvalue = [0, 0, 3, 0, 0, 0, 0]"] ;
570 -> 572 ;
573 [label="gini = 0.0\nsamples = 1\nvalue = [0, 0, 0, 2, 0, 0, 0]"] ;
569 -> 573 ;
574 [label="gini = 0.0\nsamples = 4\nvalue = [0, 0, 8, 0, 0, 0, 0]"] ;
568 -> 574 ;
575 [label="gini = 0.0\nsamples = 2\nvalue = [0, 3, 0, 0, 0, 0, 0]"] ;
567 -> 575 ;
576 [label="density <= 0.99\ngini = 0.19\nsamples = 37\nvalue = [0, 2, 53, 4, 0, 0, 0]"] ;
566 -> 576 ;
577 [label="total sulfur dioxide <= 108.5\ngini = 0.59\nsamples = 9\nvalue = [0, 2, 7, 4, 0, 0, 0]"] ;
576 -> 577 ;
578 [label="chlorides <= 0.04\ngini = 0.57\nsamples = 5\nvalue = [0, 2, 1, 4, 0, 0, 0]"] ;
577 -> 578 ;
579 [label="fixed acidity <= 7.65\ngini = 0.62\nsamples = 3\nvalue = [0, 2, 1, 1, 0, 0, 0]"] ;
578 -> 579 ;
580 [label="sulphates <= 0.47\ngini = 0.5\nsamples = 2\nvalue = [0, 0, 1, 1, 0, 0, 0]"] ;
579 -> 580 ;
581 [label="gini = 0.0\nsamples = 1\nvalue = [0, 0, 1, 0, 0, 0, 0]"] ;
580 -> 581 ;
582 [label="gini = 0.0\nsamples = 1\nvalue = [0, 0, 0, 1, 0, 0, 0]"] ;
580 -> 582 ;
583 [label="gini = 0.0\nsamples = 1\nvalue = [0, 2, 0, 0, 0, 0, 0]"] ;
579 -> 583 ;
584 [label="gini = 0.0\nsamples = 2\nvalue = [0, 0, 0, 3, 0, 0, 0]"] ;
578 -> 584 ;
585 [label="gini = 0.0\nsamples = 4\nvalue = [0, 0, 6, 0, 0, 0, 0]"] ;
577 -> 585 ;
586 [label="gini = 0.0\nsamples = 28\nvalue = [0, 0, 46, 0, 0, 0, 0]"] ;
576 -> 586 ;
587 [label="sulphates <= 0.52\ngini = 0.6\nsamples = 27\nvalue = [0, 15, 19, 5, 0, 0, 0]"] ;
565 -> 587 ;
588 [label="fixed acidity <= 9.05\ngini = 0.62\nsamples = 23\nvalue = [0, 15, 13, 5, 0, 0, 0]"] ;
587 -> 588 ;
589 [label="citric acid <= 0.41\ngini = 0.56\nsamples = 17\nvalue = [0, 14, 7, 3, 0, 0, 0]"] ;
588 -> 589 ;
590 [label="chlorides <= 0.05\ngini = 0.35\nsamples = 12\nvalue = [0, 14, 4, 0, 0, 0, 0]"] ;
589 -> 590 ;
591 [label="gini = 0.0\nsamples = 4\nvalue = [0, 7, 0, 0, 0, 0, 0]"] ;
590 -> 591 ;
592 [label="sulphates <= 0.45\ngini = 0.46\nsamples = 8\nvalue = [0, 7, 4, 0, 0, 0, 0]"] ;
590 -> 592 ;
593 [label="gini = 0.0\nsamples = 3\nvalue = [0, 6, 0, 0, 0, 0, 0]"] ;
592 -> 593 ;
594 [label="total sulfur dioxide <= 110.5\ngini = 0.32\nsamples = 5\nvalue = [0, 1, 4, 0, 0, 0, 0]"] ;
592 -> 594 ;
595 [label="gini = 0.0\nsamples = 1\nvalue = [0, 1, 0, 0, 0, 0, 0]"] ;
594 -> 595 ;
596 [label="gini = 0.0\nsamples = 4\nvalue = [0, 0, 4, 0, 0, 0, 0]"] ;
594 -> 596 ;
597 [label="volatile acidity <= 0.35\ngini = 0.5\nsamples = 5\nvalue = [0, 0, 3, 3, 0, 0, 0]"] ;
589 -> 597 ;
598 [label="gini = 0.0\nsamples = 2\nvalue = [0, 0, 2, 0, 0, 0, 0]"] ;
597 -> 598 ;
599 [label="chlorides <= 0.03\ngini = 0.38\nsamples = 3\nvalue = [0, 0, 1, 3, 0, 0, 0]"] ;
597 -> 599 ;
600 [label="gini = 0.0\nsamples = 1\nvalue = [0, 0, 1, 0, 0, 0, 0]"] ;
599 -> 600 ;
601 [label="gini = 0.0\nsamples = 2\nvalue = [0, 0, 0, 3, 0, 0, 0]"] ;
599 -> 601 ;
602 [label="volatile acidity <= 0.56\ngini = 0.49\nsamples = 6\nvalue = [0, 1, 6, 2, 0, 0, 0]"] ;
588 -> 602 ;
603 [label="volatile acidity <= 0.34\ngini = 0.24\nsamples = 5\nvalue = [0, 1, 6, 0, 0, 0, 0]"] ;
602 -> 603 ;
604 [label="gini = 0.0\nsamples = 3\nvalue = [0, 0, 5, 0, 0, 0, 0]"] ;
603 -> 604 ;
605 [label="total sulfur dioxide <= 96.5\ngini = 0.5\nsamples = 2\nvalue = [0, 1, 1, 0, 0, 0, 0]"] ;
603 -> 605 ;
606 [label="gini = 0.0\nsamples = 1\nvalue = [0, 1, 0, 0, 0, 0, 0]"] ;
605 -> 606 ;
607 [label="gini = 0.0\nsamples = 1\nvalue = [0, 0, 1, 0, 0, 0, 0]"] ;
605 -> 607 ;
608 [label="gini = 0.0\nsamples = 1\nvalue = [0, 0, 0, 2, 0, 0, 0]"] ;
602 -> 608 ;
609 [label="gini = 0.0\nsamples = 4\nvalue = [0, 0, 6, 0, 0, 0, 0]"] ;
587 -> 609 ;
610 [label="alcohol <= 9.75\ngini = 0.64\nsamples = 13\nvalue = [0, 6, 6, 10, 0, 0, 0]"] ;
564 -> 610 ;
611 [label="gini = 0.0\nsamples = 3\nvalue = [0, 0, 4, 0, 0, 0, 0]"] ;
610 -> 611 ;
612 [label="residual sugar <= 2.23\ngini = 0.57\nsamples = 10\nvalue = [0, 6, 2, 10, 0, 0, 0]"] ;
610 -> 612 ;
613 [label="chlorides <= 0.04\ngini = 0.56\nsamples = 5\nvalue = [0, 6, 2, 2, 0, 0, 0]"] ;
612 -> 613 ;
614 [label="residual sugar <= 2.05\ngini = 0.5\nsamples = 2\nvalue = [0, 0, 2, 2, 0, 0, 0]"] ;
613 -> 614 ;
615 [label="gini = 0.0\nsamples = 1\nvalue = [0, 0, 0, 2, 0, 0, 0]"] ;
614 -> 615 ;
616 [label="gini = 0.0\nsamples = 1\nvalue = [0, 0, 2, 0, 0, 0, 0]"] ;
614 -> 616 ;
617 [label="gini = 0.0\nsamples = 3\nvalue = [0, 6, 0, 0, 0, 0, 0]"] ;
613 -> 617 ;
618 [label="gini = 0.0\nsamples = 5\nvalue = [0, 0, 0, 8, 0, 0, 0]"] ;
612 -> 618 ;
619 [label="volatile acidity <= 0.88\ngini = 0.59\nsamples = 581\nvalue = [2, 38, 446, 332, 46, 6, 1]"] ;
563 -> 619 ;
620 [label="volatile acidity <= 0.39\ngini = 0.58\nsamples = 578\nvalue = [2, 31, 446, 332, 46, 6, 1]"] ;
619 -> 620 ;
621 [label="total sulfur dioxide <= 110.5\ngini = 0.59\nsamples = 496\nvalue = [0, 22, 365, 306, 45, 6, 1]"] ;
620 -> 621 ;
622 [label="alcohol <= 9.1\ngini = 0.31\nsamples = 26\nvalue = [0, 0, 4, 27, 0, 2, 0]"] ;
621 -> 622 ;
623 [label="gini = 0.0\nsamples = 2\nvalue = [0, 0, 2, 0, 0, 0, 0]"] ;
622 -> 623 ;
624 [label="fixed acidity <= 7.7\ngini = 0.23\nsamples = 24\nvalue = [0, 0, 2, 27, 0, 2, 0]"] ;
622 -> 624 ;
625 [label="total sulfur dioxide <= 101.0\ngini = 0.13\nsamples = 22\nvalue = [0, 0, 2, 26, 0, 0, 0]"] ;
624 -> 625 ;
626 [label="total sulfur dioxide <= 99.5\ngini = 0.22\nsamples = 11\nvalue = [0, 0, 2, 14, 0, 0, 0]"] ;
625 -> 626 ;
627 [label="fixed acidity <= 7.2\ngini = 0.12\nsamples = 10\nvalue = [0, 0, 1, 14, 0, 0, 0]"] ;
626 -> 627 ;
628 [label="gini = 0.0\nsamples = 8\nvalue = [0, 0, 0, 13, 0, 0, 0]"] ;
627 -> 628 ;
629 [label="pH <= 3.14\ngini = 0.5\nsamples = 2\nvalue = [0, 0, 1, 1, 0, 0, 0]"] ;
627 -> 629 ;
630 [label="gini = 0.0\nsamples = 1\nvalue = [0, 0, 1, 0, 0, 0, 0]"] ;
629 -> 630 ;
631 [label="gini = 0.0\nsamples = 1\nvalue = [0, 0, 0, 1, 0, 0, 0]"] ;
629 -> 631 ;
632 [label="gini = 0.0\nsamples = 1\nvalue = [0, 0, 1, 0, 0, 0, 0]"] ;
626 -> 632 ;
633 [label="gini = 0.0\nsamples = 11\nvalue = [0, 0, 0, 12, 0, 0, 0]"] ;
625 -> 633 ;
634 [label="alcohol <= 10.25\ngini = 0.44\nsamples = 2\nvalue = [0, 0, 0, 1, 0, 2, 0]"] ;
624 -> 634 ;
635 [label="gini = 0.0\nsamples = 1\nvalue = [0, 0, 0, 1, 0, 0, 0]"] ;
634 -> 635 ;
636 [label="gini = 0.0\nsamples = 1\nvalue = [0, 0, 0, 0, 0, 2, 0]"] ;
634 -> 636 ;
637 [label="chlorides <= 0.04\ngini = 0.58\nsamples = 470\nvalue = [0, 22, 361, 279, 45, 4, 1]"] ;
621 -> 637 ;
638 [label="residual sugar <= 11.65\ngini = 0.65\nsamples = 44\nvalue = [0, 0, 15, 32, 19, 1, 1]"] ;
637 -> 638 ;
639 [label="pH <= 3.35\ngini = 0.62\nsamples = 38\nvalue = [0, 0, 10, 31, 15, 1, 1]"] ;
638 -> 639 ;
640 [label="free sulfur dioxide <= 19.75\ngini = 0.47\nsamples = 29\nvalue = [0, 0, 9, 29, 2, 1, 1]"] ;
639 -> 640 ;
641 [label="gini = 0.0\nsamples = 3\nvalue = [0, 0, 5, 0, 0, 0, 0]"] ;
640 -> 641 ;
642 [label="fixed acidity <= 5.95\ngini = 0.37\nsamples = 26\nvalue = [0, 0, 4, 29, 2, 1, 1]"] ;
640 -> 642 ;
643 [label="gini = 0.0\nsamples = 1\nvalue = [0, 0, 0, 0, 0, 1, 0]"] ;
642 -> 643 ;
644 [label="fixed acidity <= 9.05\ngini = 0.33\nsamples = 25\nvalue = [0, 0, 4, 29, 2, 0, 1]"] ;
642 -> 644 ;
645 [label="residual sugar <= 9.6\ngini = 0.3\nsamples = 24\nvalue = [0, 0, 4, 29, 2, 0, 0]"] ;
644 -> 645 ;
646 [label="total sulfur dioxide <= 122.0\ngini = 0.48\nsamples = 13\nvalue = [0, 0, 4, 13, 2, 0, 0]"] ;
645 -> 646 ;
647 [label="gini = 0.0\nsamples = 2\nvalue = [0, 0, 0, 0, 2, 0, 0]"] ;
646 -> 647 ;
648 [label="pH <= 3.0\ngini = 0.36\nsamples = 11\nvalue = [0, 0, 4, 13, 0, 0, 0]"] ;
646 -> 648 ;
649 [label="gini = 0.0\nsamples = 1\nvalue = [0, 0, 2, 0, 0, 0, 0]"] ;
648 -> 649 ;
650 [label="sulphates <= 0.33\ngini = 0.23\nsamples = 10\nvalue = [0, 0, 2, 13, 0, 0, 0]"] ;
648 -> 650 ;
651 [label="gini = 0.0\nsamples = 1\nvalue = [0, 0, 1, 0, 0, 0, 0]"] ;
650 -> 651 ;
652 [label="density <= 0.99\ngini = 0.13\nsamples = 9\nvalue = [0, 0, 1, 13, 0, 0, 0]"] ;
650 -> 652 ;
653 [label="gini = 0.0\nsamples = 6\nvalue = [0, 0, 0, 10, 0, 0, 0]"] ;
652 -> 653 ;
654 [label="chlorides <= 0.03\ngini = 0.38\nsamples = 3\nvalue = [0, 0, 1, 3, 0, 0, 0]"] ;
652 -> 654 ;
655 [label="gini = 0.0\nsamples = 2\nvalue = [0, 0, 0, 3, 0, 0, 0]"] ;
654 -> 655 ;
656 [label="gini = 0.0\nsamples = 1\nvalue = [0, 0, 1, 0, 0, 0, 0]"] ;
654 -> 656 ;
657 [label="gini = 0.0\nsamples = 11\nvalue = [0, 0, 0, 16, 0, 0, 0]"] ;
645 -> 657 ;
658 [label="gini = 0.0\nsamples = 1\nvalue = [0, 0, 0, 0, 0, 0, 1]"] ;
644 -> 658 ;
659 [label="citric acid <= 0.29\ngini = 0.32\nsamples = 9\nvalue = [0, 0, 1, 2, 13, 0, 0]"] ;
639 -> 659 ;
660 [label="gini = 0.0\nsamples = 7\nvalue = [0, 0, 0, 0, 13, 0, 0]"] ;
659 -> 660 ;
661 [label="residual sugar <= 4.2\ngini = 0.44\nsamples = 2\nvalue = [0, 0, 1, 2, 0, 0, 0]"] ;
659 -> 661 ;
662 [label="gini = 0.0\nsamples = 1\nvalue = [0, 0, 1, 0, 0, 0, 0]"] ;
661 -> 662 ;
663 [label="gini = 0.0\nsamples = 1\nvalue = [0, 0, 0, 2, 0, 0, 0]"] ;
661 -> 663 ;
664 [label="sulphates <= 0.58\ngini = 0.58\nsamples = 6\nvalue = [0, 0, 5, 1, 4, 0, 0]"] ;
638 -> 664 ;
665 [label="gini = 0.0\nsamples = 3\nvalue = [0, 0, 5, 0, 0, 0, 0]"] ;
664 -> 665 ;
666 [label="residual sugar <= 15.45\ngini = 0.32\nsamples = 3\nvalue = [0, 0, 0, 1, 4, 0, 0]"] ;
664 -> 666 ;
667 [label="gini = 0.0\nsamples = 2\nvalue = [0, 0, 0, 0, 4, 0, 0]"] ;
666 -> 667 ;
668 [label="gini = 0.0\nsamples = 1\nvalue = [0, 0, 0, 1, 0, 0, 0]"] ;
666 -> 668 ;
669 [label="citric acid <= 0.41\ngini = 0.56\nsamples = 426\nvalue = [0, 22, 346, 247, 26, 3, 0]"] ;
637 -> 669 ;
670 [label="fixed acidity <= 7.85\ngini = 0.57\nsamples = 291\nvalue = [0, 12, 216, 189, 20, 3, 0]"] ;
669 -> 670 ;
671 [label="alcohol <= 10.05\ngini = 0.57\nsamples = 269\nvalue = [0, 12, 211, 164, 19, 2, 0]"] ;
670 -> 671 ;
672 [label="free sulfur dioxide <= 57.5\ngini = 0.54\nsamples = 202\nvalue = [0, 10, 172, 105, 11, 0, 0]"] ;
671 -> 672 ;
673 [label="citric acid <= 0.24\ngini = 0.52\nsamples = 171\nvalue = [0, 8, 156, 79, 11, 0, 0]"] ;
672 -> 673 ;
674 [label="pH <= 3.38\ngini = 0.43\nsamples = 51\nvalue = [0, 5, 56, 10, 5, 0, 0]"] ;
673 -> 674 ;
675 [label="volatile acidity <= 0.34\ngini = 0.39\nsamples = 49\nvalue = [0, 5, 56, 7, 5, 0, 0]"] ;
674 -> 675 ;
676 [label="alcohol <= 9.95\ngini = 0.24\nsamples = 35\nvalue = [0, 1, 46, 3, 3, 0, 0]"] ;
675 -> 676 ;
677 [label="chlorides <= 0.07\ngini = 0.16\nsamples = 31\nvalue = [0, 1, 42, 3, 0, 0, 0]"] ;
676 -> 677 ;
678 [label="residual sugar <= 1.3\ngini = 0.09\nsamples = 27\nvalue = [0, 1, 39, 1, 0, 0, 0]"] ;
677 -> 678 ;
679 [label="gini = 0.0\nsamples = 1\nvalue = [0, 0, 0, 1, 0, 0, 0]"] ;
678 -> 679 ;
680 [label="total sulfur dioxide <= 140.0\ngini = 0.05\nsamples = 26\nvalue = [0, 1, 39, 0, 0, 0, 0]"] ;
678 -> 680 ;
681 [label="total sulfur dioxide <= 138.5\ngini = 0.17\nsamples = 7\nvalue = [0, 1, 10, 0, 0, 0, 0]"] ;
680 -> 681 ;
682 [label="gini = 0.0\nsamples = 5\nvalue = [0, 0, 9, 0, 0, 0, 0]"] ;
681 -> 682 ;
683 [label="citric acid <= 0.23\ngini = 0.5\nsamples = 2\nvalue = [0, 1, 1, 0, 0, 0, 0]"] ;
681 -> 683 ;
684 [label="gini = 0.0\nsamples = 1\nvalue = [0, 0, 1, 0, 0, 0, 0]"] ;
683 -> 684 ;
685 [label="gini = 0.0\nsamples = 1\nvalue = [0, 1, 0, 0, 0, 0, 0]"] ;
683 -> 685 ;
686 [label="gini = 0.0\nsamples = 19\nvalue = [0, 0, 29, 0, 0, 0, 0]"] ;
680 -> 686 ;
687 [label="total sulfur dioxide <= 121.5\ngini = 0.48\nsamples = 4\nvalue = [0, 0, 3, 2, 0, 0, 0]"] ;
677 -> 687 ;
688 [label="gini = 0.0\nsamples = 1\nvalue = [0, 0, 2, 0, 0, 0, 0]"] ;
687 -> 688 ;
689 [label="alcohol <= 9.45\ngini = 0.44\nsamples = 3\nvalue = [0, 0, 1, 2, 0, 0, 0]"] ;
687 -> 689 ;
690 [label="gini = 0.0\nsamples = 1\nvalue = [0, 0, 0, 1, 0, 0, 0]"] ;
689 -> 690 ;
691 [label="citric acid <= 0.21\ngini = 0.5\nsamples = 2\nvalue = [0, 0, 1, 1, 0, 0, 0]"] ;
689 -> 691 ;
692 [label="gini = 0.0\nsamples = 1\nvalue = [0, 0, 1, 0, 0, 0, 0]"] ;
691 -> 692 ;
693 [label="gini = 0.0\nsamples = 1\nvalue = [0, 0, 0, 1, 0, 0, 0]"] ;
691 -> 693 ;
694 [label="residual sugar <= 9.45\ngini = 0.49\nsamples = 4\nvalue = [0, 0, 4, 0, 3, 0, 0]"] ;
676 -> 694 ;
695 [label="gini = 0.0\nsamples = 2\nvalue = [0, 0, 4, 0, 0, 0, 0]"] ;
694 -> 695 ;
696 [label="gini = 0.0\nsamples = 2\nvalue = [0, 0, 0, 0, 3, 0, 0]"] ;
694 -> 696 ;
697 [label="alcohol <= 9.55\ngini = 0.66\nsamples = 14\nvalue = [0, 4, 10, 4, 2, 0, 0]"] ;
675 -> 697 ;
698 [label="pH <= 3.14\ngini = 0.62\nsamples = 5\nvalue = [0, 4, 0, 2, 2, 0, 0]"] ;
697 -> 698 ;
699 [label="gini = 0.0\nsamples = 2\nvalue = [0, 4, 0, 0, 0, 0, 0]"] ;
698 -> 699 ;
700 [label="volatile acidity <= 0.34\ngini = 0.5\nsamples = 3\nvalue = [0, 0, 0, 2, 2, 0, 0]"] ;
698 -> 700 ;
701 [label="gini = 0.0\nsamples = 1\nvalue = [0, 0, 0, 0, 2, 0, 0]"] ;
700 -> 701 ;
702 [label="gini = 0.0\nsamples = 2\nvalue = [0, 0, 0, 2, 0, 0, 0]"] ;
700 -> 702 ;
703 [label="total sulfur dioxide <= 144.0\ngini = 0.28\nsamples = 9\nvalue = [0, 0, 10, 2, 0, 0, 0]"] ;
697 -> 703 ;
704 [label="gini = 0.0\nsamples = 1\nvalue = [0, 0, 0, 1, 0, 0, 0]"] ;
703 -> 704 ;
705 [label="density <= 0.99\ngini = 0.17\nsamples = 8\nvalue = [0, 0, 10, 1, 0, 0, 0]"] ;
703 -> 705 ;
706 [label="gini = 0.0\nsamples = 1\nvalue = [0, 0, 0, 1, 0, 0, 0]"] ;
705 -> 706 ;
707 [label="gini = 0.0\nsamples = 7\nvalue = [0, 0, 10, 0, 0, 0, 0]"] ;
705 -> 707 ;
708 [label="gini = 0.0\nsamples = 2\nvalue = [0, 0, 0, 3, 0, 0, 0]"] ;
674 -> 708 ;
709 [label="alcohol <= 9.55\ngini = 0.53\nsamples = 120\nvalue = [0, 3, 100, 69, 6, 0, 0]"] ;
673 -> 709 ;
710 [label="pH <= 3.25\ngini = 0.56\nsamples = 81\nvalue = [0, 1, 52, 50, 6, 0, 0]"] ;
709 -> 710 ;
711 [label="sulphates <= 0.59\ngini = 0.57\nsamples = 60\nvalue = [0, 1, 42, 29, 6, 0, 0]"] ;
710 -> 711 ;
712 [label="density <= 1.0\ngini = 0.54\nsamples = 55\nvalue = [0, 1, 42, 21, 6, 0, 0]"] ;
711 -> 712 ;
713 [label="volatile acidity <= 0.31\ngini = 0.47\nsamples = 39\nvalue = [0, 1, 33, 17, 0, 0, 0]"] ;
712 -> 713 ;
714 [label="chlorides <= 0.07\ngini = 0.54\nsamples = 21\nvalue = [0, 1, 12, 12, 0, 0, 0]"] ;
713 -> 714 ;
715 [label="sulphates <= 0.47\ngini = 0.53\nsamples = 18\nvalue = [0, 1, 11, 7, 0, 0, 0]"] ;
714 -> 715 ;
716 [label="citric acid <= 0.39\ngini = 0.22\nsamples = 7\nvalue = [0, 0, 7, 1, 0, 0, 0]"] ;
715 -> 716 ;
717 [label="gini = 0.0\nsamples = 6\nvalue = [0, 0, 7, 0, 0, 0, 0]"] ;
716 -> 717 ;
718 [label="gini = 0.0\nsamples = 1\nvalue = [0, 0, 0, 1, 0, 0, 0]"] ;
716 -> 718 ;
719 [label="alcohol <= 9.15\ngini = 0.56\nsamples = 11\nvalue = [0, 1, 4, 6, 0, 0, 0]"] ;
715 -> 719 ;
720 [label="fixed acidity <= 6.55\ngini = 0.38\nsamples = 4\nvalue = [0, 1, 0, 3, 0, 0, 0]"] ;
719 -> 720 ;
721 [label="gini = 0.0\nsamples = 1\nvalue = [0, 1, 0, 0, 0, 0, 0]"] ;
720 -> 721 ;
722 [label="gini = 0.0\nsamples = 3\nvalue = [0, 0, 0, 3, 0, 0, 0]"] ;
720 -> 722 ;
723 [label="density <= 1.0\ngini = 0.49\nsamples = 7\nvalue = [0, 0, 4, 3, 0, 0, 0]"] ;
719 -> 723 ;
724 [label="sulphates <= 0.53\ngini = 0.38\nsamples = 4\nvalue = [0, 0, 1, 3, 0, 0, 0]"] ;
723 -> 724 ;
725 [label="gini = 0.0\nsamples = 3\nvalue = [0, 0, 0, 3, 0, 0, 0]"] ;
724 -> 725 ;
726 [label="gini = 0.0\nsamples = 1\nvalue = [0, 0, 1, 0, 0, 0, 0]"] ;
724 -> 726 ;
727 [label="gini = 0.0\nsamples = 3\nvalue = [0, 0, 3, 0, 0, 0, 0]"] ;
723 -> 727 ;
728 [label="free sulfur dioxide <= 45.5\ngini = 0.28\nsamples = 3\nvalue = [0, 0, 1, 5, 0, 0, 0]"] ;
714 -> 728 ;
729 [label="chlorides <= 0.16\ngini = 0.44\nsamples = 2\nvalue = [0, 0, 1, 2, 0, 0, 0]"] ;
728 -> 729 ;
730 [label="gini = 0.0\nsamples = 1\nvalue = [0, 0, 1, 0, 0, 0, 0]"] ;
729 -> 730 ;
731 [label="gini = 0.0\nsamples = 1\nvalue = [0, 0, 0, 2, 0, 0, 0]"] ;
729 -> 731 ;
732 [label="gini = 0.0\nsamples = 1\nvalue = [0, 0, 0, 3, 0, 0, 0]"] ;
728 -> 732 ;
733 [label="sulphates <= 0.47\ngini = 0.31\nsamples = 18\nvalue = [0, 0, 21, 5, 0, 0, 0]"] ;
713 -> 733 ;
734 [label="gini = 0.0\nsamples = 5\nvalue = [0, 0, 7, 0, 0, 0, 0]"] ;
733 -> 734 ;
735 [label="total sulfur dioxide <= 160.5\ngini = 0.39\nsamples = 13\nvalue = [0, 0, 14, 5, 0, 0, 0]"] ;
733 -> 735 ;
736 [label="alcohol <= 9.2\ngini = 0.49\nsamples = 5\nvalue = [0, 0, 3, 4, 0, 0, 0]"] ;
735 -> 736 ;
737 [label="gini = 0.0\nsamples = 1\nvalue = [0, 0, 2, 0, 0, 0, 0]"] ;
736 -> 737 ;
738 [label="volatile acidity <= 0.33\ngini = 0.32\nsamples = 4\nvalue = [0, 0, 1, 4, 0, 0, 0]"] ;
736 -> 738 ;
739 [label="density <= 1.0\ngini = 0.5\nsamples = 2\nvalue = [0, 0, 1, 1, 0, 0, 0]"] ;
738 -> 739 ;
740 [label="gini = 0.0\nsamples = 1\nvalue = [0, 0, 1, 0, 0, 0, 0]"] ;
739 -> 740 ;
741 [label="gini = 0.0\nsamples = 1\nvalue = [0, 0, 0, 1, 0, 0, 0]"] ;
739 -> 741 ;
742 [label="gini = 0.0\nsamples = 2\nvalue = [0, 0, 0, 3, 0, 0, 0]"] ;
738 -> 742 ;
743 [label="fixed acidity <= 7.55\ngini = 0.15\nsamples = 8\nvalue = [0, 0, 11, 1, 0, 0, 0]"] ;
735 -> 743 ;
744 [label="gini = 0.0\nsamples = 7\nvalue = [0, 0, 11, 0, 0, 0, 0]"] ;
743 -> 744 ;
745 [label="gini = 0.0\nsamples = 1\nvalue = [0, 0, 0, 1, 0, 0, 0]"] ;
743 -> 745 ;
746 [label="residual sugar <= 18.03\ngini = 0.63\nsamples = 16\nvalue = [0, 0, 9, 4, 6, 0, 0]"] ;
712 -> 746 ;
747 [label="total sulfur dioxide <= 162.0\ngini = 0.38\nsamples = 6\nvalue = [0, 0, 0, 2, 6, 0, 0]"] ;
746 -> 747 ;
748 [label="gini = 0.0\nsamples = 2\nvalue = [0, 0, 0, 2, 0, 0, 0]"] ;
747 -> 748 ;
749 [label="gini = 0.0\nsamples = 4\nvalue = [0, 0, 0, 0, 6, 0, 0]"] ;
747 -> 749 ;
750 [label="sulphates <= 0.46\ngini = 0.3\nsamples = 10\nvalue = [0, 0, 9, 2, 0, 0, 0]"] ;
746 -> 750 ;
751 [label="fixed acidity <= 7.25\ngini = 0.5\nsamples = 3\nvalue = [0, 0, 2, 2, 0, 0, 0]"] ;
750 -> 751 ;
752 [label="gini = 0.0\nsamples = 1\nvalue = [0, 0, 0, 2, 0, 0, 0]"] ;
751 -> 752 ;
753 [label="gini = 0.0\nsamples = 2\nvalue = [0, 0, 2, 0, 0, 0, 0]"] ;
751 -> 753 ;
754 [label="gini = 0.0\nsamples = 7\nvalue = [0, 0, 7, 0, 0, 0, 0]"] ;
750 -> 754 ;
755 [label="gini = 0.0\nsamples = 5\nvalue = [0, 0, 0, 8, 0, 0, 0]"] ;
711 -> 755 ;
756 [label="total sulfur dioxide <= 181.5\ngini = 0.44\nsamples = 21\nvalue = [0, 0, 10, 21, 0, 0, 0]"] ;
710 -> 756 ;
757 [label="fixed acidity <= 6.25\ngini = 0.28\nsamples = 12\nvalue = [0, 0, 3, 15, 0, 0, 0]"] ;
756 -> 757 ;
758 [label="free sulfur dioxide <= 53.5\ngini = 0.38\nsamples = 4\nvalue = [0, 0, 3, 1, 0, 0, 0]"] ;
757 -> 758 ;
759 [label="gini = 0.0\nsamples = 3\nvalue = [0, 0, 3, 0, 0, 0, 0]"] ;
758 -> 759 ;
760 [label="gini = 0.0\nsamples = 1\nvalue = [0, 0, 0, 1, 0, 0, 0]"] ;
758 -> 760 ;
761 [label="gini = 0.0\nsamples = 8\nvalue = [0, 0, 0, 14, 0, 0, 0]"] ;
757 -> 761 ;
762 [label="volatile acidity <= 0.34\ngini = 0.5\nsamples = 9\nvalue = [0, 0, 7, 6, 0, 0, 0]"] ;
756 -> 762 ;
763 [label="gini = 0.0\nsamples = 3\nvalue = [0, 0, 5, 0, 0, 0, 0]"] ;
762 -> 763 ;
764 [label="residual sugar <= 10.1\ngini = 0.38\nsamples = 6\nvalue = [0, 0, 2, 6, 0, 0, 0]"] ;
762 -> 764 ;
765 [label="gini = 0.0\nsamples = 1\nvalue = [0, 0, 1, 0, 0, 0, 0]"] ;
764 -> 765 ;
766 [label="density <= 1.0\ngini = 0.24\nsamples = 5\nvalue = [0, 0, 1, 6, 0, 0, 0]"] ;
764 -> 766 ;
767 [label="gini = 0.0\nsamples = 4\nvalue = [0, 0, 0, 6, 0, 0, 0]"] ;
766 -> 767 ;
768 [label="gini = 0.0\nsamples = 1\nvalue = [0, 0, 1, 0, 0, 0, 0]"] ;
766 -> 768 ;
769 [label="pH <= 3.1\ngini = 0.44\nsamples = 39\nvalue = [0, 2, 48, 19, 0, 0, 0]"] ;
709 -> 769 ;
770 [label="residual sugar <= 3.67\ngini = 0.34\nsamples = 8\nvalue = [0, 0, 3, 11, 0, 0, 0]"] ;
769 -> 770 ;
771 [label="alcohol <= 9.85\ngini = 0.49\nsamples = 4\nvalue = [0, 0, 3, 4, 0, 0, 0]"] ;
770 -> 771 ;
772 [label="gini = 0.0\nsamples = 3\nvalue = [0, 0, 3, 0, 0, 0, 0]"] ;
771 -> 772 ;
773 [label="gini = 0.0\nsamples = 1\nvalue = [0, 0, 0, 4, 0, 0, 0]"] ;
771 -> 773 ;
774 [label="gini = 0.0\nsamples = 4\nvalue = [0, 0, 0, 7, 0, 0, 0]"] ;
770 -> 774 ;
775 [label="citric acid <= 0.31\ngini = 0.31\nsamples = 31\nvalue = [0, 2, 45, 8, 0, 0, 0]"] ;
769 -> 775 ;
776 [label="residual sugar <= 7.75\ngini = 0.54\nsamples = 13\nvalue = [0, 2, 14, 8, 0, 0, 0]"] ;
775 -> 776 ;
777 [label="volatile acidity <= 0.32\ngini = 0.44\nsamples = 3\nvalue = [0, 2, 0, 4, 0, 0, 0]"] ;
776 -> 777 ;
778 [label="gini = 0.0\nsamples = 1\nvalue = [0, 2, 0, 0, 0, 0, 0]"] ;
777 -> 778 ;
779 [label="gini = 0.0\nsamples = 2\nvalue = [0, 0, 0, 4, 0, 0, 0]"] ;
777 -> 779 ;
780 [label="residual sugar <= 12.7\ngini = 0.35\nsamples = 10\nvalue = [0, 0, 14, 4, 0, 0, 0]"] ;
776 -> 780 ;
781 [label="sulphates <= 0.63\ngini = 0.15\nsamples = 6\nvalue = [0, 0, 11, 1, 0, 0, 0]"] ;
780 -> 781 ;
782 [label="gini = 0.0\nsamples = 5\nvalue = [0, 0, 11, 0, 0, 0, 0]"] ;
781 -> 782 ;
783 [label="gini = 0.0\nsamples = 1\nvalue = [0, 0, 0, 1, 0, 0, 0]"] ;
781 -> 783 ;
784 [label="chlorides <= 0.05\ngini = 0.5\nsamples = 4\nvalue = [0, 0, 3, 3, 0, 0, 0]"] ;
780 -> 784 ;
785 [label="free sulfur dioxide <= 56.0\ngini = 0.38\nsamples = 3\nvalue = [0, 0, 1, 3, 0, 0, 0]"] ;
784 -> 785 ;
786 [label="gini = 0.0\nsamples = 2\nvalue = [0, 0, 0, 3, 0, 0, 0]"] ;
785 -> 786 ;
787 [label="gini = 0.0\nsamples = 1\nvalue = [0, 0, 1, 0, 0, 0, 0]"] ;
785 -> 787 ;
788 [label="gini = 0.0\nsamples = 1\nvalue = [0, 0, 2, 0, 0, 0, 0]"] ;
784 -> 788 ;
789 [label="gini = 0.0\nsamples = 18\nvalue = [0, 0, 31, 0, 0, 0, 0]"] ;
775 -> 789 ;
790 [label="residual sugar <= 12.5\ngini = 0.52\nsamples = 31\nvalue = [0, 2, 16, 26, 0, 0, 0]"] ;
672 -> 790 ;
791 [label="free sulfur dioxide <= 112.25\ngini = 0.39\nsamples = 22\nvalue = [0, 2, 5, 22, 0, 0, 0]"] ;
790 -> 791 ;
792 [label="citric acid <= 0.39\ngini = 0.35\nsamples = 21\nvalue = [0, 1, 5, 22, 0, 0, 0]"] ;
791 -> 792 ;
793 [label="chlorides <= 0.05\ngini = 0.31\nsamples = 20\nvalue = [0, 1, 4, 22, 0, 0, 0]"] ;
792 -> 793 ;
794 [label="gini = 0.0\nsamples = 8\nvalue = [0, 0, 0, 13, 0, 0, 0]"] ;
793 -> 794 ;
795 [label="free sulfur dioxide <= 70.75\ngini = 0.5\nsamples = 12\nvalue = [0, 1, 4, 9, 0, 0, 0]"] ;
793 -> 795 ;
796 [label="density <= 1.0\ngini = 0.59\nsamples = 8\nvalue = [0, 1, 4, 4, 0, 0, 0]"] ;
795 -> 796 ;
797 [label="chlorides <= 0.12\ngini = 0.5\nsamples = 7\nvalue = [0, 0, 4, 4, 0, 0, 0]"] ;
796 -> 797 ;
798 [label="gini = 0.0\nsamples = 3\nvalue = [0, 0, 3, 0, 0, 0, 0]"] ;
797 -> 798 ;
799 [label="chlorides <= 0.22\ngini = 0.32\nsamples = 4\nvalue = [0, 0, 1, 4, 0, 0, 0]"] ;
797 -> 799 ;
800 [label="gini = 0.0\nsamples = 3\nvalue = [0, 0, 0, 4, 0, 0, 0]"] ;
799 -> 800 ;
801 [label="gini = 0.0\nsamples = 1\nvalue = [0, 0, 1, 0, 0, 0, 0]"] ;
799 -> 801 ;
802 [label="gini = 0.0\nsamples = 1\nvalue = [0, 1, 0, 0, 0, 0, 0]"] ;
796 -> 802 ;
803 [label="gini = 0.0\nsamples = 4\nvalue = [0, 0, 0, 5, 0, 0, 0]"] ;
795 -> 803 ;
804 [label="gini = 0.0\nsamples = 1\nvalue = [0, 0, 1, 0, 0, 0, 0]"] ;
792 -> 804 ;
805 [label="gini = 0.0\nsamples = 1\nvalue = [0, 1, 0, 0, 0, 0, 0]"] ;
791 -> 805 ;
806 [label="total sulfur dioxide <= 218.5\ngini = 0.39\nsamples = 9\nvalue = [0, 0, 11, 4, 0, 0, 0]"] ;
790 -> 806 ;
807 [label="gini = 0.0\nsamples = 7\nvalue = [0, 0, 11, 0, 0, 0, 0]"] ;
806 -> 807 ;
808 [label="gini = 0.0\nsamples = 2\nvalue = [0, 0, 0, 4, 0, 0, 0]"] ;
806 -> 808 ;
809 [label="free sulfur dioxide <= 26.5\ngini = 0.58\nsamples = 67\nvalue = [0, 2, 39, 59, 8, 2, 0]"] ;
671 -> 809 ;
810 [label="free sulfur dioxide <= 21.0\ngini = 0.36\nsamples = 16\nvalue = [0, 0, 20, 6, 0, 0, 0]"] ;
809 -> 810 ;
811 [label="residual sugar <= 7.75\ngini = 0.28\nsamples = 5\nvalue = [0, 0, 1, 5, 0, 0, 0]"] ;
810 -> 811 ;
812 [label="gini = 0.0\nsamples = 3\nvalue = [0, 0, 0, 3, 0, 0, 0]"] ;
811 -> 812 ;
813 [label="citric acid <= 0.22\ngini = 0.44\nsamples = 2\nvalue = [0, 0, 1, 2, 0, 0, 0]"] ;
811 -> 813 ;
814 [label="gini = 0.0\nsamples = 1\nvalue = [0, 0, 0, 2, 0, 0, 0]"] ;
813 -> 814 ;
815 [label="gini = 0.0\nsamples = 1\nvalue = [0, 0, 1, 0, 0, 0, 0]"] ;
813 -> 815 ;
816 [label="alcohol <= 10.3\ngini = 0.09\nsamples = 11\nvalue = [0, 0, 19, 1, 0, 0, 0]"] ;
810 -> 816 ;
817 [label="sulphates <= 0.56\ngini = 0.28\nsamples = 5\nvalue = [0, 0, 5, 1, 0, 0, 0]"] ;
816 -> 817 ;
818 [label="gini = 0.0\nsamples = 4\nvalue = [0, 0, 5, 0, 0, 0, 0]"] ;
817 -> 818 ;
819 [label="gini = 0.0\nsamples = 1\nvalue = [0, 0, 0, 1, 0, 0, 0]"] ;
817 -> 819 ;
820 [label="gini = 0.0\nsamples = 6\nvalue = [0, 0, 14, 0, 0, 0, 0]"] ;
816 -> 820 ;
821 [label="residual sugar <= 13.35\ngini = 0.54\nsamples = 51\nvalue = [0, 2, 19, 53, 8, 2, 0]"] ;
809 -> 821 ;
822 [label="total sulfur dioxide <= 182.0\ngini = 0.47\nsamples = 45\nvalue = [0, 2, 10, 53, 8, 2, 0]"] ;
821 -> 822 ;
823 [label="density <= 0.99\ngini = 0.41\nsamples = 39\nvalue = [0, 1, 6, 51, 8, 2, 0]"] ;
822 -> 823 ;
824 [label="sulphates <= 0.42\ngini = 0.63\nsamples = 18\nvalue = [0, 1, 4, 17, 8, 2, 0]"] ;
823 -> 824 ;
825 [label="pH <= 3.14\ngini = 0.44\nsamples = 2\nvalue = [0, 1, 2, 0, 0, 0, 0]"] ;
824 -> 825 ;
826 [label="gini = 0.0\nsamples = 1\nvalue = [0, 1, 0, 0, 0, 0, 0]"] ;
825 -> 826 ;
827 [label="gini = 0.0\nsamples = 1\nvalue = [0, 0, 2, 0, 0, 0, 0]"] ;
825 -> 827 ;
828 [label="alcohol <= 10.65\ngini = 0.57\nsamples = 16\nvalue = [0, 0, 2, 17, 8, 2, 0]"] ;
824 -> 828 ;
829 [label="pH <= 3.39\ngini = 0.37\nsamples = 12\nvalue = [0, 0, 1, 17, 4, 0, 0]"] ;
828 -> 829 ;
830 [label="total sulfur dioxide <= 175.0\ngini = 0.12\nsamples = 9\nvalue = [0, 0, 1, 15, 0, 0, 0]"] ;
829 -> 830 ;
831 [label="gini = 0.0\nsamples = 8\nvalue = [0, 0, 0, 15, 0, 0, 0]"] ;
830 -> 831 ;
832 [label="gini = 0.0\nsamples = 1\nvalue = [0, 0, 1, 0, 0, 0, 0]"] ;
830 -> 832 ;
833 [label="alcohol <= 10.3\ngini = 0.44\nsamples = 3\nvalue = [0, 0, 0, 2, 4, 0, 0]"] ;
829 -> 833 ;
834 [label="gini = 0.0\nsamples = 1\nvalue = [0, 0, 0, 2, 0, 0, 0]"] ;
833 -> 834 ;
835 [label="gini = 0.0\nsamples = 2\nvalue = [0, 0, 0, 0, 4, 0, 0]"] ;
833 -> 835 ;
836 [label="citric acid <= 0.27\ngini = 0.57\nsamples = 4\nvalue = [0, 0, 1, 0, 4, 2, 0]"] ;
828 -> 836 ;
837 [label="gini = 0.0\nsamples = 1\nvalue = [0, 0, 0, 0, 0, 2, 0]"] ;
836 -> 837 ;
838 [label="residual sugar <= 2.7\ngini = 0.32\nsamples = 3\nvalue = [0, 0, 1, 0, 4, 0, 0]"] ;
836 -> 838 ;
839 [label="gini = 0.0\nsamples = 1\nvalue = [0, 0, 1, 0, 0, 0, 0]"] ;
838 -> 839 ;
840 [label="gini = 0.0\nsamples = 2\nvalue = [0, 0, 0, 0, 4, 0, 0]"] ;
838 -> 840 ;
841 [label="alcohol <= 10.65\ngini = 0.1\nsamples = 21\nvalue = [0, 0, 2, 34, 0, 0, 0]"] ;
823 -> 841 ;
842 [label="gini = 0.0\nsamples = 17\nvalue = [0, 0, 0, 29, 0, 0, 0]"] ;
841 -> 842 ;
843 [label="total sulfur dioxide <= 147.0\ngini = 0.41\nsamples = 4\nvalue = [0, 0, 2, 5, 0, 0, 0]"] ;
841 -> 843 ;
844 [label="gini = 0.0\nsamples = 3\nvalue = [0, 0, 0, 5, 0, 0, 0]"] ;
843 -> 844 ;
845 [label="gini = 0.0\nsamples = 1\nvalue = [0, 0, 2, 0, 0, 0, 0]"] ;
843 -> 845 ;
846 [label="citric acid <= 0.35\ngini = 0.57\nsamples = 6\nvalue = [0, 1, 4, 2, 0, 0, 0]"] ;
822 -> 846 ;
847 [label="free sulfur dioxide <= 40.0\ngini = 0.32\nsamples = 4\nvalue = [0, 0, 4, 1, 0, 0, 0]"] ;
846 -> 847 ;
848 [label="chlorides <= 0.05\ngini = 0.5\nsamples = 2\nvalue = [0, 0, 1, 1, 0, 0, 0]"] ;
847 -> 848 ;
849 [label="gini = 0.0\nsamples = 1\nvalue = [0, 0, 0, 1, 0, 0, 0]"] ;
848 -> 849 ;
850 [label="gini = 0.0\nsamples = 1\nvalue = [0, 0, 1, 0, 0, 0, 0]"] ;
848 -> 850 ;
851 [label="gini = 0.0\nsamples = 2\nvalue = [0, 0, 3, 0, 0, 0, 0]"] ;
847 -> 851 ;
852 [label="sulphates <= 0.6\ngini = 0.5\nsamples = 2\nvalue = [0, 1, 0, 1, 0, 0, 0]"] ;
846 -> 852 ;
853 [label="gini = 0.0\nsamples = 1\nvalue = [0, 1, 0, 0, 0, 0, 0]"] ;
852 -> 853 ;
854 [label="gini = 0.0\nsamples = 1\nvalue = [0, 0, 0, 1, 0, 0, 0]"] ;
852 -> 854 ;
855 [label="gini = 0.0\nsamples = 6\nvalue = [0, 0, 9, 0, 0, 0, 0]"] ;
821 -> 855 ;
856 [label="chlorides <= 0.04\ngini = 0.36\nsamples = 22\nvalue = [0, 0, 5, 25, 1, 1, 0]"] ;
670 -> 856 ;
857 [label="gini = 0.0\nsamples = 11\nvalue = [0, 0, 0, 15, 0, 0, 0]"] ;
856 -> 857 ;
858 [label="fixed acidity <= 8.55\ngini = 0.56\nsamples = 11\nvalue = [0, 0, 5, 10, 1, 1, 0]"] ;
856 -> 858 ;
859 [label="pH <= 3.34\ngini = 0.39\nsamples = 9\nvalue = [0, 0, 1, 10, 1, 1, 0]"] ;
858 -> 859 ;
860 [label="volatile acidity <= 0.27\ngini = 0.17\nsamples = 7\nvalue = [0, 0, 0, 10, 1, 0, 0]"] ;
859 -> 860 ;
861 [label="alcohol <= 10.1\ngini = 0.5\nsamples = 2\nvalue = [0, 0, 0, 1, 1, 0, 0]"] ;
860 -> 861 ;
862 [label="gini = 0.0\nsamples = 1\nvalue = [0, 0, 0, 1, 0, 0, 0]"] ;
861 -> 862 ;
863 [label="gini = 0.0\nsamples = 1\nvalue = [0, 0, 0, 0, 1, 0, 0]"] ;
861 -> 863 ;
864 [label="gini = 0.0\nsamples = 5\nvalue = [0, 0, 0, 9, 0, 0, 0]"] ;
860 -> 864 ;
865 [label="pH <= 3.43\ngini = 0.5\nsamples = 2\nvalue = [0, 0, 1, 0, 0, 1, 0]"] ;
859 -> 865 ;
866 [label="gini = 0.0\nsamples = 1\nvalue = [0, 0, 1, 0, 0, 0, 0]"] ;
865 -> 866 ;
867 [label="gini = 0.0\nsamples = 1\nvalue = [0, 0, 0, 0, 0, 1, 0]"] ;
865 -> 867 ;
868 [label="gini = 0.0\nsamples = 2\nvalue = [0, 0, 4, 0, 0, 0, 0]"] ;
858 -> 868 ;
869 [label="sulphates <= 0.5\ngini = 0.51\nsamples = 135\nvalue = [0, 10, 130, 58, 6, 0, 0]"] ;
669 -> 869 ;
870 [label="sulphates <= 0.34\ngini = 0.39\nsamples = 74\nvalue = [0, 7, 88, 21, 0, 0, 0]"] ;
869 -> 870 ;
871 [label="residual sugar <= 11.88\ngini = 0.48\nsamples = 2\nvalue = [0, 3, 2, 0, 0, 0, 0]"] ;
870 -> 871 ;
872 [label="gini = 0.0\nsamples = 1\nvalue = [0, 3, 0, 0, 0, 0, 0]"] ;
871 -> 872 ;
873 [label="gini = 0.0\nsamples = 1\nvalue = [0, 0, 2, 0, 0, 0, 0]"] ;
871 -> 873 ;
874 [label="chlorides <= 0.23\ngini = 0.36\nsamples = 72\nvalue = [0, 4, 86, 21, 0, 0, 0]"] ;
870 -> 874 ;
875 [label="free sulfur dioxide <= 24.0\ngini = 0.35\nsamples = 71\nvalue = [0, 4, 86, 20, 0, 0, 0]"] ;
874 -> 875 ;
876 [label="free sulfur dioxide <= 21.5\ngini = 0.49\nsamples = 3\nvalue = [0, 0, 3, 4, 0, 0, 0]"] ;
875 -> 876 ;
877 [label="gini = 0.0\nsamples = 1\nvalue = [0, 0, 3, 0, 0, 0, 0]"] ;
876 -> 877 ;
878 [label="gini = 0.0\nsamples = 2\nvalue = [0, 0, 0, 4, 0, 0, 0]"] ;
876 -> 878 ;
879 [label="pH <= 3.22\ngini = 0.33\nsamples = 68\nvalue = [0, 4, 83, 16, 0, 0, 0]"] ;
875 -> 879 ;
880 [label="volatile acidity <= 0.38\ngini = 0.31\nsamples = 65\nvalue = [0, 4, 82, 14, 0, 0, 0]"] ;
879 -> 880 ;
881 [label="residual sugar <= 5.9\ngini = 0.28\nsamples = 64\nvalue = [0, 4, 82, 12, 0, 0, 0]"] ;
880 -> 881 ;
882 [label="total sulfur dioxide <= 175.0\ngini = 0.46\nsamples = 9\nvalue = [0, 0, 9, 5, 0, 0, 0]"] ;
881 -> 882 ;
883 [label="sulphates <= 0.39\ngini = 0.47\nsamples = 5\nvalue = [0, 0, 3, 5, 0, 0, 0]"] ;
882 -> 883 ;
884 [label="gini = 0.0\nsamples = 1\nvalue = [0, 0, 3, 0, 0, 0, 0]"] ;
883 -> 884 ;
885 [label="gini = 0.0\nsamples = 4\nvalue = [0, 0, 0, 5, 0, 0, 0]"] ;
883 -> 885 ;
886 [label="gini = 0.0\nsamples = 4\nvalue = [0, 0, 6, 0, 0, 0, 0]"] ;
882 -> 886 ;
887 [label="alcohol <= 9.15\ngini = 0.24\nsamples = 55\nvalue = [0, 4, 73, 7, 0, 0, 0]"] ;
881 -> 887 ;
888 [label="density <= 1.0\ngini = 0.36\nsamples = 29\nvalue = [0, 4, 36, 6, 0, 0, 0]"] ;
887 -> 888 ;
889 [label="pH <= 3.18\ngini = 0.46\nsamples = 7\nvalue = [0, 0, 7, 4, 0, 0, 0]"] ;
888 -> 889 ;
890 [label="pH <= 3.1\ngini = 0.35\nsamples = 6\nvalue = [0, 0, 7, 2, 0, 0, 0]"] ;
889 -> 890 ;
891 [label="sulphates <= 0.39\ngini = 0.44\nsamples = 3\nvalue = [0, 0, 1, 2, 0, 0, 0]"] ;
890 -> 891 ;
892 [label="gini = 0.0\nsamples = 1\nvalue = [0, 0, 1, 0, 0, 0, 0]"] ;
891 -> 892 ;
893 [label="gini = 0.0\nsamples = 2\nvalue = [0, 0, 0, 2, 0, 0, 0]"] ;
891 -> 893 ;
894 [label="gini = 0.0\nsamples = 3\nvalue = [0, 0, 6, 0, 0, 0, 0]"] ;
890 -> 894 ;
895 [label="gini = 0.0\nsamples = 1\nvalue = [0, 0, 0, 2, 0, 0, 0]"] ;
889 -> 895 ;
896 [label="free sulfur dioxide <= 55.5\ngini = 0.3\nsamples = 22\nvalue = [0, 4, 29, 2, 0, 0, 0]"] ;
888 -> 896 ;
897 [label="gini = 0.0\nsamples = 8\nvalue = [0, 0, 15, 0, 0, 0, 0]"] ;
896 -> 897 ;
898 [label="density <= 1.0\ngini = 0.46\nsamples = 14\nvalue = [0, 4, 14, 2, 0, 0, 0]"] ;
896 -> 898 ;
899 [label="gini = 0.0\nsamples = 5\nvalue = [0, 0, 9, 0, 0, 0, 0]"] ;
898 -> 899 ;
900 [label="fixed acidity <= 7.8\ngini = 0.63\nsamples = 9\nvalue = [0, 4, 5, 2, 0, 0, 0]"] ;
898 -> 900 ;
901 [label="alcohol <= 9.05\ngini = 0.62\nsamples = 7\nvalue = [0, 4, 2, 2, 0, 0, 0]"] ;
900 -> 901 ;
902 [label="sulphates <= 0.45\ngini = 0.44\nsamples = 5\nvalue = [0, 4, 2, 0, 0, 0, 0]"] ;
901 -> 902 ;
903 [label="gini = 0.0\nsamples = 1\nvalue = [0, 2, 0, 0, 0, 0, 0]"] ;
902 -> 903 ;
904 [label="free sulfur dioxide <= 59.0\ngini = 0.5\nsamples = 4\nvalue = [0, 2, 2, 0, 0, 0, 0]"] ;
902 -> 904 ;
905 [label="gini = 0.0\nsamples = 1\nvalue = [0, 1, 0, 0, 0, 0, 0]"] ;
904 -> 905 ;
906 [label="alcohol <= 8.75\ngini = 0.44\nsamples = 3\nvalue = [0, 1, 2, 0, 0, 0, 0]"] ;
904 -> 906 ;
907 [label="gini = 0.0\nsamples = 1\nvalue = [0, 1, 0, 0, 0, 0, 0]"] ;
906 -> 907 ;
908 [label="gini = 0.0\nsamples = 2\nvalue = [0, 0, 2, 0, 0, 0, 0]"] ;
906 -> 908 ;
909 [label="gini = 0.0\nsamples = 2\nvalue = [0, 0, 0, 2, 0, 0, 0]"] ;
901 -> 909 ;
910 [label="gini = 0.0\nsamples = 2\nvalue = [0, 0, 3, 0, 0, 0, 0]"] ;
900 -> 910 ;
911 [label="pH <= 3.17\ngini = 0.05\nsamples = 26\nvalue = [0, 0, 37, 1, 0, 0, 0]"] ;
887 -> 911 ;
912 [label="gini = 0.0\nsamples = 15\nvalue = [0, 0, 21, 0, 0, 0, 0]"] ;
911 -> 912 ;
913 [label="residual sugar <= 7.45\ngini = 0.11\nsamples = 11\nvalue = [0, 0, 16, 1, 0, 0, 0]"] ;
911 -> 913 ;
914 [label="gini = 0.0\nsamples = 6\nvalue = [0, 0, 10, 0, 0, 0, 0]"] ;
913 -> 914 ;
915 [label="free sulfur dioxide <= 58.0\ngini = 0.24\nsamples = 5\nvalue = [0, 0, 6, 1, 0, 0, 0]"] ;
913 -> 915 ;
916 [label="gini = 0.0\nsamples = 4\nvalue = [0, 0, 6, 0, 0, 0, 0]"] ;
915 -> 916 ;
917 [label="gini = 0.0\nsamples = 1\nvalue = [0, 0, 0, 1, 0, 0, 0]"] ;
915 -> 917 ;
918 [label="gini = 0.0\nsamples = 1\nvalue = [0, 0, 0, 2, 0, 0, 0]"] ;
880 -> 918 ;
919 [label="sulphates <= 0.48\ngini = 0.44\nsamples = 3\nvalue = [0, 0, 1, 2, 0, 0, 0]"] ;
879 -> 919 ;
920 [label="gini = 0.0\nsamples = 2\nvalue = [0, 0, 0, 2, 0, 0, 0]"] ;
919 -> 920 ;
921 [label="gini = 0.0\nsamples = 1\nvalue = [0, 0, 1, 0, 0, 0, 0]"] ;
919 -> 921 ;
922 [label="gini = 0.0\nsamples = 1\nvalue = [0, 0, 0, 1, 0, 0, 0]"] ;
874 -> 922 ;
923 [label="sulphates <= 0.67\ngini = 0.59\nsamples = 61\nvalue = [0, 3, 42, 37, 6, 0, 0]"] ;
869 -> 923 ;
924 [label="density <= 1.0\ngini = 0.56\nsamples = 53\nvalue = [0, 3, 34, 36, 2, 0, 0]"] ;
923 -> 924 ;
925 [label="sulphates <= 0.5\ngini = 0.21\nsamples = 12\nvalue = [0, 0, 2, 15, 0, 0, 0]"] ;
924 -> 925 ;
926 [label="gini = 0.0\nsamples = 1\nvalue = [0, 0, 1, 0, 0, 0, 0]"] ;
925 -> 926 ;
927 [label="residual sugar <= 7.25\ngini = 0.12\nsamples = 11\nvalue = [0, 0, 1, 15, 0, 0, 0]"] ;
925 -> 927 ;
928 [label="gini = 0.0\nsamples = 7\nvalue = [0, 0, 0, 11, 0, 0, 0]"] ;
927 -> 928 ;
929 [label="citric acid <= 0.49\ngini = 0.32\nsamples = 4\nvalue = [0, 0, 1, 4, 0, 0, 0]"] ;
927 -> 929 ;
930 [label="alcohol <= 9.4\ngini = 0.5\nsamples = 2\nvalue = [0, 0, 1, 1, 0, 0, 0]"] ;
929 -> 930 ;
931 [label="gini = 0.0\nsamples = 1\nvalue = [0, 0, 0, 1, 0, 0, 0]"] ;
930 -> 931 ;
932 [label="gini = 0.0\nsamples = 1\nvalue = [0, 0, 1, 0, 0, 0, 0]"] ;
930 -> 932 ;
933 [label="gini = 0.0\nsamples = 2\nvalue = [0, 0, 0, 3, 0, 0, 0]"] ;
929 -> 933 ;
934 [label="total sulfur dioxide <= 236.0\ngini = 0.56\nsamples = 41\nvalue = [0, 3, 32, 21, 2, 0, 0]"] ;
924 -> 934 ;
935 [label="pH <= 3.06\ngini = 0.54\nsamples = 39\nvalue = [0, 3, 32, 16, 2, 0, 0]"] ;
934 -> 935 ;
936 [label="alcohol <= 8.95\ngini = 0.14\nsamples = 9\nvalue = [0, 0, 12, 1, 0, 0, 0]"] ;
935 -> 936 ;
937 [label="chlorides <= 0.05\ngini = 0.5\nsamples = 2\nvalue = [0, 0, 1, 1, 0, 0, 0]"] ;
936 -> 937 ;
938 [label="gini = 0.0\nsamples = 1\nvalue = [0, 0, 0, 1, 0, 0, 0]"] ;
937 -> 938 ;
939 [label="gini = 0.0\nsamples = 1\nvalue = [0, 0, 1, 0, 0, 0, 0]"] ;
937 -> 939 ;
940 [label="gini = 0.0\nsamples = 7\nvalue = [0, 0, 11, 0, 0, 0, 0]"] ;
936 -> 940 ;
941 [label="citric acid <= 0.44\ngini = 0.6\nsamples = 30\nvalue = [0, 3, 20, 15, 2, 0, 0]"] ;
935 -> 941 ;
942 [label="fixed acidity <= 6.5\ngini = 0.2\nsamples = 8\nvalue = [0, 0, 8, 1, 0, 0, 0]"] ;
941 -> 942 ;
943 [label="gini = 0.0\nsamples = 1\nvalue = [0, 0, 0, 1, 0, 0, 0]"] ;
942 -> 943 ;
944 [label="gini = 0.0\nsamples = 7\nvalue = [0, 0, 8, 0, 0, 0, 0]"] ;
942 -> 944 ;
945 [label="free sulfur dioxide <= 50.5\ngini = 0.63\nsamples = 22\nvalue = [0, 3, 12, 14, 2, 0, 0]"] ;
941 -> 945 ;
946 [label="total sulfur dioxide <= 163.5\ngini = 0.66\nsamples = 12\nvalue = [0, 3, 8, 3, 2, 0, 0]"] ;
945 -> 946 ;
947 [label="pH <= 3.12\ngini = 0.24\nsamples = 5\nvalue = [0, 0, 6, 0, 1, 0, 0]"] ;
946 -> 947 ;
948 [label="gini = 0.0\nsamples = 1\nvalue = [0, 0, 0, 0, 1, 0, 0]"] ;
947 -> 948 ;
949 [label="gini = 0.0\nsamples = 4\nvalue = [0, 0, 6, 0, 0, 0, 0]"] ;
947 -> 949 ;
950 [label="chlorides <= 0.05\ngini = 0.72\nsamples = 7\nvalue = [0, 3, 2, 3, 1, 0, 0]"] ;
946 -> 950 ;
951 [label="gini = 0.0\nsamples = 1\nvalue = [0, 0, 0, 2, 0, 0, 0]"] ;
950 -> 951 ;
952 [label="alcohol <= 9.5\ngini = 0.69\nsamples = 6\nvalue = [0, 3, 2, 1, 1, 0, 0]"] ;
950 -> 952 ;
953 [label="pH <= 3.2\ngini = 0.48\nsamples = 4\nvalue = [0, 3, 2, 0, 0, 0, 0]"] ;
952 -> 953 ;
954 [label="gini = 0.0\nsamples = 2\nvalue = [0, 0, 2, 0, 0, 0, 0]"] ;
953 -> 954 ;
955 [label="gini = 0.0\nsamples = 2\nvalue = [0, 3, 0, 0, 0, 0, 0]"] ;
953 -> 955 ;
956 [label="volatile acidity <= 0.33\ngini = 0.5\nsamples = 2\nvalue = [0, 0, 0, 1, 1, 0, 0]"] ;
952 -> 956 ;
957 [label="gini = 0.0\nsamples = 1\nvalue = [0, 0, 0, 0, 1, 0, 0]"] ;
956 -> 957 ;
958 [label="gini = 0.0\nsamples = 1\nvalue = [0, 0, 0, 1, 0, 0, 0]"] ;
956 -> 958 ;
959 [label="density <= 1.0\ngini = 0.39\nsamples = 10\nvalue = [0, 0, 4, 11, 0, 0, 0]"] ;
945 -> 959 ;
960 [label="gini = 0.0\nsamples = 5\nvalue = [0, 0, 0, 7, 0, 0, 0]"] ;
959 -> 960 ;
961 [label="residual sugar <= 13.7\ngini = 0.5\nsamples = 5\nvalue = [0, 0, 4, 4, 0, 0, 0]"] ;
959 -> 961 ;
962 [label="gini = 0.0\nsamples = 3\nvalue = [0, 0, 4, 0, 0, 0, 0]"] ;
961 -> 962 ;
963 [label="gini = 0.0\nsamples = 2\nvalue = [0, 0, 0, 4, 0, 0, 0]"] ;
961 -> 963 ;
964 [label="gini = 0.0\nsamples = 2\nvalue = [0, 0, 0, 5, 0, 0, 0]"] ;
934 -> 964 ;
965 [label="residual sugar <= 14.38\ngini = 0.52\nsamples = 8\nvalue = [0, 0, 8, 1, 4, 0, 0]"] ;
923 -> 965 ;
966 [label="volatile acidity <= 0.34\ngini = 0.2\nsamples = 7\nvalue = [0, 0, 8, 1, 0, 0, 0]"] ;
965 -> 966 ;
967 [label="gini = 0.0\nsamples = 4\nvalue = [0, 0, 5, 0, 0, 0, 0]"] ;
966 -> 967 ;
968 [label="alcohol <= 9.9\ngini = 0.38\nsamples = 3\nvalue = [0, 0, 3, 1, 0, 0, 0]"] ;
966 -> 968 ;
969 [label="gini = 0.0\nsamples = 2\nvalue = [0, 0, 3, 0, 0, 0, 0]"] ;
968 -> 969 ;
970 [label="gini = 0.0\nsamples = 1\nvalue = [0, 0, 0, 1, 0, 0, 0]"] ;
968 -> 970 ;
971 [label="gini = 0.0\nsamples = 1\nvalue = [0, 0, 0, 0, 4, 0, 0]"] ;
965 -> 971 ;
972 [label="citric acid <= 0.21\ngini = 0.48\nsamples = 82\nvalue = [2, 9, 81, 26, 1, 0, 0]"] ;
620 -> 972 ;
973 [label="alcohol <= 9.05\ngini = 0.4\nsamples = 7\nvalue = [0, 0, 3, 8, 0, 0, 0]"] ;
972 -> 973 ;
974 [label="gini = 0.0\nsamples = 2\nvalue = [0, 0, 2, 0, 0, 0, 0]"] ;
973 -> 974 ;
975 [label="fixed acidity <= 7.75\ngini = 0.2\nsamples = 5\nvalue = [0, 0, 1, 8, 0, 0, 0]"] ;
973 -> 975 ;
976 [label="gini = 0.0\nsamples = 4\nvalue = [0, 0, 0, 8, 0, 0, 0]"] ;
975 -> 976 ;
977 [label="gini = 0.0\nsamples = 1\nvalue = [0, 0, 1, 0, 0, 0, 0]"] ;
975 -> 977 ;
978 [label="alcohol <= 9.75\ngini = 0.44\nsamples = 75\nvalue = [2, 9, 78, 18, 1, 0, 0]"] ;
972 -> 978 ;
979 [label="fixed acidity <= 8.9\ngini = 0.31\nsamples = 57\nvalue = [2, 4, 65, 7, 1, 0, 0]"] ;
978 -> 979 ;
980 [label="pH <= 2.88\ngini = 0.29\nsamples = 56\nvalue = [1, 4, 65, 7, 1, 0, 0]"] ;
979 -> 980 ;
981 [label="gini = 0.0\nsamples = 1\nvalue = [1, 0, 0, 0, 0, 0, 0]"] ;
980 -> 981 ;
982 [label="chlorides <= 0.03\ngini = 0.28\nsamples = 55\nvalue = [0, 4, 65, 7, 1, 0, 0]"] ;
980 -> 982 ;
983 [label="gini = 0.0\nsamples = 1\nvalue = [0, 1, 0, 0, 0, 0, 0]"] ;
982 -> 983 ;
984 [label="residual sugar <= 10.55\ngini = 0.26\nsamples = 54\nvalue = [0, 3, 65, 7, 1, 0, 0]"] ;
982 -> 984 ;
985 [label="alcohol <= 9.5\ngini = 0.06\nsamples = 25\nvalue = [0, 0, 32, 1, 0, 0, 0]"] ;
984 -> 985 ;
986 [label="gini = 0.0\nsamples = 22\nvalue = [0, 0, 30, 0, 0, 0, 0]"] ;
985 -> 986 ;
987 [label="pH <= 3.27\ngini = 0.44\nsamples = 3\nvalue = [0, 0, 2, 1, 0, 0, 0]"] ;
985 -> 987 ;
988 [label="gini = 0.0\nsamples = 1\nvalue = [0, 0, 0, 1, 0, 0, 0]"] ;
987 -> 988 ;
989 [label="gini = 0.0\nsamples = 2\nvalue = [0, 0, 2, 0, 0, 0, 0]"] ;
987 -> 989 ;
990 [label="residual sugar <= 10.75\ngini = 0.39\nsamples = 29\nvalue = [0, 3, 33, 6, 1, 0, 0]"] ;
984 -> 990 ;
991 [label="gini = 0.0\nsamples = 1\nvalue = [0, 0, 0, 2, 0, 0, 0]"] ;
990 -> 991 ;
992 [label="chlorides <= 0.05\ngini = 0.34\nsamples = 28\nvalue = [0, 3, 33, 4, 1, 0, 0]"] ;
990 -> 992 ;
993 [label="total sulfur dioxide <= 210.0\ngini = 0.63\nsamples = 10\nvalue = [0, 2, 7, 3, 1, 0, 0]"] ;
992 -> 993 ;
994 [label="pH <= 3.09\ngini = 0.37\nsamples = 7\nvalue = [0, 1, 7, 1, 0, 0, 0]"] ;
993 -> 994 ;
995 [label="gini = 0.0\nsamples = 1\nvalue = [0, 1, 0, 0, 0, 0, 0]"] ;
994 -> 995 ;
996 [label="pH <= 3.13\ngini = 0.22\nsamples = 6\nvalue = [0, 0, 7, 1, 0, 0, 0]"] ;
994 -> 996 ;
997 [label="citric acid <= 0.62\ngini = 0.44\nsamples = 3\nvalue = [0, 0, 2, 1, 0, 0, 0]"] ;
996 -> 997 ;
998 [label="gini = 0.0\nsamples = 2\nvalue = [0, 0, 2, 0, 0, 0, 0]"] ;
997 -> 998 ;
999 [label="gini = 0.0\nsamples = 1\nvalue = [0, 0, 0, 1, 0, 0, 0]"] ;
997 -> 999 ;
1000 [label="gini = 0.0\nsamples = 3\nvalue = [0, 0, 5, 0, 0, 0, 0]"] ;
996 -> 1000 ;
1001 [label="fixed acidity <= 6.5\ngini = 0.62\nsamples = 3\nvalue = [0, 1, 0, 2, 1, 0, 0]"] ;
993 -> 1001 ;
1002 [label="residual sugar <= 12.7\ngini = 0.5\nsamples = 2\nvalue = [0, 1, 0, 0, 1, 0, 0]"] ;
1001 -> 1002 ;
1003 [label="gini = 0.0\nsamples = 1\nvalue = [0, 1, 0, 0, 0, 0, 0]"] ;
1002 -> 1003 ;
1004 [label="gini = 0.0\nsamples = 1\nvalue = [0, 0, 0, 0, 1, 0, 0]"] ;
1002 -> 1004 ;
1005 [label="gini = 0.0\nsamples = 1\nvalue = [0, 0, 0, 2, 0, 0, 0]"] ;
1001 -> 1005 ;
1006 [label="fixed acidity <= 6.4\ngini = 0.14\nsamples = 18\nvalue = [0, 1, 26, 1, 0, 0, 0]"] ;
992 -> 1006 ;
1007 [label="volatile acidity <= 0.68\ngini = 0.44\nsamples = 2\nvalue = [0, 0, 2, 1, 0, 0, 0]"] ;
1006 -> 1007 ;
1008 [label="gini = 0.0\nsamples = 1\nvalue = [0, 0, 0, 1, 0, 0, 0]"] ;
1007 -> 1008 ;
1009 [label="gini = 0.0\nsamples = 1\nvalue = [0, 0, 2, 0, 0, 0, 0]"] ;
1007 -> 1009 ;
1010 [label="volatile acidity <= 0.66\ngini = 0.08\nsamples = 16\nvalue = [0, 1, 24, 0, 0, 0, 0]"] ;
1006 -> 1010 ;
1011 [label="gini = 0.0\nsamples = 15\nvalue = [0, 0, 24, 0, 0, 0, 0]"] ;
1010 -> 1011 ;
1012 [label="gini = 0.0\nsamples = 1\nvalue = [0, 1, 0, 0, 0, 0, 0]"] ;
1010 -> 1012 ;
1013 [label="gini = 0.0\nsamples = 1\nvalue = [1, 0, 0, 0, 0, 0, 0]"] ;
979 -> 1013 ;
1014 [label="fixed acidity <= 7.25\ngini = 0.63\nsamples = 18\nvalue = [0, 5, 13, 11, 0, 0, 0]"] ;
978 -> 1014 ;
1015 [label="pH <= 3.26\ngini = 0.52\nsamples = 11\nvalue = [0, 3, 11, 3, 0, 0, 0]"] ;
1014 -> 1015 ;
1016 [label="citric acid <= 0.29\ngini = 0.18\nsamples = 6\nvalue = [0, 0, 9, 1, 0, 0, 0]"] ;
1015 -> 1016 ;
1017 [label="free sulfur dioxide <= 33.5\ngini = 0.44\nsamples = 3\nvalue = [0, 0, 2, 1, 0, 0, 0]"] ;
1016 -> 1017 ;
1018 [label="gini = 0.0\nsamples = 1\nvalue = [0, 0, 0, 1, 0, 0, 0]"] ;
1017 -> 1018 ;
1019 [label="gini = 0.0\nsamples = 2\nvalue = [0, 0, 2, 0, 0, 0, 0]"] ;
1017 -> 1019 ;
1020 [label="gini = 0.0\nsamples = 3\nvalue = [0, 0, 7, 0, 0, 0, 0]"] ;
1016 -> 1020 ;
1021 [label="density <= 0.99\ngini = 0.65\nsamples = 5\nvalue = [0, 3, 2, 2, 0, 0, 0]"] ;
1015 -> 1021 ;
1022 [label="gini = 0.0\nsamples = 1\nvalue = [0, 0, 0, 2, 0, 0, 0]"] ;
1021 -> 1022 ;
1023 [label="alcohol <= 9.9\ngini = 0.48\nsamples = 4\nvalue = [0, 3, 2, 0, 0, 0, 0]"] ;
1021 -> 1023 ;
1024 [label="gini = 0.0\nsamples = 1\nvalue = [0, 2, 0, 0, 0, 0, 0]"] ;
1023 -> 1024 ;
1025 [label="volatile acidity <= 0.53\ngini = 0.44\nsamples = 3\nvalue = [0, 1, 2, 0, 0, 0, 0]"] ;
1023 -> 1025 ;
1026 [label="gini = 0.0\nsamples = 2\nvalue = [0, 0, 2, 0, 0, 0, 0]"] ;
1025 -> 1026 ;
1027 [label="gini = 0.0\nsamples = 1\nvalue = [0, 1, 0, 0, 0, 0, 0]"] ;
1025 -> 1027 ;
1028 [label="residual sugar <= 6.65\ngini = 0.5\nsamples = 7\nvalue = [0, 2, 2, 8, 0, 0, 0]"] ;
1014 -> 1028 ;
1029 [label="pH <= 3.16\ngini = 0.44\nsamples = 2\nvalue = [0, 2, 1, 0, 0, 0, 0]"] ;
1028 -> 1029 ;
1030 [label="gini = 0.0\nsamples = 1\nvalue = [0, 0, 1, 0, 0, 0, 0]"] ;
1029 -> 1030 ;
1031 [label="gini = 0.0\nsamples = 1\nvalue = [0, 2, 0, 0, 0, 0, 0]"] ;
1029 -> 1031 ;
1032 [label="sulphates <= 0.46\ngini = 0.2\nsamples = 5\nvalue = [0, 0, 1, 8, 0, 0, 0]"] ;
1028 -> 1032 ;
1033 [label="gini = 0.0\nsamples = 4\nvalue = [0, 0, 0, 8, 0, 0, 0]"] ;
1032 -> 1033 ;
1034 [label="gini = 0.0\nsamples = 1\nvalue = [0, 0, 1, 0, 0, 0, 0]"] ;
1032 -> 1034 ;
1035 [label="gini = 0.0\nsamples = 3\nvalue = [0, 7, 0, 0, 0, 0, 0]"] ;
619 -> 1035 ;
1036 [label="pH <= 3.29\ngini = 0.65\nsamples = 875\nvalue = [5, 36, 118, 673, 458, 109, 2]"] ;
0 -> 1036 [labeldistance=2.5, labelangle=-45, headlabel="False"] ;
1037 [label="volatile acidity <= 0.28\ngini = 0.63\nsamples = 648\nvalue = [2, 29, 94, 532, 294, 70, 1]"] ;
1036 -> 1037 ;
1038 [label="residual sugar <= 1.05\ngini = 0.57\nsamples = 334\nvalue = [0, 6, 51, 323, 129, 28, 1]"] ;
1037 -> 1038 ;
1039 [label="total sulfur dioxide <= 147.0\ngini = 0.14\nsamples = 15\nvalue = [0, 0, 2, 24, 0, 0, 0]"] ;
1038 -> 1039 ;
1040 [label="chlorides <= 0.04\ngini = 0.08\nsamples = 14\nvalue = [0, 0, 1, 24, 0, 0, 0]"] ;
